<?xml version="1.0"?>
<opencv_storage>
<cascade>
  <stageType>BOOST</stageType>
  <featureType>HAAR</featureType>
  <height>48</height>
  <width>48</width>
  <stageParams>
    <boostType>GAB</boostType>
    <minHitRate>9.9500000476837158e-01</minHitRate>
    <maxFalseAlarm>5.0000000000000000e-01</maxFalseAlarm>
    <weightTrimRate>9.4999999999999996e-01</weightTrimRate>
    <maxDepth>1</maxDepth>
    <maxWeakCount>100</maxWeakCount></stageParams>
  <featureParams>
    <maxCatCount>0</maxCatCount>
    <featSize>1</featSize>
    <mode>BASIC</mode></featureParams>
  <stageNum>24</stageNum>
  <stages>
    <!-- stage 0 -->
    <_>
      <maxWeakCount>5</maxWeakCount>
      <stageThreshold>-1.6090189218521118e+00</stageThreshold>
      <weakClassifiers>
        <_>
          <internalNodes>
            0 -1 32 3.2841164618730545e-02</internalNodes>
          <leafValues>
            -8.9619374275207520e-01 7.5355452299118042e-01</leafValues></_>
        <_>
          <internalNodes>
            0 -1 95 -6.9657661952078342e-03</internalNodes>
          <leafValues>
            6.5960443019866943e-01 -6.9681638479232788e-01</leafValues></_>
        <_>
          <internalNodes>
            0 -1 116 4.8705580411478877e-05</internalNodes>
          <leafValues>
            4.3220847845077515e-01 -9.2171370983123779e-01</leafValues></_>
        <_>
          <internalNodes>
            0 -1 18 8.9413877576589584e-03</internalNodes>
          <leafValues>
            -8.2552468776702881e-01 4.2425975203514099e-01</leafValues></_>
        <_>
          <internalNodes>
            0 -1 128 3.4676028008107096e-05</internalNodes>
          <leafValues>
            3.7730747461318970e-01 -9.4278645515441895e-01</leafValues></_></weakClassifiers></_>
    <!-- stage 1 -->
    <_>
      <maxWeakCount>3</maxWeakCount>
      <stageThreshold>-1.1729487180709839e+00</stageThreshold>
      <weakClassifiers>
        <_>
          <internalNodes>
            0 -1 33 2.4821080733090639e-03</internalNodes>
          <leafValues>
            -8.8732391595840454e-01 7.0370370149612427e-01</leafValues></_>
        <_>
          <internalNodes>
            0 -1 94 -1.1036943644285202e-02</internalNodes>
          <leafValues>
            6.0204792022705078e-01 -7.5051462650299072e-01</leafValues></_>
        <_>
          <internalNodes>
            0 -1 127 -1.9138331481372006e-05</internalNodes>
          <leafValues>
            -8.8767266273498535e-01 4.8591473698616028e-01</leafValues></_></weakClassifiers></_>
    <!-- stage 2 -->
    <_>
      <maxWeakCount>3</maxWeakCount>
      <stageThreshold>-1.4151755571365356e+00</stageThreshold>
      <weakClassifiers>
        <_>
          <internalNodes>
            0 -1 19 1.3845415785908699e-02</internalNodes>
          <leafValues>
            -9.4573640823364258e-01 5.9504133462905884e-01</leafValues></_>
        <_>
          <internalNodes>
            0 -1 100 -2.3381861392408609e-03</internalNodes>
          <leafValues>
            4.6000495553016663e-01 -8.5800665616989136e-01</leafValues></_>
        <_>
          <internalNodes>
            0 -1 73 8.9266465511173010e-04</internalNodes>
          <leafValues>
            -8.3097749948501587e-01 3.8856750726699829e-01</leafValues></_></weakClassifiers></_>
    <!-- stage 3 -->
    <_>
      <maxWeakCount>5</maxWeakCount>
      <stageThreshold>-8.3984720706939697e-01</stageThreshold>
      <weakClassifiers>
        <_>
          <internalNodes>
            0 -1 31 3.4124411642551422e-02</internalNodes>
          <leafValues>
            -7.8082191944122314e-01 6.1538463830947876e-01</leafValues></_>
        <_>
          <internalNodes>
            0 -1 121 1.5428138794959523e-05</internalNodes>
          <leafValues>
            3.2024922966957092e-01 -9.0884333848953247e-01</leafValues></_>
        <_>
          <internalNodes>
            0 -1 121 -1.6988797142403200e-05</internalNodes>
          <leafValues>
            -9.0031123161315918e-01 3.5493427515029907e-01</leafValues></_>
        <_>
          <internalNodes>
            0 -1 134 -1.8024675227934495e-05</internalNodes>
          <leafValues>
            -9.7391462326049805e-01 2.3753373324871063e-01</leafValues></_>
        <_>
          <internalNodes>
            0 -1 63 -1.0149329682462849e-05</internalNodes>
          <leafValues>
            -8.9001494646072388e-01 2.8350299596786499e-01</leafValues></_></weakClassifiers></_>
    <!-- stage 4 -->
    <_>
      <maxWeakCount>5</maxWeakCount>
      <stageThreshold>-7.1847671270370483e-01</stageThreshold>
      <weakClassifiers>
        <_>
          <internalNodes>
            0 -1 81 9.6333073452115059e-03</internalNodes>
          <leafValues>
            -8.8018435239791870e-01 3.2155478000640869e-01</leafValues></_>
        <_>
          <internalNodes>
            0 -1 77 -1.6448698937892914e-02</internalNodes>
          <leafValues>
            3.6934781074523926e-01 -8.4147268533706665e-01</leafValues></_>
        <_>
          <internalNodes>
            0 -1 20 -5.0902692601084709e-03</internalNodes>
          <leafValues>
            3.7389007210731506e-01 -7.7373439073562622e-01</leafValues></_>
        <_>
          <internalNodes>
            0 -1 30 -1.4729138456459623e-05</internalNodes>
          <leafValues>
            -8.3549517393112183e-01 3.9234212040901184e-01</leafValues></_>
        <_>
          <internalNodes>
            0 -1 118 2.6412748411530629e-05</internalNodes>
          <leafValues>
            2.6304632425308228e-01 -9.8215007781982422e-01</leafValues></_></weakClassifiers></_>
    <!-- stage 5 -->
    <_>
      <maxWeakCount>6</maxWeakCount>
      <stageThreshold>-1.4824732542037964e+00</stageThreshold>
      <weakClassifiers>
        <_>
          <internalNodes>
            0 -1 118 -1.3941950783191714e-05</internalNodes>
          <leafValues>
            -8.4688997268676758e-01 2.6460480690002441e-01</leafValues></_>
        <_>
          <internalNodes>
            0 -1 113 -2.4865125305950642e-03</internalNodes>
          <leafValues>
            4.2390173673629761e-01 -7.3992443084716797e-01</leafValues></_>
        <_>
          <internalNodes>
            0 -1 42 7.1057409513741732e-05</internalNodes>
          <leafValues>
            2.4412398040294647e-01 -9.3784463405609131e-01</leafValues></_>
        <_>
          <internalNodes>
            0 -1 41 4.1444873204454780e-05</internalNodes>
          <leafValues>
            3.6294797062873840e-01 -7.4120837450027466e-01</leafValues></_>
        <_>
          <internalNodes>
            0 -1 105 -8.3396380068734288e-04</internalNodes>
          <leafValues>
            2.9523161053657532e-01 -8.2143974304199219e-01</leafValues></_>
        <_>
          <internalNodes>
            0 -1 119 -3.5650795325636864e-05</internalNodes>
          <leafValues>
            -8.4884279966354370e-01 3.1870895624160767e-01</leafValues></_></weakClassifiers></_>
    <!-- stage 6 -->
    <_>
      <maxWeakCount>5</maxWeakCount>
      <stageThreshold>-9.0242379903793335e-01</stageThreshold>
      <weakClassifiers>
        <_>
          <internalNodes>
            0 -1 13 -4.9024308100342751e-03</internalNodes>
          <leafValues>
            4.3111109733581543e-01 -7.1636360883712769e-01</leafValues></_>
        <_>
          <internalNodes>
            0 -1 76 1.0864695534110069e-02</internalNodes>
          <leafValues>
            -5.8724635839462280e-01 5.0576645135879517e-01</leafValues></_>
        <_>
          <internalNodes>
            0 -1 92 -2.6312167756259441e-03</internalNodes>
          <leafValues>
            8.4029543399810791e-01 -4.1176909208297729e-01</leafValues></_>
        <_>
          <internalNodes>
            0 -1 27 -2.4615917354822159e-03</internalNodes>
          <leafValues>
            5.4376661777496338e-01 -6.8575906753540039e-01</leafValues></_>
        <_>
          <internalNodes>
            0 -1 124 1.0646411283232737e-05</internalNodes>
          <leafValues>
            4.5634898543357849e-01 -8.7828612327575684e-01</leafValues></_></weakClassifiers></_>
    <!-- stage 7 -->
    <_>
      <maxWeakCount>6</maxWeakCount>
      <stageThreshold>-1.1520926952362061e+00</stageThreshold>
      <weakClassifiers>
        <_>
          <internalNodes>
            0 -1 21 1.8120706081390381e-02</internalNodes>
          <leafValues>
            -7.8354978561401367e-01 3.0111524462699890e-01</leafValues></_>
        <_>
          <internalNodes>
            0 -1 103 -6.9870990701019764e-03</internalNodes>
          <leafValues>
            2.2676376998424530e-01 -8.3132374286651611e-01</leafValues></_>
        <_>
          <internalNodes>
            0 -1 125 -2.0009752915939316e-05</internalNodes>
          <leafValues>
            -7.4374979734420776e-01 3.2271340489387512e-01</leafValues></_>
        <_>
          <internalNodes>
            0 -1 61 -8.8493616203777492e-05</internalNodes>
          <leafValues>
            -8.3388525247573853e-01 2.6119080185890198e-01</leafValues></_>
        <_>
          <internalNodes>
            0 -1 67 1.5359383542090654e-04</internalNodes>
          <leafValues>
            3.5806101560592651e-01 -7.1929425001144409e-01</leafValues></_>
        <_>
          <internalNodes>
            0 -1 9 -2.1835600491613150e-03</internalNodes>
          <leafValues>
            6.6684865951538086e-01 -4.5991668105125427e-01</leafValues></_></weakClassifiers></_>
    <!-- stage 8 -->
    <_>
      <maxWeakCount>5</maxWeakCount>
      <stageThreshold>-1.2651139497756958e+00</stageThreshold>
      <weakClassifiers>
        <_>
          <internalNodes>
            0 -1 47 8.1018283963203430e-03</internalNodes>
          <leafValues>
            -7.1900826692581177e-01 2.8682169318199158e-01</leafValues></_>
        <_>
          <internalNodes>
            0 -1 135 1.1634608730673790e-02</internalNodes>
          <leafValues>
            -4.0436232089996338e-01 6.6206073760986328e-01</leafValues></_>
        <_>
          <internalNodes>
            0 -1 108 -1.5767551958560944e-03</internalNodes>
          <leafValues>
            2.8458499908447266e-01 -8.8930976390838623e-01</leafValues></_>
        <_>
          <internalNodes>
            0 -1 25 2.7124746338813566e-05</internalNodes>
          <leafValues>
            3.6709865927696228e-01 -7.1424233913421631e-01</leafValues></_>
        <_>
          <internalNodes>
            0 -1 8 -2.4248186498880386e-02</internalNodes>
          <leafValues>
            -9.8147875070571899e-01 2.8791397809982300e-01</leafValues></_></weakClassifiers></_>
    <!-- stage 9 -->
    <_>
      <maxWeakCount>7</maxWeakCount>
      <stageThreshold>-1.6690090894699097e+00</stageThreshold>
      <weakClassifiers>
        <_>
          <internalNodes>
            0 -1 114 -2.3517080990131944e-05</internalNodes>
          <leafValues>
            -8.5567009449005127e-01 2.1568627655506134e-01</leafValues></_>
        <_>
          <internalNodes>
            0 -1 130 3.0098577553872019e-05</internalNodes>
          <leafValues>
            2.3862250149250031e-01 -8.9645832777023315e-01</leafValues></_>
        <_>
          <internalNodes>
            0 -1 62 -1.0925019159913063e-03</internalNodes>
          <leafValues>
            2.5370973348617554e-01 -8.7846535444259644e-01</leafValues></_>
        <_>
          <internalNodes>
            0 -1 46 1.7338457109872252e-04</internalNodes>
          <leafValues>
            3.2199394702911377e-01 -7.1542412042617798e-01</leafValues></_>
        <_>
          <internalNodes>
            0 -1 129 -2.0845767721766606e-05</internalNodes>
          <leafValues>
            -8.2428586483001709e-01 2.7178063988685608e-01</leafValues></_>
        <_>
          <internalNodes>
            0 -1 11 -5.8833858929574490e-04</internalNodes>
          <leafValues>
            5.2371972799301147e-01 -4.6097508072853088e-01</leafValues></_>
        <_>
          <internalNodes>
            0 -1 88 -1.4277243753895164e-03</internalNodes>
          <leafValues>
            6.9321614503860474e-01 -3.3732813596725464e-01</leafValues></_></weakClassifiers></_>
    <!-- stage 10 -->
    <_>
      <maxWeakCount>8</maxWeakCount>
      <stageThreshold>-1.1367971897125244e+00</stageThreshold>
      <weakClassifiers>
        <_>
          <internalNodes>
            0 -1 142 -6.4695597393438220e-04</internalNodes>
          <leafValues>
            5.0000000000000000e-01 -5.2941179275512695e-01</leafValues></_>
        <_>
          <internalNodes>
            0 -1 96 -1.6942399088293314e-03</internalNodes>
          <leafValues>
            3.2872247695922852e-01 -6.3257956504821777e-01</leafValues></_>
        <_>
          <internalNodes>
            0 -1 83 -1.1856146156787872e-03</internalNodes>
          <leafValues>
            6.8030017614364624e-01 -3.3669912815093994e-01</leafValues></_>
        <_>
          <internalNodes>
            0 -1 139 -5.8305205311626196e-04</internalNodes>
          <leafValues>
            6.9467800855636597e-01 -3.1966841220855713e-01</leafValues></_>
        <_>
          <internalNodes>
            0 -1 126 -1.9263313151896000e-03</internalNodes>
          <leafValues>
            6.1053377389907837e-01 -3.5575154423713684e-01</leafValues></_>
        <_>
          <internalNodes>
            0 -1 122 1.3743720046477392e-05</internalNodes>
          <leafValues>
            3.5775151848793030e-01 -7.8048187494277954e-01</leafValues></_>
        <_>
          <internalNodes>
            0 -1 141 -2.3898721337900497e-05</internalNodes>
          <leafValues>
            4.9396169185638428e-01 -4.9525734782218933e-01</leafValues></_>
        <_>
          <internalNodes>
            0 -1 40 2.3236498236656189e-03</internalNodes>
          <leafValues>
            -7.0108121633529663e-01 3.2233864068984985e-01</leafValues></_></weakClassifiers></_>
    <!-- stage 11 -->
    <_>
      <maxWeakCount>5</maxWeakCount>
      <stageThreshold>-6.9753569364547729e-01</stageThreshold>
      <weakClassifiers>
        <_>
          <internalNodes>
            0 -1 36 -3.5865705285687000e-05</internalNodes>
          <leafValues>
            -7.9347825050354004e-01 1.4556962251663208e-01</leafValues></_>
        <_>
          <internalNodes>
            0 -1 56 3.4767384931910783e-05</internalNodes>
          <leafValues>
            2.1799087524414062e-01 -7.8052723407745361e-01</leafValues></_>
        <_>
          <internalNodes>
            0 -1 84 -7.4288528412580490e-03</internalNodes>
          <leafValues>
            5.2537298202514648e-01 -4.1920459270477295e-01</leafValues></_>
        <_>
          <internalNodes>
            0 -1 109 1.0004692740039900e-05</internalNodes>
          <leafValues>
            2.7552917599678040e-01 -7.0230108499526978e-01</leafValues></_>
        <_>
          <internalNodes>
            0 -1 80 -1.0024218354374170e-03</internalNodes>
          <leafValues>
            -9.1742074489593506e-01 2.3339956998825073e-01</leafValues></_></weakClassifiers></_>
    <!-- stage 12 -->
    <_>
      <maxWeakCount>6</maxWeakCount>
      <stageThreshold>-6.4206433296203613e-01</stageThreshold>
      <weakClassifiers>
        <_>
          <internalNodes>
            0 -1 7 -3.0486861942335963e-04</internalNodes>
          <leafValues>
            4.2168673872947693e-01 -5.0898206233978271e-01</leafValues></_>
        <_>
          <internalNodes>
            0 -1 2 6.2954071909189224e-03</internalNodes>
          <leafValues>
            -3.3492550253868103e-01 6.8410187959671021e-01</leafValues></_>
        <_>
          <internalNodes>
            0 -1 68 -1.4177550561726093e-02</internalNodes>
          <leafValues>
            -8.4653061628341675e-01 2.5241434574127197e-01</leafValues></_>
        <_>
          <internalNodes>
            0 -1 48 2.4472619406878948e-03</internalNodes>
          <leafValues>
            -6.6376757621765137e-01 3.2079184055328369e-01</leafValues></_>
        <_>
          <internalNodes>
            0 -1 23 -3.1306115033657989e-06</internalNodes>
          <leafValues>
            4.8741376399993896e-01 -5.1012444496154785e-01</leafValues></_>
        <_>
          <internalNodes>
            0 -1 120 1.6765729014878161e-05</internalNodes>
          <leafValues>
            3.0983215570449829e-01 -7.9190731048583984e-01</leafValues></_></weakClassifiers></_>
    <!-- stage 13 -->
    <_>
      <maxWeakCount>6</maxWeakCount>
      <stageThreshold>-9.0269279479980469e-01</stageThreshold>
      <weakClassifiers>
        <_>
          <internalNodes>
            0 -1 115 -8.9294370263814926e-04</internalNodes>
          <leafValues>
            1.7689530551433563e-01 -6.6816145181655884e-01</leafValues></_>
        <_>
          <internalNodes>
            0 -1 35 5.2835908718407154e-04</internalNodes>
          <leafValues>
            1.9862651824951172e-01 -8.4640407562255859e-01</leafValues></_>
        <_>
          <internalNodes>
            0 -1 138 5.8044424804393202e-06</internalNodes>
          <leafValues>
            -4.0176075696945190e-01 5.1129186153411865e-01</leafValues></_>
        <_>
          <internalNodes>
            0 -1 50 3.8360132748493925e-05</internalNodes>
          <leafValues>
            2.2553969919681549e-01 -8.6824601888656616e-01</leafValues></_>
        <_>
          <internalNodes>
            0 -1 4 -1.2874013918917626e-05</internalNodes>
          <leafValues>
            5.3343832492828369e-01 -4.3390724062919617e-01</leafValues></_>
        <_>
          <internalNodes>
            0 -1 65 -2.0197173580527306e-03</internalNodes>
          <leafValues>
            3.5770353674888611e-01 -5.4624754190444946e-01</leafValues></_></weakClassifiers></_>
    <!-- stage 14 -->
    <_>
      <maxWeakCount>8</maxWeakCount>
      <stageThreshold>-1.1642712354660034e+00</stageThreshold>
      <weakClassifiers>
        <_>
          <internalNodes>
            0 -1 6 -2.9395247111096978e-04</internalNodes>
          <leafValues>
            5.1145040988922119e-01 -4.5257452130317688e-01</leafValues></_>
        <_>
          <internalNodes>
            0 -1 75 -3.7559664342552423e-03</internalNodes>
          <leafValues>
            -7.4964094161987305e-01 2.6646167039871216e-01</leafValues></_>
        <_>
          <internalNodes>
            0 -1 15 -3.8408176042139530e-03</internalNodes>
          <leafValues>
            2.9230779409408569e-01 -6.0895383358001709e-01</leafValues></_>
        <_>
          <internalNodes>
            0 -1 102 8.9617624325910583e-06</internalNodes>
          <leafValues>
            -3.9469593763351440e-01 5.0860059261322021e-01</leafValues></_>
        <_>
          <internalNodes>
            0 -1 91 -3.1697656959295273e-03</internalNodes>
          <leafValues>
            7.4414408206939697e-01 -2.8316920995712280e-01</leafValues></_>
        <_>
          <internalNodes>
            0 -1 93 5.8306086430093274e-06</internalNodes>
          <leafValues>
            -3.3531397581100464e-01 5.6527692079544067e-01</leafValues></_>
        <_>
          <internalNodes>
            0 -1 86 -1.9617427606135607e-03</internalNodes>
          <leafValues>
            3.9284473657608032e-01 -5.4011535644531250e-01</leafValues></_>
        <_>
          <internalNodes>
            0 -1 54 2.6948564482154325e-05</internalNodes>
          <leafValues>
            2.8349909186363220e-01 -7.6444429159164429e-01</leafValues></_></weakClassifiers></_>
    <!-- stage 15 -->
    <_>
      <maxWeakCount>6</maxWeakCount>
      <stageThreshold>-9.7423064708709717e-01</stageThreshold>
      <weakClassifiers>
        <_>
          <internalNodes>
            0 -1 39 2.0576298993546516e-05</internalNodes>
          <leafValues>
            6.3013695180416107e-02 -9.1111111640930176e-01</leafValues></_>
        <_>
          <internalNodes>
            0 -1 24 4.7557190060615540e-02</internalNodes>
          <leafValues>
            1.6050852835178375e-01 -7.9670786857604980e-01</leafValues></_>
        <_>
          <internalNodes>
            0 -1 17 3.3996780402958393e-03</internalNodes>
          <leafValues>
            -6.7453235387802124e-01 2.9656201601028442e-01</leafValues></_>
        <_>
          <internalNodes>
            0 -1 59 -3.0903480947017670e-03</internalNodes>
          <leafValues>
            -8.2947212457656860e-01 1.9838479161262512e-01</leafValues></_>
        <_>
          <internalNodes>
            0 -1 57 1.0934833437204361e-02</internalNodes>
          <leafValues>
            1.7881168425083160e-01 -9.3691933155059814e-01</leafValues></_>
        <_>
          <internalNodes>
            0 -1 132 3.3063428418245167e-05</internalNodes>
          <leafValues>
            1.2743996083736420e-01 -9.8328864574432373e-01</leafValues></_></weakClassifiers></_>
    <!-- stage 16 -->
    <_>
      <maxWeakCount>7</maxWeakCount>
      <stageThreshold>-9.3639326095581055e-01</stageThreshold>
      <weakClassifiers>
        <_>
          <internalNodes>
            0 -1 0 6.7014424130320549e-03</internalNodes>
          <leafValues>
            -4.6285715699195862e-01 4.1333332657814026e-01</leafValues></_>
        <_>
          <internalNodes>
            0 -1 131 -2.7600148314377293e-05</internalNodes>
          <leafValues>
            -6.7205899953842163e-01 2.7104866504669189e-01</leafValues></_>
        <_>
          <internalNodes>
            0 -1 136 -3.0250002964749001e-06</internalNodes>
          <leafValues>
            4.7311332821846008e-01 -4.0259599685668945e-01</leafValues></_>
        <_>
          <internalNodes>
            0 -1 66 -2.3257634602487087e-03</internalNodes>
          <leafValues>
            -9.6187615394592285e-01 2.4809265136718750e-01</leafValues></_>
        <_>
          <internalNodes>
            0 -1 78 7.8762932389508933e-06</internalNodes>
          <leafValues>
            -4.8404484987258911e-01 3.9187228679656982e-01</leafValues></_>
        <_>
          <internalNodes>
            0 -1 137 -1.5213496226351708e-04</internalNodes>
          <leafValues>
            4.5054891705513000e-01 -4.3748608231544495e-01</leafValues></_>
        <_>
          <internalNodes>
            0 -1 58 -9.6299656433984637e-05</internalNodes>
          <leafValues>
            4.8537266254425049e-01 -4.8966830968856812e-01</leafValues></_></weakClassifiers></_>
    <!-- stage 17 -->
    <_>
      <maxWeakCount>8</maxWeakCount>
      <stageThreshold>-7.0928478240966797e-01</stageThreshold>
      <weakClassifiers>
        <_>
          <internalNodes>
            0 -1 82 -1.0269904509186745e-02</internalNodes>
          <leafValues>
            5.6521737575531006e-01 -4.2857143282890320e-01</leafValues></_>
        <_>
          <internalNodes>
            0 -1 89 1.0508265346288681e-02</internalNodes>
          <leafValues>
            -3.2366874814033508e-01 6.6351431608200073e-01</leafValues></_>
        <_>
          <internalNodes>
            0 -1 79 -6.2487833201885223e-03</internalNodes>
          <leafValues>
            7.8029662370681763e-01 -2.2046664357185364e-01</leafValues></_>
        <_>
          <internalNodes>
            0 -1 98 -9.4634126871824265e-03</internalNodes>
          <leafValues>
            7.1928894519805908e-01 -2.3086741566658020e-01</leafValues></_>
        <_>
          <internalNodes>
            0 -1 71 7.9745845869183540e-04</internalNodes>
          <leafValues>
            2.2518028318881989e-01 -9.1465103626251221e-01</leafValues></_>
        <_>
          <internalNodes>
            0 -1 26 -7.2718281298875809e-03</internalNodes>
          <leafValues>
            -8.7383753061294556e-01 2.7969631552696228e-01</leafValues></_>
        <_>
          <internalNodes>
            0 -1 1 -3.5547316201700596e-06</internalNodes>
          <leafValues>
            4.4378653168678284e-01 -4.6342569589614868e-01</leafValues></_>
        <_>
          <internalNodes>
            0 -1 29 2.8781820088624954e-02</internalNodes>
          <leafValues>
            -2.9462870955467224e-01 8.0916792154312134e-01</leafValues></_></weakClassifiers></_>
    <!-- stage 18 -->
    <_>
      <maxWeakCount>8</maxWeakCount>
      <stageThreshold>-8.9337027072906494e-01</stageThreshold>
      <weakClassifiers>
        <_>
          <internalNodes>
            0 -1 85 7.8779630712233484e-06</internalNodes>
          <leafValues>
            -7.7922075986862183e-01 5.7803466916084290e-02</leafValues></_>
        <_>
          <internalNodes>
            0 -1 49 -9.0223074948880821e-06</internalNodes>
          <leafValues>
            -7.3581153154373169e-01 1.9492806494235992e-01</leafValues></_>
        <_>
          <internalNodes>
            0 -1 53 -3.0651485758426134e-06</internalNodes>
          <leafValues>
            5.0216090679168701e-01 -4.0136146545410156e-01</leafValues></_>
        <_>
          <internalNodes>
            0 -1 60 4.4288009405136108e-02</internalNodes>
          <leafValues>
            2.0202328264713287e-01 -8.5742193460464478e-01</leafValues></_>
        <_>
          <internalNodes>
            0 -1 117 2.0757317543029785e-05</internalNodes>
          <leafValues>
            2.0675517618656158e-01 -9.1330695152282715e-01</leafValues></_>
        <_>
          <internalNodes>
            0 -1 110 3.0499952117679641e-05</internalNodes>
          <leafValues>
            1.2856005132198334e-01 -9.6085727214813232e-01</leafValues></_>
        <_>
          <internalNodes>
            0 -1 112 -3.6091129004489630e-05</internalNodes>
          <leafValues>
            4.9480950832366943e-01 -3.9335846900939941e-01</leafValues></_>
        <_>
          <internalNodes>
            0 -1 28 -2.9541321564465761e-03</internalNodes>
          <leafValues>
            -7.1037095785140991e-01 2.5855895876884460e-01</leafValues></_></weakClassifiers></_>
    <!-- stage 19 -->
    <_>
      <maxWeakCount>6</maxWeakCount>
      <stageThreshold>-8.4104710817337036e-01</stageThreshold>
      <weakClassifiers>
        <_>
          <internalNodes>
            0 -1 5 -3.4430256346240640e-04</internalNodes>
          <leafValues>
            2.9230770468711853e-01 -5.1475411653518677e-01</leafValues></_>
        <_>
          <internalNodes>
            0 -1 55 -3.7273747147992253e-04</internalNodes>
          <leafValues>
            2.6497316360473633e-01 -6.3328194618225098e-01</leafValues></_>
        <_>
          <internalNodes>
            0 -1 37 -1.8376024439930916e-02</internalNodes>
          <leafValues>
            -9.6728295087814331e-01 1.6924899816513062e-01</leafValues></_>
        <_>
          <internalNodes>
            0 -1 14 -1.0065935202874243e-04</internalNodes>
          <leafValues>
            6.2658238410949707e-01 -3.2336801290512085e-01</leafValues></_>
        <_>
          <internalNodes>
            0 -1 111 -2.2739994165021926e-05</internalNodes>
          <leafValues>
            -6.6458648443222046e-01 3.2065057754516602e-01</leafValues></_>
        <_>
          <internalNodes>
            0 -1 106 8.9753002612269484e-06</internalNodes>
          <leafValues>
            -4.2832756042480469e-01 4.8040369153022766e-01</leafValues></_></weakClassifiers></_>
    <!-- stage 20 -->
    <_>
      <maxWeakCount>6</maxWeakCount>
      <stageThreshold>-9.3282169103622437e-01</stageThreshold>
      <weakClassifiers>
        <_>
          <internalNodes>
            0 -1 101 4.9825111636891961e-04</internalNodes>
          <leafValues>
            -5.3846156597137451e-01 3.0348259210586548e-01</leafValues></_>
        <_>
          <internalNodes>
            0 -1 107 -1.1788418050855398e-03</internalNodes>
          <leafValues>
            2.6019671559333801e-01 -6.9035607576370239e-01</leafValues></_>
        <_>
          <internalNodes>
            0 -1 44 8.2823482807725668e-04</internalNodes>
          <leafValues>
            1.8355697393417358e-01 -7.8448474407196045e-01</leafValues></_>
        <_>
          <internalNodes>
            0 -1 10 -5.5000593420118093e-04</internalNodes>
          <leafValues>
            3.4074515104293823e-01 -5.0042372941970825e-01</leafValues></_>
        <_>
          <internalNodes>
            0 -1 69 -2.6868246495723724e-02</internalNodes>
          <leafValues>
            -9.4335603713989258e-01 1.8540658056735992e-01</leafValues></_>
        <_>
          <internalNodes>
            0 -1 123 -6.2941444411990233e-06</internalNodes>
          <leafValues>
            4.9100404977798462e-01 -3.9622384309768677e-01</leafValues></_></weakClassifiers></_>
    <!-- stage 21 -->
    <_>
      <maxWeakCount>9</maxWeakCount>
      <stageThreshold>-1.0690771341323853e+00</stageThreshold>
      <weakClassifiers>
        <_>
          <internalNodes>
            0 -1 99 7.4273732025176287e-04</internalNodes>
          <leafValues>
            -5.8801496028900146e-01 2.4463519454002380e-01</leafValues></_>
        <_>
          <internalNodes>
            0 -1 16 5.2681721746921539e-02</internalNodes>
          <leafValues>
            -4.9611705541610718e-01 3.8775178790092468e-01</leafValues></_>
        <_>
          <internalNodes>
            0 -1 140 5.5430911743314937e-05</internalNodes>
          <leafValues>
            -2.2992372512817383e-01 6.7486292123794556e-01</leafValues></_>
        <_>
          <internalNodes>
            0 -1 22 -2.7838828973472118e-03</internalNodes>
          <leafValues>
            2.4307453632354736e-01 -6.7586058378219604e-01</leafValues></_>
        <_>
          <internalNodes>
            0 -1 45 3.4264721762156114e-05</internalNodes>
          <leafValues>
            3.4755861759185791e-01 -5.2715474367141724e-01</leafValues></_>
        <_>
          <internalNodes>
            0 -1 72 -1.5328491106629372e-02</internalNodes>
          <leafValues>
            9.1499900817871094e-01 -2.0118324458599091e-01</leafValues></_>
        <_>
          <internalNodes>
            0 -1 90 -5.5428154155379161e-06</internalNodes>
          <leafValues>
            4.1461706161499023e-01 -3.9320787787437439e-01</leafValues></_>
        <_>
          <internalNodes>
            0 -1 97 4.4022062793374062e-03</internalNodes>
          <leafValues>
            -2.0991621911525726e-01 8.8316959142684937e-01</leafValues></_>
        <_>
          <internalNodes>
            0 -1 144 -5.8901905504171737e-06</internalNodes>
          <leafValues>
            4.9927526712417603e-01 -3.0710899829864502e-01</leafValues></_></weakClassifiers></_>
    <!-- stage 22 -->
    <_>
      <maxWeakCount>8</maxWeakCount>
      <stageThreshold>-5.0204706192016602e-01</stageThreshold>
      <weakClassifiers>
        <_>
          <internalNodes>
            0 -1 38 -1.7399434000253677e-05</internalNodes>
          <leafValues>
            -8.4615385532379150e-01 5.8823529630899429e-02</leafValues></_>
        <_>
          <internalNodes>
            0 -1 104 -1.6009344253689051e-03</internalNodes>
          <leafValues>
            1.6483044624328613e-01 -7.0621699094772339e-01</leafValues></_>
        <_>
          <internalNodes>
            0 -1 87 -1.6644597053527832e-04</internalNodes>
          <leafValues>
            4.8509767651557922e-01 -3.2762226462364197e-01</leafValues></_>
        <_>
          <internalNodes>
            0 -1 74 -4.1498238715576008e-05</internalNodes>
          <leafValues>
            -6.7409622669219971e-01 2.5218567252159119e-01</leafValues></_>
        <_>
          <internalNodes>
            0 -1 143 -6.2882854763302021e-06</internalNodes>
          <leafValues>
            5.1446688175201416e-01 -3.4713101387023926e-01</leafValues></_>
        <_>
          <internalNodes>
            0 -1 52 -9.0491448645479977e-05</internalNodes>
          <leafValues>
            -5.3864109516143799e-01 2.9775938391685486e-01</leafValues></_>
        <_>
          <internalNodes>
            0 -1 70 2.0509880036115646e-02</internalNodes>
          <leafValues>
            -2.5690713524818420e-01 6.9925594329833984e-01</leafValues></_>
        <_>
          <internalNodes>
            0 -1 64 8.7854932644404471e-06</internalNodes>
          <leafValues>
            -2.5172826647758484e-01 5.9080332517623901e-01</leafValues></_></weakClassifiers></_>
    <!-- stage 23 -->
    <_>
      <maxWeakCount>6</maxWeakCount>
      <stageThreshold>-7.7615612745285034e-01</stageThreshold>
      <weakClassifiers>
        <_>
          <internalNodes>
            0 -1 3 -8.8425785303115845e-02</internalNodes>
          <leafValues>
            6.6666668653488159e-01 -3.9024388790130615e-01</leafValues></_>
        <_>
          <internalNodes>
            0 -1 43 1.3492883226717822e-05</internalNodes>
          <leafValues>
            2.7125194668769836e-01 -7.1370124816894531e-01</leafValues></_>
        <_>
          <internalNodes>
            0 -1 34 8.4181386046111584e-04</internalNodes>
          <leafValues>
            -4.2307791113853455e-01 4.1313767433166504e-01</leafValues></_>
        <_>
          <internalNodes>
            0 -1 12 -2.7100963518023491e-02</internalNodes>
          <leafValues>
            -9.6325385570526123e-01 1.6807341575622559e-01</leafValues></_>
        <_>
          <internalNodes>
            0 -1 51 -2.0488826557993889e-03</internalNodes>
          <leafValues>
            5.0368624925613403e-01 -3.8968476653099060e-01</leafValues></_>
        <_>
          <internalNodes>
            0 -1 133 -1.3659016985911876e-05</internalNodes>
          <leafValues>
            -6.9784855842590332e-01 2.8263679146766663e-01</leafValues></_></weakClassifiers></_></stages>
  <features>
    <_>
      <rects>
        <_>
          0 22 12 3 -1.</_>
        <_>
          4 22 4 3 3.</_></rects>
      <tilted>0</tilted></_>
    <_>
      <rects>
        <_>
          0 24 8 2 -1.</_>
        <_>
          0 24 4 1 2.</_>
        <_>
          4 25 4 1 2.</_></rects>
      <tilted>0</tilted></_>
    <_>
      <rects>
        <_>
          1 25 12 3 -1.</_>
        <_>
          5 25 4 3 3.</_></rects>
      <tilted>0</tilted></_>
    <_>
      <rects>
        <_>
          2 27 41 20 -1.</_>
        <_>
          2 37 41 10 2.</_></rects>
      <tilted>0</tilted></_>
    <_>
      <rects>
        <_>
          3 27 6 2 -1.</_>
        <_>
          3 27 3 1 2.</_>
        <_>
          6 28 3 1 2.</_></rects>
      <tilted>0</tilted></_>
    <_>
      <rects>
        <_>
          3 31 9 1 -1.</_>
        <_>
          6 31 3 1 3.</_></rects>
      <tilted>0</tilted></_>
    <_>
      <rects>
        <_>
          4 23 3 2 -1.</_>
        <_>
          5 23 1 2 3.</_></rects>
      <tilted>0</tilted></_>
    <_>
      <rects>
        <_>
          4 28 6 1 -1.</_>
        <_>
          6 28 2 1 3.</_></rects>
      <tilted>0</tilted></_>
    <_>
      <rects>
        <_>
          5 20 34 11 -1.</_>
        <_>
          22 20 17 11 2.</_></rects>
      <tilted>0</tilted></_>
    <_>
      <rects>
        <_>
          5 22 9 5 -1.</_>
        <_>
          8 22 3 5 3.</_></rects>
      <tilted>0</tilted></_>
    <_>
      <rects>
        <_>
          5 22 12 1 -1.</_>
        <_>
          9 22 4 1 3.</_></rects>
      <tilted>0</tilted></_>
    <_>
      <rects>
        <_>
          5 23 6 1 -1.</_>
        <_>
          8 23 3 1 2.</_></rects>
      <tilted>0</tilted></_>
    <_>
      <rects>
        <_>
          6 14 33 20 -1.</_>
        <_>
          6 24 33 10 2.</_></rects>
      <tilted>0</tilted></_>
    <_>
      <rects>
        <_>
          6 18 12 8 -1.</_>
        <_>
          10 18 4 8 3.</_></rects>
      <tilted>0</tilted></_>
    <_>
      <rects>
        <_>
          7 23 3 2 -1.</_>
        <_>
          8 23 1 2 3.</_></rects>
      <tilted>0</tilted></_>
    <_>
      <rects>
        <_>
          8 16 12 12 -1.</_>
        <_>
          12 16 4 12 3.</_></rects>
      <tilted>0</tilted></_>
    <_>
      <rects>
        <_>
          9 5 33 24 -1.</_>
        <_>
          20 5 11 24 3.</_></rects>
      <tilted>0</tilted></_>
    <_>
      <rects>
        <_>
          9 10 20 26 -1.</_>
        <_>
          9 23 20 13 2.</_></rects>
      <tilted>0</tilted></_>
    <_>
      <rects>
        <_>
          9 11 20 18 -1.</_>
        <_>
          9 11 10 9 2.</_>
        <_>
          19 20 10 9 2.</_></rects>
      <tilted>0</tilted></_>
    <_>
      <rects>
        <_>
          9 21 20 8 -1.</_>
        <_>
          19 21 10 8 2.</_></rects>
      <tilted>0</tilted></_>
    <_>
      <rects>
        <_>
          9 25 15 8 -1.</_>
        <_>
          14 25 5 8 3.</_></rects>
      <tilted>0</tilted></_>
    <_>
      <rects>
        <_>
          10 12 18 18 -1.</_>
        <_>
          10 12 9 9 2.</_>
        <_>
          19 21 9 9 2.</_></rects>
      <tilted>0</tilted></_>
    <_>
      <rects>
        <_>
          10 14 12 15 -1.</_>
        <_>
          14 14 4 15 3.</_></rects>
      <tilted>0</tilted></_>
    <_>
      <rects>
        <_>
          10 29 14 2 -1.</_>
        <_>
          10 29 7 1 2.</_>
        <_>
          17 30 7 1 2.</_></rects>
      <tilted>0</tilted></_>
    <_>
      <rects>
        <_>
          11 10 27 26 -1.</_>
        <_>
          11 23 27 13 2.</_></rects>
      <tilted>0</tilted></_>
    <_>
      <rects>
        <_>
          11 24 2 4 -1.</_>
        <_>
          11 26 2 2 2.</_></rects>
      <tilted>0</tilted></_>
    <_>
      <rects>
        <_>
          11 25 27 8 -1.</_>
        <_>
          11 29 27 4 2.</_></rects>
      <tilted>0</tilted></_>
    <_>
      <rects>
        <_>
          11 26 15 3 -1.</_>
        <_>
          16 26 5 3 3.</_></rects>
      <tilted>0</tilted></_>
    <_>
      <rects>
        <_>
          11 44 15 4 -1.</_>
        <_>
          16 44 5 4 3.</_></rects>
      <tilted>0</tilted></_>
    <_>
      <rects>
        <_>
          12 0 23 16 -1.</_>
        <_>
          12 8 23 8 2.</_></rects>
      <tilted>0</tilted></_>
    <_>
      <rects>
        <_>
          12 23 1 6 -1.</_>
        <_>
          12 26 1 3 2.</_></rects>
      <tilted>0</tilted></_>
    <_>
      <rects>
        <_>
          12 23 24 6 -1.</_>
        <_>
          20 23 8 6 3.</_></rects>
      <tilted>0</tilted></_>
    <_>
      <rects>
        <_>
          12 23 24 7 -1.</_>
        <_>
          20 23 8 7 3.</_></rects>
      <tilted>0</tilted></_>
    <_>
      <rects>
        <_>
          12 26 16 1 -1.</_>
        <_>
          20 26 8 1 2.</_></rects>
      <tilted>0</tilted></_>
    <_>
      <rects>
        <_>
          12 30 4 18 -1.</_>
        <_>
          12 36 4 6 3.</_></rects>
      <tilted>0</tilted></_>
    <_>
      <rects>
        <_>
          13 13 2 16 -1.</_>
        <_>
          13 21 2 8 2.</_></rects>
      <tilted>0</tilted></_>
    <_>
      <rects>
        <_>
          13 18 1 10 -1.</_>
        <_>
          13 23 1 5 2.</_></rects>
      <tilted>0</tilted></_>
    <_>
      <rects>
        <_>
          13 20 29 12 -1.</_>
        <_>
          13 26 29 6 2.</_></rects>
      <tilted>0</tilted></_>
    <_>
      <rects>
        <_>
          13 25 4 2 -1.</_>
        <_>
          15 25 2 2 2.</_></rects>
      <tilted>0</tilted></_>
    <_>
      <rects>
        <_>
          13 26 4 1 -1.</_>
        <_>
          15 26 2 1 2.</_></rects>
      <tilted>0</tilted></_>
    <_>
      <rects>
        <_>
          13 26 14 1 -1.</_>
        <_>
          20 26 7 1 2.</_></rects>
      <tilted>0</tilted></_>
    <_>
      <rects>
        <_>
          14 14 1 15 -1.</_>
        <_>
          14 19 1 5 3.</_></rects>
      <tilted>0</tilted></_>
    <_>
      <rects>
        <_>
          14 20 1 8 -1.</_>
        <_>
          14 24 1 4 2.</_></rects>
      <tilted>0</tilted></_>
    <_>
      <rects>
        <_>
          14 23 2 8 -1.</_>
        <_>
          14 27 2 4 2.</_></rects>
      <tilted>0</tilted></_>
    <_>
      <rects>
        <_>
          14 26 21 6 -1.</_>
        <_>
          14 28 21 2 3.</_></rects>
      <tilted>0</tilted></_>
    <_>
      <rects>
        <_>
          14 29 6 2 -1.</_>
        <_>
          17 29 3 2 2.</_></rects>
      <tilted>0</tilted></_>
    <_>
      <rects>
        <_>
          15 14 18 1 -1.</_>
        <_>
          21 14 6 1 3.</_></rects>
      <tilted>0</tilted></_>
    <_>
      <rects>
        <_>
          15 15 20 15 -1.</_>
        <_>
          15 20 20 5 3.</_></rects>
      <tilted>0</tilted></_>
    <_>
      <rects>
        <_>
          15 16 21 12 -1.</_>
        <_>
          15 20 21 4 3.</_></rects>
      <tilted>0</tilted></_>
    <_>
      <rects>
        <_>
          15 26 3 1 -1.</_>
        <_>
          16 26 1 1 3.</_></rects>
      <tilted>0</tilted></_>
    <_>
      <rects>
        <_>
          15 26 2 3 -1.</_>
        <_>
          16 26 1 3 2.</_></rects>
      <tilted>0</tilted></_>
    <_>
      <rects>
        <_>
          15 29 3 15 -1.</_>
        <_>
          15 34 3 5 3.</_></rects>
      <tilted>0</tilted></_>
    <_>
      <rects>
        <_>
          15 30 6 2 -1.</_>
        <_>
          17 30 2 2 3.</_></rects>
      <tilted>0</tilted></_>
    <_>
      <rects>
        <_>
          15 43 16 2 -1.</_>
        <_>
          15 44 16 1 2.</_></rects>
      <tilted>0</tilted></_>
    <_>
      <rects>
        <_>
          16 12 6 1 -1.</_>
        <_>
          19 12 3 1 2.</_></rects>
      <tilted>0</tilted></_>
    <_>
      <rects>
        <_>
          16 22 16 12 -1.</_>
        <_>
          16 28 16 6 2.</_></rects>
      <tilted>0</tilted></_>
    <_>
      <rects>
        <_>
          16 26 1 6 -1.</_>
        <_>
          16 29 1 3 2.</_></rects>
      <tilted>0</tilted></_>
    <_>
      <rects>
        <_>
          17 0 8 19 -1.</_>
        <_>
          21 0 4 19 2.</_></rects>
      <tilted>0</tilted></_>
    <_>
      <rects>
        <_>
          17 4 1 10 -1.</_>
        <_>
          17 9 1 5 2.</_></rects>
      <tilted>0</tilted></_>
    <_>
      <rects>
        <_>
          17 9 12 12 -1.</_>
        <_>
          21 9 4 12 3.</_></rects>
      <tilted>0</tilted></_>
    <_>
      <rects>
        <_>
          17 13 22 20 -1.</_>
        <_>
          17 23 22 10 2.</_></rects>
      <tilted>0</tilted></_>
    <_>
      <rects>
        <_>
          17 14 8 2 -1.</_>
        <_>
          21 14 4 2 2.</_></rects>
      <tilted>0</tilted></_>
    <_>
      <rects>
        <_>
          17 15 22 13 -1.</_>
        <_>
          28 15 11 13 2.</_></rects>
      <tilted>0</tilted></_>
    <_>
      <rects>
        <_>
          17 28 2 4 -1.</_>
        <_>
          17 30 2 2 2.</_></rects>
      <tilted>0</tilted></_>
    <_>
      <rects>
        <_>
          18 5 2 11 -1.</_>
        <_>
          19 5 1 11 2.</_></rects>
      <tilted>0</tilted></_>
    <_>
      <rects>
        <_>
          18 11 12 9 -1.</_>
        <_>
          18 14 12 3 3.</_></rects>
      <tilted>0</tilted></_>
    <_>
      <rects>
        <_>
          18 13 12 10 -1.</_>
        <_>
          22 13 4 10 3.</_></rects>
      <tilted>0</tilted></_>
    <_>
      <rects>
        <_>
          18 13 18 1 -1.</_>
        <_>
          24 13 6 1 3.</_></rects>
      <tilted>0</tilted></_>
    <_>
      <rects>
        <_>
          18 20 13 14 -1.</_>
        <_>
          18 27 13 7 2.</_></rects>
      <tilted>0</tilted></_>
    <_>
      <rects>
        <_>
          18 23 26 4 -1.</_>
        <_>
          31 23 13 4 2.</_></rects>
      <tilted>0</tilted></_>
    <_>
      <rects>
        <_>
          18 26 12 20 -1.</_>
        <_>
          18 26 6 10 2.</_>
        <_>
          24 36 6 10 2.</_></rects>
      <tilted>0</tilted></_>
    <_>
      <rects>
        <_>
          18 27 12 4 -1.</_>
        <_>
          18 29 12 2 2.</_></rects>
      <tilted>0</tilted></_>
    <_>
      <rects>
        <_>
          18 28 12 7 -1.</_>
        <_>
          22 28 4 7 3.</_></rects>
      <tilted>0</tilted></_>
    <_>
      <rects>
        <_>
          19 10 16 26 -1.</_>
        <_>
          19 23 16 13 2.</_></rects>
      <tilted>0</tilted></_>
    <_>
      <rects>
        <_>
          19 13 6 1 -1.</_>
        <_>
          21 13 2 1 3.</_></rects>
      <tilted>0</tilted></_>
    <_>
      <rects>
        <_>
          19 13 15 6 -1.</_>
        <_>
          24 13 5 6 3.</_></rects>
      <tilted>0</tilted></_>
    <_>
      <rects>
        <_>
          19 13 13 10 -1.</_>
        <_>
          19 18 13 5 2.</_></rects>
      <tilted>0</tilted></_>
    <_>
      <rects>
        <_>
          19 21 22 8 -1.</_>
        <_>
          30 21 11 8 2.</_></rects>
      <tilted>0</tilted></_>
    <_>
      <rects>
        <_>
          19 24 12 2 -1.</_>
        <_>
          19 25 12 1 2.</_></rects>
      <tilted>0</tilted></_>
    <_>
      <rects>
        <_>
          19 27 12 8 -1.</_>
        <_>
          23 27 4 8 3.</_></rects>
      <tilted>0</tilted></_>
    <_>
      <rects>
        <_>
          20 11 6 8 -1.</_>
        <_>
          22 11 2 8 3.</_></rects>
      <tilted>0</tilted></_>
    <_>
      <rects>
        <_>
          20 12 9 16 -1.</_>
        <_>
          20 20 9 8 2.</_></rects>
      <tilted>0</tilted></_>
    <_>
      <rects>
        <_>
          20 25 15 8 -1.</_>
        <_>
          25 25 5 8 3.</_></rects>
      <tilted>0</tilted></_>
    <_>
      <rects>
        <_>
          21 5 3 6 -1.</_>
        <_>
          21 8 3 3 2.</_></rects>
      <tilted>0</tilted></_>
    <_>
      <rects>
        <_>
          21 8 9 12 -1.</_>
        <_>
          21 12 9 4 3.</_></rects>
      <tilted>0</tilted></_>
    <_>
      <rects>
        <_>
          21 19 7 6 -1.</_>
        <_>
          21 22 7 3 2.</_></rects>
      <tilted>0</tilted></_>
    <_>
      <rects>
        <_>
          21 20 14 10 -1.</_>
        <_>
          21 20 7 5 2.</_>
        <_>
          28 25 7 5 2.</_></rects>
      <tilted>0</tilted></_>
    <_>
      <rects>
        <_>
          21 20 9 3 -1.</_>
        <_>
          21 21 9 1 3.</_></rects>
      <tilted>0</tilted></_>
    <_>
      <rects>
        <_>
          21 24 6 5 -1.</_>
        <_>
          23 24 2 5 3.</_></rects>
      <tilted>0</tilted></_>
    <_>
      <rects>
        <_>
          21 25 6 9 -1.</_>
        <_>
          24 25 3 9 2.</_></rects>
      <tilted>0</tilted></_>
    <_>
      <rects>
        <_>
          21 25 12 2 -1.</_>
        <_>
          21 25 6 1 2.</_>
        <_>
          27 26 6 1 2.</_></rects>
      <tilted>0</tilted></_>
    <_>
      <rects>
        <_>
          21 27 6 4 -1.</_>
        <_>
          23 27 2 4 3.</_></rects>
      <tilted>0</tilted></_>
    <_>
      <rects>
        <_>
          21 27 6 9 -1.</_>
        <_>
          23 27 2 9 3.</_></rects>
      <tilted>0</tilted></_>
    <_>
      <rects>
        <_>
          22 3 8 2 -1.</_>
        <_>
          22 3 4 1 2.</_>
        <_>
          26 4 4 1 2.</_></rects>
      <tilted>0</tilted></_>
    <_>
      <rects>
        <_>
          22 11 14 16 -1.</_>
        <_>
          22 11 7 8 2.</_>
        <_>
          29 19 7 8 2.</_></rects>
      <tilted>0</tilted></_>
    <_>
      <rects>
        <_>
          22 13 16 10 -1.</_>
        <_>
          22 13 8 5 2.</_>
        <_>
          30 18 8 5 2.</_></rects>
      <tilted>0</tilted></_>
    <_>
      <rects>
        <_>
          22 27 18 1 -1.</_>
        <_>
          28 27 6 1 3.</_></rects>
      <tilted>0</tilted></_>
    <_>
      <rects>
        <_>
          23 1 2 9 -1.</_>
        <_>
          23 4 2 3 3.</_></rects>
      <tilted>0</tilted></_>
    <_>
      <rects>
        <_>
          23 15 6 20 -1.</_>
        <_>
          23 15 3 10 2.</_>
        <_>
          26 25 3 10 2.</_></rects>
      <tilted>0</tilted></_>
    <_>
      <rects>
        <_>
          23 17 1 8 -1.</_>
        <_>
          23 21 1 4 2.</_></rects>
      <tilted>0</tilted></_>
    <_>
      <rects>
        <_>
          23 26 18 2 -1.</_>
        <_>
          29 26 6 2 3.</_></rects>
      <tilted>0</tilted></_>
    <_>
      <rects>
        <_>
          24 20 1 9 -1.</_>
        <_>
          24 23 1 3 3.</_></rects>
      <tilted>0</tilted></_>
    <_>
      <rects>
        <_>
          25 4 2 8 -1.</_>
        <_>
          25 4 1 4 2.</_>
        <_>
          26 8 1 4 2.</_></rects>
      <tilted>0</tilted></_>
    <_>
      <rects>
        <_>
          25 16 15 13 -1.</_>
        <_>
          30 16 5 13 3.</_></rects>
      <tilted>0</tilted></_>
    <_>
      <rects>
        <_>
          26 12 6 16 -1.</_>
        <_>
          29 12 3 16 2.</_></rects>
      <tilted>0</tilted></_>
    <_>
      <rects>
        <_>
          26 16 12 17 -1.</_>
        <_>
          30 16 4 17 3.</_></rects>
      <tilted>0</tilted></_>
    <_>
      <rects>
        <_>
          27 3 2 10 -1.</_>
        <_>
          27 3 1 5 2.</_>
        <_>
          28 8 1 5 2.</_></rects>
      <tilted>0</tilted></_>
    <_>
      <rects>
        <_>
          27 13 10 10 -1.</_>
        <_>
          27 13 5 5 2.</_>
        <_>
          32 18 5 5 2.</_></rects>
      <tilted>0</tilted></_>
    <_>
      <rects>
        <_>
          28 19 12 10 -1.</_>
        <_>
          32 19 4 10 3.</_></rects>
      <tilted>0</tilted></_>
    <_>
      <rects>
        <_>
          28 23 10 9 -1.</_>
        <_>
          28 26 10 3 3.</_></rects>
      <tilted>0</tilted></_>
    <_>
      <rects>
        <_>
          28 26 9 3 -1.</_>
        <_>
          31 26 3 3 3.</_></rects>
      <tilted>0</tilted></_>
    <_>
      <rects>
        <_>
          29 26 6 1 -1.</_>
        <_>
          32 26 3 1 2.</_></rects>
      <tilted>0</tilted></_>
    <_>
      <rects>
        <_>
          29 38 3 6 -1.</_>
        <_>
          29 40 3 2 3.</_></rects>
      <tilted>0</tilted></_>
    <_>
      <rects>
        <_>
          30 20 12 6 -1.</_>
        <_>
          34 20 4 6 3.</_></rects>
      <tilted>0</tilted></_>
    <_>
      <rects>
        <_>
          30 28 4 1 -1.</_>
        <_>
          32 28 2 1 2.</_></rects>
      <tilted>0</tilted></_>
    <_>
      <rects>
        <_>
          31 21 12 3 -1.</_>
        <_>
          35 21 4 3 3.</_></rects>
      <tilted>0</tilted></_>
    <_>
      <rects>
        <_>
          31 21 5 12 -1.</_>
        <_>
          31 25 5 4 3.</_></rects>
      <tilted>0</tilted></_>
    <_>
      <rects>
        <_>
          31 26 4 2 -1.</_>
        <_>
          33 26 2 2 2.</_></rects>
      <tilted>0</tilted></_>
    <_>
      <rects>
        <_>
          32 25 2 4 -1.</_>
        <_>
          32 27 2 2 2.</_></rects>
      <tilted>0</tilted></_>
    <_>
      <rects>
        <_>
          33 19 1 9 -1.</_>
        <_>
          33 22 1 3 3.</_></rects>
      <tilted>0</tilted></_>
    <_>
      <rects>
        <_>
          33 20 1 9 -1.</_>
        <_>
          33 23 1 3 3.</_></rects>
      <tilted>0</tilted></_>
    <_>
      <rects>
        <_>
          33 26 1 4 -1.</_>
        <_>
          33 28 1 2 2.</_></rects>
      <tilted>0</tilted></_>
    <_>
      <rects>
        <_>
          33 27 1 4 -1.</_>
        <_>
          33 29 1 2 2.</_></rects>
      <tilted>0</tilted></_>
    <_>
      <rects>
        <_>
          33 42 4 2 -1.</_>
        <_>
          35 42 2 2 2.</_></rects>
      <tilted>0</tilted></_>
    <_>
      <rects>
        <_>
          34 17 1 12 -1.</_>
        <_>
          34 21 1 4 3.</_></rects>
      <tilted>0</tilted></_>
    <_>
      <rects>
        <_>
          34 18 1 6 -1.</_>
        <_>
          34 21 1 3 2.</_></rects>
      <tilted>0</tilted></_>
    <_>
      <rects>
        <_>
          34 19 9 5 -1.</_>
        <_>
          37 19 3 5 3.</_></rects>
      <tilted>0</tilted></_>
    <_>
      <rects>
        <_>
          34 21 2 4 -1.</_>
        <_>
          34 23 2 2 2.</_></rects>
      <tilted>0</tilted></_>
    <_>
      <rects>
        <_>
          34 21 2 6 -1.</_>
        <_>
          34 23 2 2 3.</_></rects>
      <tilted>0</tilted></_>
    <_>
      <rects>
        <_>
          34 21 2 6 -1.</_>
        <_>
          34 24 2 3 2.</_></rects>
      <tilted>0</tilted></_>
    <_>
      <rects>
        <_>
          34 22 2 6 -1.</_>
        <_>
          34 25 2 3 2.</_></rects>
      <tilted>0</tilted></_>
    <_>
      <rects>
        <_>
          35 18 1 10 -1.</_>
        <_>
          35 23 1 5 2.</_></rects>
      <tilted>0</tilted></_>
    <_>
      <rects>
        <_>
          35 19 1 8 -1.</_>
        <_>
          35 23 1 4 2.</_></rects>
      <tilted>0</tilted></_>
    <_>
      <rects>
        <_>
          35 20 2 6 -1.</_>
        <_>
          35 23 2 3 2.</_></rects>
      <tilted>0</tilted></_>
    <_>
      <rects>
        <_>
          35 24 2 4 -1.</_>
        <_>
          36 24 1 4 2.</_></rects>
      <tilted>0</tilted></_>
    <_>
      <rects>
        <_>
          36 21 12 8 -1.</_>
        <_>
          40 21 4 8 3.</_></rects>
      <tilted>0</tilted></_>
    <_>
      <rects>
        <_>
          38 5 2 10 -1.</_>
        <_>
          39 5 1 10 2.</_></rects>
      <tilted>0</tilted></_>
    <_>
      <rects>
        <_>
          38 29 6 1 -1.</_>
        <_>
          40 29 2 1 3.</_></rects>
      <tilted>0</tilted></_>
    <_>
      <rects>
        <_>
          38 30 8 2 -1.</_>
        <_>
          38 30 4 1 2.</_>
        <_>
          42 31 4 1 2.</_></rects>
      <tilted>0</tilted></_>
    <_>
      <rects>
        <_>
          39 21 6 1 -1.</_>
        <_>
          41 21 2 1 3.</_></rects>
      <tilted>0</tilted></_>
    <_>
      <rects>
        <_>
          39 29 2 2 -1.</_>
        <_>
          39 29 1 1 2.</_>
        <_>
          40 30 1 1 2.</_></rects>
      <tilted>0</tilted></_>
    <_>
      <rects>
        <_>
          39 29 6 1 -1.</_>
        <_>
          41 29 2 1 3.</_></rects>
      <tilted>0</tilted></_>
    <_>
      <rects>
        <_>
          43 12 2 18 -1.</_>
        <_>
          44 12 1 18 2.</_></rects>
      <tilted>0</tilted></_>
    <_>
      <rects>
        <_>
          43 19 1 2 -1.</_>
        <_>
          43 20 1 1 2.</_></rects>
      <tilted>0</tilted></_>
    <_>
      <rects>
        <_>
          44 16 2 1 -1.</_>
        <_>
          45 16 1 1 2.</_></rects>
      <tilted>0</tilted></_></features></cascade>
</opencv_storage>
