<?xml version="1.0"?>
<opencv_storage>
<cascade>
  <stageType>BOOST</stageType>
  <featureType>HAAR</featureType>
  <height>48</height>
  <width>48</width>
  <stageParams>
    <boostType>GAB</boostType>
    <minHitRate>9.9500000476837158e-01</minHitRate>
    <maxFalseAlarm>5.0000000000000000e-01</maxFalseAlarm>
    <weightTrimRate>9.4999999999999996e-01</weightTrimRate>
    <maxDepth>1</maxDepth>
    <maxWeakCount>100</maxWeakCount></stageParams>
  <featureParams>
    <maxCatCount>0</maxCatCount>
    <featSize>1</featSize>
    <mode>BASIC</mode></featureParams>
  <stageNum>30</stageNum>
  <stages>
    <!-- stage 0 -->
    <_>
      <maxWeakCount>12</maxWeakCount>
      <stageThreshold>-2.8724667429924011e-01</stageThreshold>
      <weakClassifiers>
        <_>
          <internalNodes>
            0 -1 24 1.1091018468141556e-01</internalNodes>
          <leafValues>
            6.2893085181713104e-02 7.9207921028137207e-01</leafValues></_>
        <_>
          <internalNodes>
            0 -1 90 -5.7688127271831036e-03</internalNodes>
          <leafValues>
            9.6737468242645264e-01 -7.2332397103309631e-02</leafValues></_>
        <_>
          <internalNodes>
            0 -1 123 -2.5899258907884359e-03</internalNodes>
          <leafValues>
            5.6651139259338379e-01 -2.6099988818168640e-01</leafValues></_>
        <_>
          <internalNodes>
            0 -1 225 9.0272258967161179e-03</internalNodes>
          <leafValues>
            -1.6780215501785278e-01 6.8227165937423706e-01</leafValues></_>
        <_>
          <internalNodes>
            0 -1 78 -1.3633821159601212e-02</internalNodes>
          <leafValues>
            8.0951869487762451e-01 -1.2982761859893799e-01</leafValues></_>
        <_>
          <internalNodes>
            0 -1 207 1.1473614722490311e-03</internalNodes>
          <leafValues>
            -1.9400246441364288e-01 6.2744027376174927e-01</leafValues></_>
        <_>
          <internalNodes>
            0 -1 223 4.5478431275114417e-05</internalNodes>
          <leafValues>
            2.6892143487930298e-01 -5.9434753656387329e-01</leafValues></_>
        <_>
          <internalNodes>
            0 -1 235 -3.9261076599359512e-03</internalNodes>
          <leafValues>
            4.6482408046722412e-01 -2.9730957746505737e-01</leafValues></_>
        <_>
          <internalNodes>
            0 -1 332 1.7350746202282608e-04</internalNodes>
          <leafValues>
            4.0424457192420959e-01 -3.6380589008331299e-01</leafValues></_>
        <_>
          <internalNodes>
            0 -1 70 -1.6028264537453651e-02</internalNodes>
          <leafValues>
            9.3612635135650635e-01 -1.2280024588108063e-01</leafValues></_>
        <_>
          <internalNodes>
            0 -1 58 -1.3743847608566284e-02</internalNodes>
          <leafValues>
            6.4888054132461548e-01 -1.6368883848190308e-01</leafValues></_>
        <_>
          <internalNodes>
            0 -1 18 1.6968669369816780e-03</internalNodes>
          <leafValues>
            -2.7046686410903931e-01 4.8659276962280273e-01</leafValues></_></weakClassifiers></_>
    <!-- stage 1 -->
    <_>
      <maxWeakCount>10</maxWeakCount>
      <stageThreshold>-7.3352193832397461e-01</stageThreshold>
      <weakClassifiers>
        <_>
          <internalNodes>
            0 -1 132 -3.0140150338411331e-02</internalNodes>
          <leafValues>
            7.9245281219482422e-01 3.8961037993431091e-02</leafValues></_>
        <_>
          <internalNodes>
            0 -1 249 -3.5469667636789382e-05</internalNodes>
          <leafValues>
            -4.7923919558525085e-01 3.2248619198799133e-01</leafValues></_>
        <_>
          <internalNodes>
            0 -1 233 2.3716481402516365e-02</internalNodes>
          <leafValues>
            -1.4086320996284485e-01 9.7449684143066406e-01</leafValues></_>
        <_>
          <internalNodes>
            0 -1 67 -1.6199557576328516e-03</internalNodes>
          <leafValues>
            5.3402268886566162e-01 -2.4343165755271912e-01</leafValues></_>
        <_>
          <internalNodes>
            0 -1 215 3.3754462492652237e-05</internalNodes>
          <leafValues>
            2.1013928949832916e-01 -7.0015251636505127e-01</leafValues></_>
        <_>
          <internalNodes>
            0 -1 99 -2.6290370151400566e-03</internalNodes>
          <leafValues>
            6.1797815561294556e-01 -2.5576817989349365e-01</leafValues></_>
        <_>
          <internalNodes>
            0 -1 224 -3.5253928217571229e-05</internalNodes>
          <leafValues>
            -5.3081184625625610e-01 2.5116306543350220e-01</leafValues></_>
        <_>
          <internalNodes>
            0 -1 86 1.8955923151224852e-03</internalNodes>
          <leafValues>
            -2.4682042002677917e-01 6.3361281156539917e-01</leafValues></_>
        <_>
          <internalNodes>
            0 -1 96 -4.0841880254447460e-03</internalNodes>
          <leafValues>
            7.0989745855331421e-01 -1.5677781403064728e-01</leafValues></_>
        <_>
          <internalNodes>
            0 -1 42 2.7337158098816872e-02</internalNodes>
          <leafValues>
            1.9065685570240021e-01 -7.7344495058059692e-01</leafValues></_></weakClassifiers></_>
    <!-- stage 2 -->
    <_>
      <maxWeakCount>13</maxWeakCount>
      <stageThreshold>-7.9387837648391724e-01</stageThreshold>
      <weakClassifiers>
        <_>
          <internalNodes>
            0 -1 52 8.1871680915355682e-02</internalNodes>
          <leafValues>
            1.2290503084659576e-01 8.3950614929199219e-01</leafValues></_>
        <_>
          <internalNodes>
            0 -1 153 1.3527773320674896e-02</internalNodes>
          <leafValues>
            -9.6476130187511444e-02 6.9948160648345947e-01</leafValues></_>
        <_>
          <internalNodes>
            0 -1 130 1.1986974626779556e-02</internalNodes>
          <leafValues>
            -2.0817759633064270e-01 5.4650831222534180e-01</leafValues></_>
        <_>
          <internalNodes>
            0 -1 222 -4.1897244955180213e-05</internalNodes>
          <leafValues>
            -5.1536351442337036e-01 2.7016305923461914e-01</leafValues></_>
        <_>
          <internalNodes>
            0 -1 2 -7.6007307507097721e-03</internalNodes>
          <leafValues>
            6.1241191625595093e-01 -2.3831866681575775e-01</leafValues></_>
        <_>
          <internalNodes>
            0 -1 270 -1.2188196706119925e-04</internalNodes>
          <leafValues>
            3.6370354890823364e-01 -3.4417122602462769e-01</leafValues></_>
        <_>
          <internalNodes>
            0 -1 196 -7.2070369496941566e-03</internalNodes>
          <leafValues>
            6.4556229114532471e-01 -1.9564765691757202e-01</leafValues></_>
        <_>
          <internalNodes>
            0 -1 268 1.1340468190610409e-03</internalNodes>
          <leafValues>
            -2.6919659972190857e-01 5.1661616563796997e-01</leafValues></_>
        <_>
          <internalNodes>
            0 -1 340 3.0468316253973171e-05</internalNodes>
          <leafValues>
            3.0230486392974854e-01 -4.3556097149848938e-01</leafValues></_>
        <_>
          <internalNodes>
            0 -1 237 7.3281204095110297e-05</internalNodes>
          <leafValues>
            2.0638550817966461e-01 -5.2488684654235840e-01</leafValues></_>
        <_>
          <internalNodes>
            0 -1 247 -7.3041199357248843e-05</internalNodes>
          <leafValues>
            -6.3860309123992920e-01 1.9739833474159241e-01</leafValues></_>
        <_>
          <internalNodes>
            0 -1 181 -2.9331929981708527e-03</internalNodes>
          <leafValues>
            7.4220818281173706e-01 -2.1391522884368896e-01</leafValues></_>
        <_>
          <internalNodes>
            0 -1 115 6.0895038768649101e-04</internalNodes>
          <leafValues>
            3.2211622595787048e-01 -4.4002377986907959e-01</leafValues></_></weakClassifiers></_>
    <!-- stage 3 -->
    <_>
      <maxWeakCount>14</maxWeakCount>
      <stageThreshold>-7.9899203777313232e-01</stageThreshold>
      <weakClassifiers>
        <_>
          <internalNodes>
            0 -1 164 -7.2056949138641357e-02</internalNodes>
          <leafValues>
            8.8571429252624512e-01 7.2463765740394592e-02</leafValues></_>
        <_>
          <internalNodes>
            0 -1 213 -9.2136629973538220e-05</internalNodes>
          <leafValues>
            -4.5473107695579529e-01 3.5291036963462830e-01</leafValues></_>
        <_>
          <internalNodes>
            0 -1 259 -3.8317884900607169e-05</internalNodes>
          <leafValues>
            -5.6422388553619385e-01 2.0946446061134338e-01</leafValues></_>
        <_>
          <internalNodes>
            0 -1 1 -8.2546034827828407e-03</internalNodes>
          <leafValues>
            -3.9320102334022522e-01 3.2306018471717834e-01</leafValues></_>
        <_>
          <internalNodes>
            0 -1 242 -5.2576702728401870e-05</internalNodes>
          <leafValues>
            -5.9353798627853394e-01 1.9848529994487762e-01</leafValues></_>
        <_>
          <internalNodes>
            0 -1 116 6.8068443797528744e-03</internalNodes>
          <leafValues>
            -2.5381901860237122e-01 5.3697454929351807e-01</leafValues></_>
        <_>
          <internalNodes>
            0 -1 51 2.7837427332997322e-03</internalNodes>
          <leafValues>
            -2.2114057838916779e-01 5.7868134975433350e-01</leafValues></_>
        <_>
          <internalNodes>
            0 -1 94 1.6524659004062414e-03</internalNodes>
          <leafValues>
            -1.7453756928443909e-01 6.0786885023117065e-01</leafValues></_>
        <_>
          <internalNodes>
            0 -1 336 -2.1252893202472478e-04</internalNodes>
          <leafValues>
            -4.8649927973747253e-01 2.7806004881858826e-01</leafValues></_>
        <_>
          <internalNodes>
            0 -1 100 -4.5688205864280462e-04</internalNodes>
          <leafValues>
            3.9224982261657715e-01 -3.1152740120887756e-01</leafValues></_>
        <_>
          <internalNodes>
            0 -1 236 -6.4550709794275463e-05</internalNodes>
          <leafValues>
            -6.3432878255844116e-01 2.2135455906391144e-01</leafValues></_>
        <_>
          <internalNodes>
            0 -1 177 2.0512177143245935e-03</internalNodes>
          <leafValues>
            -2.4957998096942902e-01 5.8617335557937622e-01</leafValues></_>
        <_>
          <internalNodes>
            0 -1 176 -2.0054150372743607e-03</internalNodes>
          <leafValues>
            8.3442246913909912e-01 -1.7058914899826050e-01</leafValues></_>
        <_>
          <internalNodes>
            0 -1 74 -2.8743251459673047e-04</internalNodes>
          <leafValues>
            5.0251203775405884e-01 -2.8842389583587646e-01</leafValues></_></weakClassifiers></_>
    <!-- stage 4 -->
    <_>
      <maxWeakCount>10</maxWeakCount>
      <stageThreshold>-6.3860017061233521e-01</stageThreshold>
      <weakClassifiers>
        <_>
          <internalNodes>
            0 -1 20 1.7160713672637939e-01</internalNodes>
          <leafValues>
            7.6487250626087189e-02 9.1616767644882202e-01</leafValues></_>
        <_>
          <internalNodes>
            0 -1 246 -9.2459958977997303e-05</internalNodes>
          <leafValues>
            -5.1289904117584229e-01 3.5345077514648438e-01</leafValues></_>
        <_>
          <internalNodes>
            0 -1 316 5.8397067732585128e-06</internalNodes>
          <leafValues>
            -2.7825176715850830e-01 4.8705926537513733e-01</leafValues></_>
        <_>
          <internalNodes>
            0 -1 76 -1.5020425780676305e-04</internalNodes>
          <leafValues>
            -4.9210700392723083e-01 2.5180965662002563e-01</leafValues></_>
        <_>
          <internalNodes>
            0 -1 197 -7.2078095399774611e-05</internalNodes>
          <leafValues>
            -6.6266900300979614e-01 1.7854662239551544e-01</leafValues></_>
        <_>
          <internalNodes>
            0 -1 285 -7.5744228524854407e-06</internalNodes>
          <leafValues>
            4.0755483508110046e-01 -4.1578319668769836e-01</leafValues></_>
        <_>
          <internalNodes>
            0 -1 46 5.4750067647546530e-05</internalNodes>
          <leafValues>
            -3.3684220910072327e-01 4.5155087113380432e-01</leafValues></_>
        <_>
          <internalNodes>
            0 -1 200 1.0484107042429969e-04</internalNodes>
          <leafValues>
            2.2869290411472321e-01 -7.5828111171722412e-01</leafValues></_>
        <_>
          <internalNodes>
            0 -1 163 -6.8051833659410477e-03</internalNodes>
          <leafValues>
            5.8293271064758301e-01 -2.4828985333442688e-01</leafValues></_>
        <_>
          <internalNodes>
            0 -1 154 9.3358521553454921e-06</internalNodes>
          <leafValues>
            -2.7479124069213867e-01 4.5737543702125549e-01</leafValues></_></weakClassifiers></_>
    <!-- stage 5 -->
    <_>
      <maxWeakCount>10</maxWeakCount>
      <stageThreshold>-3.7599372863769531e-01</stageThreshold>
      <weakClassifiers>
        <_>
          <internalNodes>
            0 -1 17 9.7394295036792755e-02</internalNodes>
          <leafValues>
            1.6393441706895828e-02 8.1395345926284790e-01</leafValues></_>
        <_>
          <internalNodes>
            0 -1 165 -1.3788759242743254e-03</internalNodes>
          <leafValues>
            8.3415108919143677e-01 -1.1977047473192215e-01</leafValues></_>
        <_>
          <internalNodes>
            0 -1 157 1.3071462512016296e-02</internalNodes>
          <leafValues>
            -2.0563133060932159e-01 8.0647182464599609e-01</leafValues></_>
        <_>
          <internalNodes>
            0 -1 162 -5.1601780578494072e-03</internalNodes>
          <leafValues>
            7.1633625030517578e-01 -1.7873604595661163e-01</leafValues></_>
        <_>
          <internalNodes>
            0 -1 83 -7.6605216600000858e-03</internalNodes>
          <leafValues>
            8.4144616127014160e-01 -1.4446194469928741e-01</leafValues></_>
        <_>
          <internalNodes>
            0 -1 33 -6.6222222521901131e-03</internalNodes>
          <leafValues>
            -3.7237495183944702e-01 3.9078432321548462e-01</leafValues></_>
        <_>
          <internalNodes>
            0 -1 97 6.9887971039861441e-04</internalNodes>
          <leafValues>
            -3.4760460257530212e-01 4.5546489953994751e-01</leafValues></_>
        <_>
          <internalNodes>
            0 -1 114 1.0449379682540894e-02</internalNodes>
          <leafValues>
            -1.1012306064367294e-01 8.9103734493255615e-01</leafValues></_>
        <_>
          <internalNodes>
            0 -1 93 -3.6353535950183868e-02</internalNodes>
          <leafValues>
            8.7508928775787354e-01 -1.1683003604412079e-01</leafValues></_>
        <_>
          <internalNodes>
            0 -1 61 8.7155385699588805e-06</internalNodes>
          <leafValues>
            -2.9467317461967468e-01 4.3998599052429199e-01</leafValues></_></weakClassifiers></_>
    <!-- stage 6 -->
    <_>
      <maxWeakCount>14</maxWeakCount>
      <stageThreshold>-4.1929805278778076e-01</stageThreshold>
      <weakClassifiers>
        <_>
          <internalNodes>
            0 -1 217 -6.0980688431300223e-05</internalNodes>
          <leafValues>
            -3.7864077091217041e-01 5.2517986297607422e-01</leafValues></_>
        <_>
          <internalNodes>
            0 -1 218 6.0754347941838205e-05</internalNodes>
          <leafValues>
            2.4470053613185883e-01 -5.4913383722305298e-01</leafValues></_>
        <_>
          <internalNodes>
            0 -1 186 -3.9908733015181497e-05</internalNodes>
          <leafValues>
            -4.1939181089401245e-01 2.5690388679504395e-01</leafValues></_>
        <_>
          <internalNodes>
            0 -1 98 -1.4017208013683558e-03</internalNodes>
          <leafValues>
            6.2962603569030762e-01 -1.9809170067310333e-01</leafValues></_>
        <_>
          <internalNodes>
            0 -1 8 -6.1160768382251263e-04</internalNodes>
          <leafValues>
            -3.3983376622200012e-01 3.3867579698562622e-01</leafValues></_>
        <_>
          <internalNodes>
            0 -1 324 -2.1032751828897744e-04</internalNodes>
          <leafValues>
            -4.6843281388282776e-01 2.4011737108230591e-01</leafValues></_>
        <_>
          <internalNodes>
            0 -1 325 -3.0089144274825230e-05</internalNodes>
          <leafValues>
            -3.0774036049842834e-01 3.4737634658813477e-01</leafValues></_>
        <_>
          <internalNodes>
            0 -1 231 -1.8061302602291107e-02</internalNodes>
          <leafValues>
            7.1313256025314331e-01 -1.6770119965076447e-01</leafValues></_>
        <_>
          <internalNodes>
            0 -1 31 1.8741494044661522e-02</internalNodes>
          <leafValues>
            2.6858422160148621e-01 -4.1747042536735535e-01</leafValues></_>
        <_>
          <internalNodes>
            0 -1 133 -4.5956014655530453e-03</internalNodes>
          <leafValues>
            8.3068335056304932e-01 -1.4261463284492493e-01</leafValues></_>
        <_>
          <internalNodes>
            0 -1 21 2.4821946863085032e-04</internalNodes>
          <leafValues>
            3.2315492630004883e-01 -3.7515464425086975e-01</leafValues></_>
        <_>
          <internalNodes>
            0 -1 199 -2.9528735467465594e-05</internalNodes>
          <leafValues>
            -4.3327566981315613e-01 2.6158609986305237e-01</leafValues></_>
        <_>
          <internalNodes>
            0 -1 211 -2.3514516651630402e-03</internalNodes>
          <leafValues>
            6.8177169561386108e-01 -2.0368579030036926e-01</leafValues></_>
        <_>
          <internalNodes>
            0 -1 334 9.6714153187349439e-05</internalNodes>
          <leafValues>
            3.2252705097198486e-01 -3.4608396887779236e-01</leafValues></_></weakClassifiers></_>
    <!-- stage 7 -->
    <_>
      <maxWeakCount>13</maxWeakCount>
      <stageThreshold>-5.7869893312454224e-01</stageThreshold>
      <weakClassifiers>
        <_>
          <internalNodes>
            0 -1 217 6.5575550252106041e-05</internalNodes>
          <leafValues>
            5.0116550922393799e-01 -3.8461539149284363e-01</leafValues></_>
        <_>
          <internalNodes>
            0 -1 57 -4.5109838247299194e-03</internalNodes>
          <leafValues>
            6.6544133424758911e-01 -1.8127521872520447e-01</leafValues></_>
        <_>
          <internalNodes>
            0 -1 160 -1.3885613530874252e-02</internalNodes>
          <leafValues>
            8.0797290802001953e-01 -1.3566114008426666e-01</leafValues></_>
        <_>
          <internalNodes>
            0 -1 72 4.4169335160404444e-04</internalNodes>
          <leafValues>
            -2.4022316932678223e-01 4.5548605918884277e-01</leafValues></_>
        <_>
          <internalNodes>
            0 -1 92 5.8703450486063957e-03</internalNodes>
          <leafValues>
            -1.9124412536621094e-01 6.9192469120025635e-01</leafValues></_>
        <_>
          <internalNodes>
            0 -1 337 5.0222261052113026e-05</internalNodes>
          <leafValues>
            2.6835247874259949e-01 -4.0121895074844360e-01</leafValues></_>
        <_>
          <internalNodes>
            0 -1 142 -4.2335717007517815e-03</internalNodes>
          <leafValues>
            6.6183042526245117e-01 -1.7304049432277679e-01</leafValues></_>
        <_>
          <internalNodes>
            0 -1 80 -2.3692600429058075e-02</internalNodes>
          <leafValues>
            8.9298129081726074e-01 -7.1850895881652832e-02</leafValues></_>
        <_>
          <internalNodes>
            0 -1 37 -3.8571983168367296e-05</internalNodes>
          <leafValues>
            -4.6630442142486572e-01 2.3987029492855072e-01</leafValues></_>
        <_>
          <internalNodes>
            0 -1 120 8.0824820543057285e-06</internalNodes>
          <leafValues>
            -2.6783654093742371e-01 4.1831967234611511e-01</leafValues></_>
        <_>
          <internalNodes>
            0 -1 282 -2.2039890289306641e-02</internalNodes>
          <leafValues>
            7.5187873840332031e-01 -1.2978908419609070e-01</leafValues></_>
        <_>
          <internalNodes>
            0 -1 178 -1.1095821391791105e-03</internalNodes>
          <leafValues>
            4.7089129686355591e-01 -2.8674969077110291e-01</leafValues></_>
        <_>
          <internalNodes>
            0 -1 262 -2.9971895855851471e-05</internalNodes>
          <leafValues>
            -5.5750864744186401e-01 2.2966000437736511e-01</leafValues></_></weakClassifiers></_>
    <!-- stage 8 -->
    <_>
      <maxWeakCount>9</maxWeakCount>
      <stageThreshold>-3.4448385238647461e-01</stageThreshold>
      <weakClassifiers>
        <_>
          <internalNodes>
            0 -1 320 -9.2227605637162924e-04</internalNodes>
          <leafValues>
            -4.3820226192474365e-01 5.0812065601348877e-01</leafValues></_>
        <_>
          <internalNodes>
            0 -1 166 -2.8424687683582306e-02</internalNodes>
          <leafValues>
            5.9324365854263306e-01 -2.4106277525424957e-01</leafValues></_>
        <_>
          <internalNodes>
            0 -1 228 3.6292371805757284e-04</internalNodes>
          <leafValues>
            2.1662990748882294e-01 -6.2858825922012329e-01</leafValues></_>
        <_>
          <internalNodes>
            0 -1 317 -4.8499386757612228e-03</internalNodes>
          <leafValues>
            -6.6139841079711914e-01 1.7071962356567383e-01</leafValues></_>
        <_>
          <internalNodes>
            0 -1 260 -2.9573109259217745e-06</internalNodes>
          <leafValues>
            4.1216641664505005e-01 -3.2444292306900024e-01</leafValues></_>
        <_>
          <internalNodes>
            0 -1 328 3.6809459561482072e-04</internalNodes>
          <leafValues>
            1.7040815949440002e-01 -6.6800272464752197e-01</leafValues></_>
        <_>
          <internalNodes>
            0 -1 272 2.5217924849130213e-04</internalNodes>
          <leafValues>
            -2.1782426536083221e-01 6.1223405599594116e-01</leafValues></_>
        <_>
          <internalNodes>
            0 -1 27 -1.4045522548258305e-03</internalNodes>
          <leafValues>
            -6.6093486547470093e-01 1.8737067282199860e-01</leafValues></_>
        <_>
          <internalNodes>
            0 -1 77 2.7870500925928354e-03</internalNodes>
          <leafValues>
            1.3570412993431091e-01 -8.4929800033569336e-01</leafValues></_></weakClassifiers></_>
    <!-- stage 9 -->
    <_>
      <maxWeakCount>12</maxWeakCount>
      <stageThreshold>-5.5075681209564209e-01</stageThreshold>
      <weakClassifiers>
        <_>
          <internalNodes>
            0 -1 203 -7.1561560616828501e-05</internalNodes>
          <leafValues>
            -4.3103447556495667e-01 5.6930691003799438e-01</leafValues></_>
        <_>
          <internalNodes>
            0 -1 202 5.3476338507607579e-05</internalNodes>
          <leafValues>
            3.6246386170387268e-01 -5.3300517797470093e-01</leafValues></_>
        <_>
          <internalNodes>
            0 -1 219 2.7787524231825955e-05</internalNodes>
          <leafValues>
            3.4064105153083801e-01 -5.2320247888565063e-01</leafValues></_>
        <_>
          <internalNodes>
            0 -1 36 -1.6913213767111301e-03</internalNodes>
          <leafValues>
            -6.9002264738082886e-01 1.8713846802711487e-01</leafValues></_>
        <_>
          <internalNodes>
            0 -1 15 1.4314341545104980e-01</internalNodes>
          <leafValues>
            -2.2237695753574371e-01 7.9246985912322998e-01</leafValues></_>
        <_>
          <internalNodes>
            0 -1 156 1.6553688328713179e-04</internalNodes>
          <leafValues>
            3.0727171897888184e-01 -5.1005589962005615e-01</leafValues></_>
        <_>
          <internalNodes>
            0 -1 29 1.8910546787083149e-03</internalNodes>
          <leafValues>
            1.6431169211864471e-01 -7.0217984914779663e-01</leafValues></_>
        <_>
          <internalNodes>
            0 -1 197 -7.3635615990497172e-05</internalNodes>
          <leafValues>
            -6.8540728092193604e-01 2.0290254056453705e-01</leafValues></_>
        <_>
          <internalNodes>
            0 -1 102 1.3824497000314295e-04</internalNodes>
          <leafValues>
            2.6149806380271912e-01 -5.4160767793655396e-01</leafValues></_>
        <_>
          <internalNodes>
            0 -1 204 4.4678665290120989e-05</internalNodes>
          <leafValues>
            3.1059643626213074e-01 -4.9810275435447693e-01</leafValues></_>
        <_>
          <internalNodes>
            0 -1 38 4.8382338718511164e-05</internalNodes>
          <leafValues>
            2.7508378028869629e-01 -5.5180960893630981e-01</leafValues></_>
        <_>
          <internalNodes>
            0 -1 146 -3.5533295886125416e-05</internalNodes>
          <leafValues>
            -4.8281663656234741e-01 2.8322511911392212e-01</leafValues></_></weakClassifiers></_>
    <!-- stage 10 -->
    <_>
      <maxWeakCount>13</maxWeakCount>
      <stageThreshold>-3.8490313291549683e-01</stageThreshold>
      <weakClassifiers>
        <_>
          <internalNodes>
            0 -1 277 -3.7724842059105868e-06</internalNodes>
          <leafValues>
            5.6969696283340454e-01 -4.2105264961719513e-02</leafValues></_>
        <_>
          <internalNodes>
            0 -1 85 -4.6967747621238232e-03</internalNodes>
          <leafValues>
            7.9965347051620483e-01 -7.5861468911170959e-02</leafValues></_>
        <_>
          <internalNodes>
            0 -1 194 -1.1602572340052575e-04</internalNodes>
          <leafValues>
            -5.9023797512054443e-01 1.4260484278202057e-01</leafValues></_>
        <_>
          <internalNodes>
            0 -1 110 -5.6414090795442462e-04</internalNodes>
          <leafValues>
            6.7470836639404297e-01 -1.8282704055309296e-01</leafValues></_>
        <_>
          <internalNodes>
            0 -1 276 7.1971607394516468e-04</internalNodes>
          <leafValues>
            -1.5940305590629578e-01 5.2015846967697144e-01</leafValues></_>
        <_>
          <internalNodes>
            0 -1 216 -7.7120370406191796e-05</internalNodes>
          <leafValues>
            -6.1864948272705078e-01 1.7773944139480591e-01</leafValues></_>
        <_>
          <internalNodes>
            0 -1 210 -8.9580682106316090e-04</internalNodes>
          <leafValues>
            5.1503759622573853e-01 -2.5871953368186951e-01</leafValues></_>
        <_>
          <internalNodes>
            0 -1 253 6.7416504025459290e-03</internalNodes>
          <leafValues>
            -1.4885519444942474e-01 6.3221955299377441e-01</leafValues></_>
        <_>
          <internalNodes>
            0 -1 265 -3.1454546842724085e-03</internalNodes>
          <leafValues>
            5.3613948822021484e-01 -1.7583471536636353e-01</leafValues></_>
        <_>
          <internalNodes>
            0 -1 333 7.8789089457131922e-05</internalNodes>
          <leafValues>
            1.9030687212944031e-01 -5.7461267709732056e-01</leafValues></_>
        <_>
          <internalNodes>
            0 -1 220 1.9300330677651800e-05</internalNodes>
          <leafValues>
            -3.0988678336143494e-01 3.0487257242202759e-01</leafValues></_>
        <_>
          <internalNodes>
            0 -1 318 8.7010924471542239e-04</internalNodes>
          <leafValues>
            -1.9027221202850342e-01 5.5719548463821411e-01</leafValues></_>
        <_>
          <internalNodes>
            0 -1 23 -5.7270372053608298e-04</internalNodes>
          <leafValues>
            -6.9417136907577515e-01 1.8656890094280243e-01</leafValues></_></weakClassifiers></_>
    <!-- stage 11 -->
    <_>
      <maxWeakCount>15</maxWeakCount>
      <stageThreshold>-9.9008017778396606e-01</stageThreshold>
      <weakClassifiers>
        <_>
          <internalNodes>
            0 -1 168 2.8622411191463470e-03</internalNodes>
          <leafValues>
            1.5591397881507874e-01 8.2432430982589722e-01</leafValues></_>
        <_>
          <internalNodes>
            0 -1 108 2.7183492202311754e-03</internalNodes>
          <leafValues>
            -1.1072640120983124e-01 7.6999205350875854e-01</leafValues></_>
        <_>
          <internalNodes>
            0 -1 314 1.7058540834113955e-03</internalNodes>
          <leafValues>
            -1.1956584453582764e-01 9.5841044187545776e-01</leafValues></_>
        <_>
          <internalNodes>
            0 -1 129 5.9590407181531191e-04</internalNodes>
          <leafValues>
            -1.7735493183135986e-01 5.9293413162231445e-01</leafValues></_>
        <_>
          <internalNodes>
            0 -1 280 -1.5316514763981104e-03</internalNodes>
          <leafValues>
            5.6733238697052002e-01 -2.3240436613559723e-01</leafValues></_>
        <_>
          <internalNodes>
            0 -1 308 5.3736171685159206e-04</internalNodes>
          <leafValues>
            2.5667056441307068e-01 -4.8115473985671997e-01</leafValues></_>
        <_>
          <internalNodes>
            0 -1 0 -2.3921453393995762e-03</internalNodes>
          <leafValues>
            5.2898079156875610e-01 -2.1677923202514648e-01</leafValues></_>
        <_>
          <internalNodes>
            0 -1 50 2.9401015490293503e-03</internalNodes>
          <leafValues>
            -1.6850157082080841e-01 5.9996742010116577e-01</leafValues></_>
        <_>
          <internalNodes>
            0 -1 246 1.0053376172436401e-04</internalNodes>
          <leafValues>
            1.9282698631286621e-01 -6.3492542505264282e-01</leafValues></_>
        <_>
          <internalNodes>
            0 -1 56 1.2301292270421982e-02</internalNodes>
          <leafValues>
            -1.9818584620952606e-01 6.4614528417587280e-01</leafValues></_>
        <_>
          <internalNodes>
            0 -1 243 -1.0976172052323818e-04</internalNodes>
          <leafValues>
            -4.9062302708625793e-01 2.5481373071670532e-01</leafValues></_>
        <_>
          <internalNodes>
            0 -1 252 -9.0749602532014251e-04</internalNodes>
          <leafValues>
            6.7176395654678345e-01 -1.9126173853874207e-01</leafValues></_>
        <_>
          <internalNodes>
            0 -1 139 1.3388439547270536e-03</internalNodes>
          <leafValues>
            -1.4134348928928375e-01 7.4575769901275635e-01</leafValues></_>
        <_>
          <internalNodes>
            0 -1 121 -6.7929318174719810e-04</internalNodes>
          <leafValues>
            4.9427196383476257e-01 -2.7520531415939331e-01</leafValues></_>
        <_>
          <internalNodes>
            0 -1 289 4.2442046105861664e-03</internalNodes>
          <leafValues>
            -1.1787115037441254e-01 1.</leafValues></_></weakClassifiers></_>
    <!-- stage 12 -->
    <_>
      <maxWeakCount>12</maxWeakCount>
      <stageThreshold>-5.3953808546066284e-01</stageThreshold>
      <weakClassifiers>
        <_>
          <internalNodes>
            0 -1 241 -2.0891027816105634e-05</internalNodes>
          <leafValues>
            -2.1818181872367859e-01 4.9756097793579102e-01</leafValues></_>
        <_>
          <internalNodes>
            0 -1 192 1.1574635282158852e-03</internalNodes>
          <leafValues>
            -1.8053472042083740e-01 5.8885276317596436e-01</leafValues></_>
        <_>
          <internalNodes>
            0 -1 138 1.3743098825216293e-03</internalNodes>
          <leafValues>
            -1.9367767870426178e-01 5.6864857673645020e-01</leafValues></_>
        <_>
          <internalNodes>
            0 -1 22 1.8248008564114571e-03</internalNodes>
          <leafValues>
            -1.5042272210121155e-01 7.5523054599761963e-01</leafValues></_>
        <_>
          <internalNodes>
            0 -1 39 3.2079881057143211e-03</internalNodes>
          <leafValues>
            2.9775670170783997e-01 -3.9606317877769470e-01</leafValues></_>
        <_>
          <internalNodes>
            0 -1 68 -1.0347939096391201e-03</internalNodes>
          <leafValues>
            4.8656123876571655e-01 -2.2743551433086395e-01</leafValues></_>
        <_>
          <internalNodes>
            0 -1 3 1.5679292846471071e-03</internalNodes>
          <leafValues>
            -1.6581283509731293e-01 6.1816698312759399e-01</leafValues></_>
        <_>
          <internalNodes>
            0 -1 256 2.0756642697961070e-05</internalNodes>
          <leafValues>
            2.3113434016704559e-01 -5.2278369665145874e-01</leafValues></_>
        <_>
          <internalNodes>
            0 -1 25 -9.3028403352946043e-04</internalNodes>
          <leafValues>
            5.2285909652709961e-01 -2.1876943111419678e-01</leafValues></_>
        <_>
          <internalNodes>
            0 -1 101 -3.2408424885943532e-05</internalNodes>
          <leafValues>
            6.0036253929138184e-01 -1.7587296664714813e-01</leafValues></_>
        <_>
          <internalNodes>
            0 -1 53 5.6322522461414337e-02</internalNodes>
          <leafValues>
            1.7554450035095215e-01 -8.1833422183990479e-01</leafValues></_>
        <_>
          <internalNodes>
            0 -1 287 -2.2511367569677532e-04</internalNodes>
          <leafValues>
            5.9519332647323608e-01 -2.1763315796852112e-01</leafValues></_></weakClassifiers></_>
    <!-- stage 13 -->
    <_>
      <maxWeakCount>11</maxWeakCount>
      <stageThreshold>-5.9453141689300537e-01</stageThreshold>
      <weakClassifiers>
        <_>
          <internalNodes>
            0 -1 55 -1.3066875934600830e-01</internalNodes>
          <leafValues>
            -6.6153848171234131e-01 4.9010989069938660e-01</leafValues></_>
        <_>
          <internalNodes>
            0 -1 245 2.3428987333318219e-05</internalNodes>
          <leafValues>
            2.5858297944068909e-01 -5.0325042009353638e-01</leafValues></_>
        <_>
          <internalNodes>
            0 -1 107 2.5759129785001278e-03</internalNodes>
          <leafValues>
            -1.3560776412487030e-01 8.2137989997863770e-01</leafValues></_>
        <_>
          <internalNodes>
            0 -1 62 5.6822085753083229e-03</internalNodes>
          <leafValues>
            -2.2774733603000641e-01 5.1058584451675415e-01</leafValues></_>
        <_>
          <internalNodes>
            0 -1 19 1.5097230789251626e-04</internalNodes>
          <leafValues>
            3.0558288097381592e-01 -3.5950824618339539e-01</leafValues></_>
        <_>
          <internalNodes>
            0 -1 330 -7.7202538959681988e-03</internalNodes>
          <leafValues>
            -6.3008719682693481e-01 1.6994149982929230e-01</leafValues></_>
        <_>
          <internalNodes>
            0 -1 155 -1.8080048263072968e-02</internalNodes>
          <leafValues>
            7.6518779993057251e-01 -1.5804633498191833e-01</leafValues></_>
        <_>
          <internalNodes>
            0 -1 105 1.1840546503663063e-02</internalNodes>
          <leafValues>
            -1.6934558749198914e-01 8.0324703454971313e-01</leafValues></_>
        <_>
          <internalNodes>
            0 -1 11 9.8645523394225165e-06</internalNodes>
          <leafValues>
            -2.6381665468215942e-01 3.9467394351959229e-01</leafValues></_>
        <_>
          <internalNodes>
            0 -1 230 -2.4726930860197172e-05</internalNodes>
          <leafValues>
            -4.7876909375190735e-01 2.3390655219554901e-01</leafValues></_>
        <_>
          <internalNodes>
            0 -1 261 2.3927573238324840e-06</internalNodes>
          <leafValues>
            -3.1725755333900452e-01 3.8301795721054077e-01</leafValues></_></weakClassifiers></_>
    <!-- stage 14 -->
    <_>
      <maxWeakCount>11</maxWeakCount>
      <stageThreshold>-6.6763854026794434e-01</stageThreshold>
      <weakClassifiers>
        <_>
          <internalNodes>
            0 -1 294 -1.8801918486133218e-04</internalNodes>
          <leafValues>
            8.0392158031463623e-01 1.5531335771083832e-01</leafValues></_>
        <_>
          <internalNodes>
            0 -1 95 -1.7067810986191034e-03</internalNodes>
          <leafValues>
            7.2694045305252075e-01 -1.0914874076843262e-01</leafValues></_>
        <_>
          <internalNodes>
            0 -1 63 -5.0114523619413376e-03</internalNodes>
          <leafValues>
            4.8376727104187012e-01 -2.4726140499114990e-01</leafValues></_>
        <_>
          <internalNodes>
            0 -1 82 -3.1711733900010586e-03</internalNodes>
          <leafValues>
            5.8201909065246582e-01 -2.2986166179180145e-01</leafValues></_>
        <_>
          <internalNodes>
            0 -1 88 -2.4376430083066225e-03</internalNodes>
          <leafValues>
            6.0515677928924561e-01 -1.6972872614860535e-01</leafValues></_>
        <_>
          <internalNodes>
            0 -1 323 -6.2636336224386469e-06</internalNodes>
          <leafValues>
            4.6100798249244690e-01 -3.0165332555770874e-01</leafValues></_>
        <_>
          <internalNodes>
            0 -1 313 5.8063440956175327e-03</internalNodes>
          <leafValues>
            -1.3955257833003998e-01 8.2225298881530762e-01</leafValues></_>
        <_>
          <internalNodes>
            0 -1 147 -1.9604067347245291e-05</internalNodes>
          <leafValues>
            4.1566982865333557e-01 -3.0373486876487732e-01</leafValues></_>
        <_>
          <internalNodes>
            0 -1 326 -3.7096731830388308e-05</internalNodes>
          <leafValues>
            4.2742964625358582e-01 -3.0537992715835571e-01</leafValues></_>
        <_>
          <internalNodes>
            0 -1 112 2.9196273535490036e-03</internalNodes>
          <leafValues>
            -2.5008785724639893e-01 5.1293504238128662e-01</leafValues></_>
        <_>
          <internalNodes>
            0 -1 45 4.9141491763293743e-04</internalNodes>
          <leafValues>
            4.1345170140266418e-01 -2.9222708940505981e-01</leafValues></_></weakClassifiers></_>
    <!-- stage 15 -->
    <_>
      <maxWeakCount>11</maxWeakCount>
      <stageThreshold>-3.3363282680511475e-01</stageThreshold>
      <weakClassifiers>
        <_>
          <internalNodes>
            0 -1 71 -2.0251311361789703e-02</internalNodes>
          <leafValues>
            7.3708921670913696e-01 7.4918568134307861e-02</leafValues></_>
        <_>
          <internalNodes>
            0 -1 152 4.9308920279145241e-03</internalNodes>
          <leafValues>
            -8.8958278298377991e-02 7.2553223371505737e-01</leafValues></_>
        <_>
          <internalNodes>
            0 -1 182 -8.4007930126972497e-05</internalNodes>
          <leafValues>
            6.1091852188110352e-01 -1.8629465997219086e-01</leafValues></_>
        <_>
          <internalNodes>
            0 -1 275 7.8066496644169092e-04</internalNodes>
          <leafValues>
            -2.2325442731380463e-01 5.3531849384307861e-01</leafValues></_>
        <_>
          <internalNodes>
            0 -1 319 -8.3762547001242638e-04</internalNodes>
          <leafValues>
            6.1865866184234619e-01 -1.9638060033321381e-01</leafValues></_>
        <_>
          <internalNodes>
            0 -1 34 -2.4952046805992723e-04</internalNodes>
          <leafValues>
            7.5379085540771484e-01 -1.4781622588634491e-01</leafValues></_>
        <_>
          <internalNodes>
            0 -1 111 2.4584689526818693e-04</internalNodes>
          <leafValues>
            -1.6150945425033569e-01 6.0376656055450439e-01</leafValues></_>
        <_>
          <internalNodes>
            0 -1 191 -7.0441537536680698e-04</internalNodes>
          <leafValues>
            5.4186642169952393e-01 -2.3346073925495148e-01</leafValues></_>
        <_>
          <internalNodes>
            0 -1 290 -5.4454477503895760e-04</internalNodes>
          <leafValues>
            7.6142507791519165e-01 -1.3802337646484375e-01</leafValues></_>
        <_>
          <internalNodes>
            0 -1 5 -1.5531991084571928e-04</internalNodes>
          <leafValues>
            5.3226333856582642e-01 -2.2524480521678925e-01</leafValues></_>
        <_>
          <internalNodes>
            0 -1 59 4.6505732461810112e-04</internalNodes>
          <leafValues>
            -2.2728757560253143e-01 5.4365485906600952e-01</leafValues></_></weakClassifiers></_>
    <!-- stage 16 -->
    <_>
      <maxWeakCount>15</maxWeakCount>
      <stageThreshold>-4.4902426004409790e-01</stageThreshold>
      <weakClassifiers>
        <_>
          <internalNodes>
            0 -1 151 4.3417159467935562e-02</internalNodes>
          <leafValues>
            6.7669175565242767e-02 6.3779526948928833e-01</leafValues></_>
        <_>
          <internalNodes>
            0 -1 106 7.2608897462487221e-03</internalNodes>
          <leafValues>
            -1.1646892130374908e-01 6.3661640882492065e-01</leafValues></_>
        <_>
          <internalNodes>
            0 -1 49 -1.3503021327778697e-03</internalNodes>
          <leafValues>
            5.0176507234573364e-01 -1.5372073650360107e-01</leafValues></_>
        <_>
          <internalNodes>
            0 -1 140 -4.0244610863737762e-04</internalNodes>
          <leafValues>
            4.9084514379501343e-01 -1.8560293316841125e-01</leafValues></_>
        <_>
          <internalNodes>
            0 -1 264 7.4284482980147004e-04</internalNodes>
          <leafValues>
            -1.4661528170108795e-01 6.8106848001480103e-01</leafValues></_>
        <_>
          <internalNodes>
            0 -1 284 -1.6038457397371531e-04</internalNodes>
          <leafValues>
            4.4618532061576843e-01 -1.8406292796134949e-01</leafValues></_>
        <_>
          <internalNodes>
            0 -1 167 -5.2420495194382966e-05</internalNodes>
          <leafValues>
            -4.2153149843215942e-01 2.0738780498504639e-01</leafValues></_>
        <_>
          <internalNodes>
            0 -1 307 8.1966223660856485e-04</internalNodes>
          <leafValues>
            -1.4904585480690002e-01 7.3421978950500488e-01</leafValues></_>
        <_>
          <internalNodes>
            0 -1 16 -2.1898699924349785e-03</internalNodes>
          <leafValues>
            -5.7961595058441162e-01 1.8978908658027649e-01</leafValues></_>
        <_>
          <internalNodes>
            0 -1 190 1.8395303050056100e-04</internalNodes>
          <leafValues>
            -1.6582468152046204e-01 5.8276361227035522e-01</leafValues></_>
        <_>
          <internalNodes>
            0 -1 173 5.9993169270455837e-03</internalNodes>
          <leafValues>
            -1.3837926089763641e-01 6.2113392353057861e-01</leafValues></_>
        <_>
          <internalNodes>
            0 -1 89 -1.7332926392555237e-02</internalNodes>
          <leafValues>
            6.9621115922927856e-01 -1.0889937728643417e-01</leafValues></_>
        <_>
          <internalNodes>
            0 -1 309 1.9254834624007344e-03</internalNodes>
          <leafValues>
            -9.8767675459384918e-02 8.3126622438430786e-01</leafValues></_>
        <_>
          <internalNodes>
            0 -1 169 5.6901986681623384e-05</internalNodes>
          <leafValues>
            2.9391723871231079e-01 -3.0939725041389465e-01</leafValues></_>
        <_>
          <internalNodes>
            0 -1 170 -2.3794900698703714e-05</internalNodes>
          <leafValues>
            -4.3684798479080200e-01 2.4385982751846313e-01</leafValues></_></weakClassifiers></_>
    <!-- stage 17 -->
    <_>
      <maxWeakCount>15</maxWeakCount>
      <stageThreshold>-4.9927288293838501e-01</stageThreshold>
      <weakClassifiers>
        <_>
          <internalNodes>
            0 -1 184 -8.1654499808792025e-05</internalNodes>
          <leafValues>
            -2.5000000000000000e-01 4.8113209009170532e-01</leafValues></_>
        <_>
          <internalNodes>
            0 -1 212 -2.9799938201904297e-03</internalNodes>
          <leafValues>
            5.3667962551116943e-01 -1.4916898310184479e-01</leafValues></_>
        <_>
          <internalNodes>
            0 -1 263 6.3477607909590006e-04</internalNodes>
          <leafValues>
            -1.9494125247001648e-01 4.8981773853302002e-01</leafValues></_>
        <_>
          <internalNodes>
            0 -1 174 1.0191303445026278e-03</internalNodes>
          <leafValues>
            -1.1321673542261124e-01 8.5824185609817505e-01</leafValues></_>
        <_>
          <internalNodes>
            0 -1 118 -1.0075144469738007e-02</internalNodes>
          <leafValues>
            5.8793163299560547e-01 -1.6263304650783539e-01</leafValues></_>
        <_>
          <internalNodes>
            0 -1 150 1.3225027360022068e-03</internalNodes>
          <leafValues>
            1.7502626776695251e-01 -5.3375041484832764e-01</leafValues></_>
        <_>
          <internalNodes>
            0 -1 288 1.3523179222829640e-04</internalNodes>
          <leafValues>
            -2.0346021652221680e-01 4.5650693774223328e-01</leafValues></_>
        <_>
          <internalNodes>
            0 -1 44 -3.0478516127914190e-03</internalNodes>
          <leafValues>
            4.9722960591316223e-01 -1.7690052092075348e-01</leafValues></_>
        <_>
          <internalNodes>
            0 -1 301 2.4490733630955219e-04</internalNodes>
          <leafValues>
            -1.7980489134788513e-01 5.4218786954879761e-01</leafValues></_>
        <_>
          <internalNodes>
            0 -1 187 8.6137425387278199e-04</internalNodes>
          <leafValues>
            -1.6021515429019928e-01 5.6698685884475708e-01</leafValues></_>
        <_>
          <internalNodes>
            0 -1 28 -3.9245033985935152e-04</internalNodes>
          <leafValues>
            -6.4940661191940308e-01 1.5417280793190002e-01</leafValues></_>
        <_>
          <internalNodes>
            0 -1 239 6.1837708926759660e-05</internalNodes>
          <leafValues>
            1.6118422150611877e-01 -5.6602454185485840e-01</leafValues></_>
        <_>
          <internalNodes>
            0 -1 299 -5.0445308443158865e-04</internalNodes>
          <leafValues>
            3.5376697778701782e-01 -2.7603328227996826e-01</leafValues></_>
        <_>
          <internalNodes>
            0 -1 131 -1.4237789437174797e-03</internalNodes>
          <leafValues>
            4.7156795859336853e-01 -2.3531663417816162e-01</leafValues></_>
        <_>
          <internalNodes>
            0 -1 122 -9.5570262055844069e-04</internalNodes>
          <leafValues>
            5.4454731941223145e-01 -2.4889780580997467e-01</leafValues></_></weakClassifiers></_>
    <!-- stage 18 -->
    <_>
      <maxWeakCount>14</maxWeakCount>
      <stageThreshold>-5.6736201047897339e-01</stageThreshold>
      <weakClassifiers>
        <_>
          <internalNodes>
            0 -1 66 7.4364118278026581e-02</internalNodes>
          <leafValues>
            4.2857143282890320e-01 -7.2972971200942993e-01</leafValues></_>
        <_>
          <internalNodes>
            0 -1 35 -1.5976451337337494e-02</internalNodes>
          <leafValues>
            5.8850556612014771e-01 -1.7832034826278687e-01</leafValues></_>
        <_>
          <internalNodes>
            0 -1 297 4.8975874669849873e-03</internalNodes>
          <leafValues>
            -1.3152979314327240e-01 8.4764200448989868e-01</leafValues></_>
        <_>
          <internalNodes>
            0 -1 271 -6.1667444242630154e-05</internalNodes>
          <leafValues>
            -6.7476648092269897e-01 1.2602247297763824e-01</leafValues></_>
        <_>
          <internalNodes>
            0 -1 180 4.0705935680307448e-04</internalNodes>
          <leafValues>
            -1.6965262591838837e-01 6.5200430154800415e-01</leafValues></_>
        <_>
          <internalNodes>
            0 -1 127 7.8674545511603355e-04</internalNodes>
          <leafValues>
            -1.5763457119464874e-01 5.4679548740386963e-01</leafValues></_>
        <_>
          <internalNodes>
            0 -1 250 -1.7089911852963269e-04</internalNodes>
          <leafValues>
            4.1531464457511902e-01 -2.2599877417087555e-01</leafValues></_>
        <_>
          <internalNodes>
            0 -1 251 5.0744931213557720e-03</internalNodes>
          <leafValues>
            -1.4601242542266846e-01 5.9743684530258179e-01</leafValues></_>
        <_>
          <internalNodes>
            0 -1 175 1.2785001890733838e-03</internalNodes>
          <leafValues>
            -1.3098934292793274e-01 8.0888682603836060e-01</leafValues></_>
        <_>
          <internalNodes>
            0 -1 229 -3.6616247962228954e-04</internalNodes>
          <leafValues>
            3.6770272254943848e-01 -2.7469936013221741e-01</leafValues></_>
        <_>
          <internalNodes>
            0 -1 257 -4.4286574848229066e-05</internalNodes>
          <leafValues>
            -5.4897463321685791e-01 1.8757845461368561e-01</leafValues></_>
        <_>
          <internalNodes>
            0 -1 189 -6.4961772295646369e-05</internalNodes>
          <leafValues>
            4.2003586888313293e-01 -2.2688724100589752e-01</leafValues></_>
        <_>
          <internalNodes>
            0 -1 141 -2.0872009918093681e-04</internalNodes>
          <leafValues>
            3.6842712759971619e-01 -2.4146330356597900e-01</leafValues></_>
        <_>
          <internalNodes>
            0 -1 137 2.1472832304425538e-04</internalNodes>
          <leafValues>
            -2.5489968061447144e-01 3.7127280235290527e-01</leafValues></_></weakClassifiers></_>
    <!-- stage 19 -->
    <_>
      <maxWeakCount>16</maxWeakCount>
      <stageThreshold>-5.1962786912918091e-01</stageThreshold>
      <weakClassifiers>
        <_>
          <internalNodes>
            0 -1 240 -5.1670649554580450e-05</internalNodes>
          <leafValues>
            -2.5233644247055054e-01 5.0121062994003296e-01</leafValues></_>
        <_>
          <internalNodes>
            0 -1 48 2.1452748775482178e-01</internalNodes>
          <leafValues>
            -1.0418688505887985e-01 7.2770136594772339e-01</leafValues></_>
        <_>
          <internalNodes>
            0 -1 43 5.5314652621746063e-02</internalNodes>
          <leafValues>
            -9.8275609314441681e-02 6.2482738494873047e-01</leafValues></_>
        <_>
          <internalNodes>
            0 -1 47 -1.8787100911140442e-02</internalNodes>
          <leafValues>
            4.7833868861198425e-01 -1.6877624392509460e-01</leafValues></_>
        <_>
          <internalNodes>
            0 -1 205 3.2118878152687103e-05</internalNodes>
          <leafValues>
            1.9616679847240448e-01 -4.1947075724601746e-01</leafValues></_>
        <_>
          <internalNodes>
            0 -1 305 3.5543851554393768e-03</internalNodes>
          <leafValues>
            1.8988794088363647e-01 -4.4429594278335571e-01</leafValues></_>
        <_>
          <internalNodes>
            0 -1 4 -4.2395354248583317e-03</internalNodes>
          <leafValues>
            3.9929601550102234e-01 -2.6225304603576660e-01</leafValues></_>
        <_>
          <internalNodes>
            0 -1 60 -1.5891613438725471e-02</internalNodes>
          <leafValues>
            6.2452232837677002e-01 -1.6369667649269104e-01</leafValues></_>
        <_>
          <internalNodes>
            0 -1 321 -8.6521773482672870e-05</internalNodes>
          <leafValues>
            -5.2934885025024414e-01 2.1331882476806641e-01</leafValues></_>
        <_>
          <internalNodes>
            0 -1 26 7.4412062531337142e-05</internalNodes>
          <leafValues>
            -3.1477987766265869e-01 4.1891631484031677e-01</leafValues></_>
        <_>
          <internalNodes>
            0 -1 214 1.4182126324158162e-04</internalNodes>
          <leafValues>
            1.2209684401750565e-01 -7.9072028398513794e-01</leafValues></_>
        <_>
          <internalNodes>
            0 -1 206 3.3684023946989328e-05</internalNodes>
          <leafValues>
            1.8470086157321930e-01 -4.6279799938201904e-01</leafValues></_>
        <_>
          <internalNodes>
            0 -1 13 1.2026350200176239e-01</internalNodes>
          <leafValues>
            1.5212261676788330e-01 -6.2018930912017822e-01</leafValues></_>
        <_>
          <internalNodes>
            0 -1 65 7.8276407293742523e-06</internalNodes>
          <leafValues>
            -2.9596596956253052e-01 3.6242023110389709e-01</leafValues></_>
        <_>
          <internalNodes>
            0 -1 208 4.5831194147467613e-03</internalNodes>
          <leafValues>
            -1.9045637547969818e-01 5.5522102117538452e-01</leafValues></_>
        <_>
          <internalNodes>
            0 -1 338 -2.0495429635047913e-04</internalNodes>
          <leafValues>
            -3.8669326901435852e-01 2.5987428426742554e-01</leafValues></_></weakClassifiers></_>
    <!-- stage 20 -->
    <_>
      <maxWeakCount>13</maxWeakCount>
      <stageThreshold>-6.0534995794296265e-01</stageThreshold>
      <weakClassifiers>
        <_>
          <internalNodes>
            0 -1 244 1.8887265468947589e-05</internalNodes>
          <leafValues>
            5.4285717010498047e-01 -5.8823529630899429e-02</leafValues></_>
        <_>
          <internalNodes>
            0 -1 283 2.2461373358964920e-02</internalNodes>
          <leafValues>
            -6.7734397947788239e-02 8.3244538307189941e-01</leafValues></_>
        <_>
          <internalNodes>
            0 -1 278 8.3325977902859449e-04</internalNodes>
          <leafValues>
            -2.1742974221706390e-01 4.8366287350654602e-01</leafValues></_>
        <_>
          <internalNodes>
            0 -1 148 6.7695509642362595e-04</internalNodes>
          <leafValues>
            1.7929023504257202e-01 -5.8840477466583252e-01</leafValues></_>
        <_>
          <internalNodes>
            0 -1 7 3.4460151709936326e-06</internalNodes>
          <leafValues>
            -2.8913819789886475e-01 3.1067487597465515e-01</leafValues></_>
        <_>
          <internalNodes>
            0 -1 149 -4.8956423997879028e-03</internalNodes>
          <leafValues>
            -4.5180261135101318e-01 2.1472458541393280e-01</leafValues></_>
        <_>
          <internalNodes>
            0 -1 274 -8.9172153820982203e-06</internalNodes>
          <leafValues>
            3.9046230912208557e-01 -2.6705905795097351e-01</leafValues></_>
        <_>
          <internalNodes>
            0 -1 322 -3.9881424163468182e-04</internalNodes>
          <leafValues>
            6.1909919977188110e-01 -1.4434540271759033e-01</leafValues></_>
        <_>
          <internalNodes>
            0 -1 293 -3.5156164085492492e-04</internalNodes>
          <leafValues>
            6.8383973836898804e-01 -1.1754516512155533e-01</leafValues></_>
        <_>
          <internalNodes>
            0 -1 183 6.9114598773012403e-06</internalNodes>
          <leafValues>
            -2.3042736947536469e-01 3.9757922291755676e-01</leafValues></_>
        <_>
          <internalNodes>
            0 -1 32 -5.8347097365185618e-04</internalNodes>
          <leafValues>
            -5.5593544244766235e-01 1.7003713548183441e-01</leafValues></_>
        <_>
          <internalNodes>
            0 -1 159 -3.9027851016726345e-05</internalNodes>
          <leafValues>
            -4.5272397994995117e-01 2.1734049916267395e-01</leafValues></_>
        <_>
          <internalNodes>
            0 -1 134 -1.0753590613603592e-03</internalNodes>
          <leafValues>
            6.6598922014236450e-01 -1.6844680905342102e-01</leafValues></_></weakClassifiers></_>
    <!-- stage 21 -->
    <_>
      <maxWeakCount>16</maxWeakCount>
      <stageThreshold>-5.0398021936416626e-01</stageThreshold>
      <weakClassifiers>
        <_>
          <internalNodes>
            0 -1 258 -7.8539094829466194e-05</internalNodes>
          <leafValues>
            -3.4146341681480408e-01 4.7488585114479065e-01</leafValues></_>
        <_>
          <internalNodes>
            0 -1 10 -2.0444405078887939e-01</internalNodes>
          <leafValues>
            -6.3248366117477417e-01 1.8085289001464844e-01</leafValues></_>
        <_>
          <internalNodes>
            0 -1 135 -5.2589544793590903e-05</internalNodes>
          <leafValues>
            -3.5823220014572144e-01 2.6051694154739380e-01</leafValues></_>
        <_>
          <internalNodes>
            0 -1 279 2.5843316689133644e-04</internalNodes>
          <leafValues>
            -2.0946907997131348e-01 5.0403302907943726e-01</leafValues></_>
        <_>
          <internalNodes>
            0 -1 185 -2.3604588932357728e-05</internalNodes>
          <leafValues>
            -5.8854168653488159e-01 1.4882379770278931e-01</leafValues></_>
        <_>
          <internalNodes>
            0 -1 104 -5.4274410940706730e-03</internalNodes>
          <leafValues>
            4.4264855980873108e-01 -2.3704864084720612e-01</leafValues></_>
        <_>
          <internalNodes>
            0 -1 269 8.6525207734666765e-05</internalNodes>
          <leafValues>
            2.1825560927391052e-01 -4.9089959263801575e-01</leafValues></_>
        <_>
          <internalNodes>
            0 -1 296 8.8903214782476425e-04</internalNodes>
          <leafValues>
            -1.8921372294425964e-01 6.7365461587905884e-01</leafValues></_>
        <_>
          <internalNodes>
            0 -1 172 1.0031238198280334e-03</internalNodes>
          <leafValues>
            2.9104572534561157e-01 -4.0052798390388489e-01</leafValues></_>
        <_>
          <internalNodes>
            0 -1 303 3.6958465352654457e-03</internalNodes>
          <leafValues>
            -1.5468050539493561e-01 6.6080540418624878e-01</leafValues></_>
        <_>
          <internalNodes>
            0 -1 302 -1.2036072090268135e-02</internalNodes>
          <leafValues>
            7.8810894489288330e-01 -1.0350061208009720e-01</leafValues></_>
        <_>
          <internalNodes>
            0 -1 161 4.2468900792300701e-03</internalNodes>
          <leafValues>
            -9.2274747788906097e-02 7.7168852090835571e-01</leafValues></_>
        <_>
          <internalNodes>
            0 -1 158 -7.5904332334175706e-04</internalNodes>
          <leafValues>
            6.1778634786605835e-01 -1.5639682114124298e-01</leafValues></_>
        <_>
          <internalNodes>
            0 -1 79 -1.9243676797486842e-04</internalNodes>
          <leafValues>
            -5.5216366052627563e-01 1.8588228523731232e-01</leafValues></_>
        <_>
          <internalNodes>
            0 -1 136 -1.9594572950154543e-03</internalNodes>
          <leafValues>
            4.8418065905570984e-01 -2.3264378309249878e-01</leafValues></_>
        <_>
          <internalNodes>
            0 -1 73 1.0753469541668892e-03</internalNodes>
          <leafValues>
            -1.5096949040889740e-01 6.6690981388092041e-01</leafValues></_></weakClassifiers></_>
    <!-- stage 22 -->
    <_>
      <maxWeakCount>10</maxWeakCount>
      <stageThreshold>-4.6530157327651978e-01</stageThreshold>
      <weakClassifiers>
        <_>
          <internalNodes>
            0 -1 171 4.3468903641041834e-06</internalNodes>
          <leafValues>
            4.5936394482851028e-02 7.0464134216308594e-01</leafValues></_>
        <_>
          <internalNodes>
            0 -1 310 -3.2029672638600459e-06</internalNodes>
          <leafValues>
            5.2479505538940430e-01 -2.4860616028308868e-01</leafValues></_>
        <_>
          <internalNodes>
            0 -1 227 2.6013365186372539e-06</internalNodes>
          <leafValues>
            -3.0386295914649963e-01 4.7739380598068237e-01</leafValues></_>
        <_>
          <internalNodes>
            0 -1 201 -3.0342880563694052e-06</internalNodes>
          <leafValues>
            4.2759221792221069e-01 -3.4039121866226196e-01</leafValues></_>
        <_>
          <internalNodes>
            0 -1 306 3.2585014650976518e-06</internalNodes>
          <leafValues>
            -2.3408697545528412e-01 5.7191383838653564e-01</leafValues></_>
        <_>
          <internalNodes>
            0 -1 113 -2.0433852449059486e-02</internalNodes>
          <leafValues>
            5.1279950141906738e-01 -2.5636032223701477e-01</leafValues></_>
        <_>
          <internalNodes>
            0 -1 331 3.4329968912061304e-06</internalNodes>
          <leafValues>
            -2.0834273099899292e-01 5.4147428274154663e-01</leafValues></_>
        <_>
          <internalNodes>
            0 -1 81 3.0342880563694052e-06</internalNodes>
          <leafValues>
            -2.7511492371559143e-01 4.6673983335494995e-01</leafValues></_>
        <_>
          <internalNodes>
            0 -1 103 -2.9708924703299999e-03</internalNodes>
          <leafValues>
            -5.2440756559371948e-01 2.4499355256557465e-01</leafValues></_>
        <_>
          <internalNodes>
            0 -1 291 9.6192115961457603e-06</internalNodes>
          <leafValues>
            -2.8162169456481934e-01 4.5182883739471436e-01</leafValues></_></weakClassifiers></_>
    <!-- stage 23 -->
    <_>
      <maxWeakCount>16</maxWeakCount>
      <stageThreshold>-4.9239969253540039e-01</stageThreshold>
      <weakClassifiers>
        <_>
          <internalNodes>
            0 -1 184 3.4945631341543049e-05</internalNodes>
          <leafValues>
            5.6521737575531006e-01 -8.5714288055896759e-02</leafValues></_>
        <_>
          <internalNodes>
            0 -1 84 9.8274044692516327e-02</internalNodes>
          <leafValues>
            -1.0246468335390091e-01 7.1653044223785400e-01</leafValues></_>
        <_>
          <internalNodes>
            0 -1 266 2.2866707295179367e-03</internalNodes>
          <leafValues>
            -1.5809868276119232e-01 5.5548763275146484e-01</leafValues></_>
        <_>
          <internalNodes>
            0 -1 248 6.9270050153136253e-04</internalNodes>
          <leafValues>
            -1.5199269354343414e-01 5.9617489576339722e-01</leafValues></_>
        <_>
          <internalNodes>
            0 -1 12 -2.7948338538408279e-04</internalNodes>
          <leafValues>
            -2.9774191975593567e-01 2.8326183557510376e-01</leafValues></_>
        <_>
          <internalNodes>
            0 -1 41 9.6331732347607613e-03</internalNodes>
          <leafValues>
            -1.3541504740715027e-01 6.5616208314895630e-01</leafValues></_>
        <_>
          <internalNodes>
            0 -1 269 -8.8064814917743206e-05</internalNodes>
          <leafValues>
            -5.5408072471618652e-01 1.7799933254718781e-01</leafValues></_>
        <_>
          <internalNodes>
            0 -1 221 -2.9742547776550055e-03</internalNodes>
          <leafValues>
            4.7716137766838074e-01 -2.3190163075923920e-01</leafValues></_>
        <_>
          <internalNodes>
            0 -1 117 -2.0844619721174240e-03</internalNodes>
          <leafValues>
            -6.9950497150421143e-01 1.4480565488338470e-01</leafValues></_>
        <_>
          <internalNodes>
            0 -1 286 3.7819659155502450e-06</internalNodes>
          <leafValues>
            -2.4990759789943695e-01 3.7405854463577271e-01</leafValues></_>
        <_>
          <internalNodes>
            0 -1 329 5.7986599858850241e-04</internalNodes>
          <leafValues>
            2.2708153724670410e-01 -4.0895810723304749e-01</leafValues></_>
        <_>
          <internalNodes>
            0 -1 64 4.1911985725164413e-02</internalNodes>
          <leafValues>
            -1.6992326080799103e-01 7.3309648036956787e-01</leafValues></_>
        <_>
          <internalNodes>
            0 -1 273 -1.5944255283102393e-03</internalNodes>
          <leafValues>
            5.6424677371978760e-01 -1.5523408353328705e-01</leafValues></_>
        <_>
          <internalNodes>
            0 -1 179 6.2622094992548227e-04</internalNodes>
          <leafValues>
            1.6747805476188660e-01 -6.8445515632629395e-01</leafValues></_>
        <_>
          <internalNodes>
            0 -1 126 -1.9038538448512554e-04</internalNodes>
          <leafValues>
            4.2932102084159851e-01 -2.4442417919635773e-01</leafValues></_>
        <_>
          <internalNodes>
            0 -1 335 -1.1858880752697587e-03</internalNodes>
          <leafValues>
            -3.2363399863243103e-01 3.1580948829650879e-01</leafValues></_></weakClassifiers></_>
    <!-- stage 24 -->
    <_>
      <maxWeakCount>17</maxWeakCount>
      <stageThreshold>-4.4835871458053589e-01</stageThreshold>
      <weakClassifiers>
        <_>
          <internalNodes>
            0 -1 238 -2.9909157092333771e-05</internalNodes>
          <leafValues>
            -2.2641509771347046e-01 4.9275362491607666e-01</leafValues></_>
        <_>
          <internalNodes>
            0 -1 195 5.9347497299313545e-03</internalNodes>
          <leafValues>
            -8.8227219879627228e-02 7.4350833892822266e-01</leafValues></_>
        <_>
          <internalNodes>
            0 -1 209 -2.1356239449232817e-03</internalNodes>
          <leafValues>
            4.6824911236763000e-01 -1.7372460663318634e-01</leafValues></_>
        <_>
          <internalNodes>
            0 -1 226 -4.3257383367745206e-05</internalNodes>
          <leafValues>
            -4.5046308636665344e-01 1.9545511901378632e-01</leafValues></_>
        <_>
          <internalNodes>
            0 -1 30 2.2001122124493122e-03</internalNodes>
          <leafValues>
            -2.3067082464694977e-01 4.5642498135566711e-01</leafValues></_>
        <_>
          <internalNodes>
            0 -1 91 8.5109872743487358e-03</internalNodes>
          <leafValues>
            1.9782949984073639e-01 -5.4233926534652710e-01</leafValues></_>
        <_>
          <internalNodes>
            0 -1 144 1.8706314731389284e-03</internalNodes>
          <leafValues>
            -1.6614949703216553e-01 6.0320848226547241e-01</leafValues></_>
        <_>
          <internalNodes>
            0 -1 295 -3.4124583471566439e-03</internalNodes>
          <leafValues>
            6.0234683752059937e-01 -1.7728015780448914e-01</leafValues></_>
        <_>
          <internalNodes>
            0 -1 315 1.1080491822212934e-03</internalNodes>
          <leafValues>
            2.3800350725650787e-01 -4.2403981089591980e-01</leafValues></_>
        <_>
          <internalNodes>
            0 -1 40 -2.2199950180947781e-03</internalNodes>
          <leafValues>
            5.9342068433761597e-01 -1.5729846060276031e-01</leafValues></_>
        <_>
          <internalNodes>
            0 -1 145 -1.5735965222120285e-02</internalNodes>
          <leafValues>
            -6.2257975339889526e-01 1.7220260202884674e-01</leafValues></_>
        <_>
          <internalNodes>
            0 -1 6 7.5576012022793293e-04</internalNodes>
          <leafValues>
            2.1636618673801422e-01 -4.6782597899436951e-01</leafValues></_>
        <_>
          <internalNodes>
            0 -1 232 1.2886656804766972e-05</internalNodes>
          <leafValues>
            3.4163865447044373e-01 -3.1974458694458008e-01</leafValues></_>
        <_>
          <internalNodes>
            0 -1 234 -3.1967042014002800e-03</internalNodes>
          <leafValues>
            4.5789507031440735e-01 -2.2536361217498779e-01</leafValues></_>
        <_>
          <internalNodes>
            0 -1 281 4.6614236198365688e-03</internalNodes>
          <leafValues>
            -1.5456740558147430e-01 6.5854936838150024e-01</leafValues></_>
        <_>
          <internalNodes>
            0 -1 14 -1.2634204700589180e-02</internalNodes>
          <leafValues>
            -6.3051533699035645e-01 2.0427703857421875e-01</leafValues></_>
        <_>
          <internalNodes>
            0 -1 143 2.8172710910439491e-02</internalNodes>
          <leafValues>
            2.3979274928569794e-01 -4.4250175356864929e-01</leafValues></_></weakClassifiers></_>
    <!-- stage 25 -->
    <_>
      <maxWeakCount>5</maxWeakCount>
      <stageThreshold>-8.5438442230224609e-01</stageThreshold>
      <weakClassifiers>
        <_>
          <internalNodes>
            0 -1 292 -6.8030075635761023e-04</internalNodes>
          <leafValues>
            4.7058823704719543e-01 -5.6896549463272095e-01</leafValues></_>
        <_>
          <internalNodes>
            0 -1 255 4.6334621401911136e-06</internalNodes>
          <leafValues>
            -6.6378372907638550e-01 3.5858577489852905e-01</leafValues></_>
        <_>
          <internalNodes>
            0 -1 193 6.5040023764595389e-04</internalNodes>
          <leafValues>
            -4.0871474146842957e-01 6.1794376373291016e-01</leafValues></_>
        <_>
          <internalNodes>
            0 -1 298 1.4257276779972017e-04</internalNodes>
          <leafValues>
            4.1627815365791321e-01 -7.2598737478256226e-01</leafValues></_>
        <_>
          <internalNodes>
            0 -1 339 -8.2944470705115236e-06</internalNodes>
          <leafValues>
            -6.1067646741867065e-01 4.9069744348526001e-01</leafValues></_></weakClassifiers></_>
    <!-- stage 26 -->
    <_>
      <maxWeakCount>5</maxWeakCount>
      <stageThreshold>-2.6943349838256836e-01</stageThreshold>
      <weakClassifiers>
        <_>
          <internalNodes>
            0 -1 254 -3.8246226031333208e-03</internalNodes>
          <leafValues>
            1. -5.0375938415527344e-01</leafValues></_>
        <_>
          <internalNodes>
            0 -1 109 -2.0357004832476377e-03</internalNodes>
          <leafValues>
            7.8299534320831299e-01 -3.9174768328666687e-01</leafValues></_>
        <_>
          <internalNodes>
            0 -1 311 7.1270443731918931e-04</internalNodes>
          <leafValues>
            4.1921389102935791e-01 -8.0193823575973511e-01</leafValues></_>
        <_>
          <internalNodes>
            0 -1 124 -1.5076026320457458e-03</internalNodes>
          <leafValues>
            7.1485728025436401e-01 -3.9193117618560791e-01</leafValues></_>
        <_>
          <internalNodes>
            0 -1 327 2.7100802981294692e-05</internalNodes>
          <leafValues>
            -5.0799757242202759e-01 6.4809149503707886e-01</leafValues></_></weakClassifiers></_>
    <!-- stage 27 -->
    <_>
      <maxWeakCount>5</maxWeakCount>
      <stageThreshold>-8.0927532911300659e-01</stageThreshold>
      <weakClassifiers>
        <_>
          <internalNodes>
            0 -1 312 1.0506983380764723e-03</internalNodes>
          <leafValues>
            -5.7627117633819580e-01 5.6250000000000000e-01</leafValues></_>
        <_>
          <internalNodes>
            0 -1 198 4.7066409024409950e-05</internalNodes>
          <leafValues>
            3.6258167028427124e-01 -6.3256615400314331e-01</leafValues></_>
        <_>
          <internalNodes>
            0 -1 87 -2.0007221028208733e-03</internalNodes>
          <leafValues>
            5.7776451110839844e-01 -4.4113919138908386e-01</leafValues></_>
        <_>
          <internalNodes>
            0 -1 119 1.6619560483377427e-05</internalNodes>
          <leafValues>
            -4.5557120442390442e-01 5.0908541679382324e-01</leafValues></_>
        <_>
          <internalNodes>
            0 -1 69 2.4438325781375170e-03</internalNodes>
          <leafValues>
            3.0112463235855103e-01 -9.0906149148941040e-01</leafValues></_></weakClassifiers></_>
    <!-- stage 28 -->
    <_>
      <maxWeakCount>4</maxWeakCount>
      <stageThreshold>-5.0394719839096069e-01</stageThreshold>
      <weakClassifiers>
        <_>
          <internalNodes>
            0 -1 128 -9.0164914727210999e-03</internalNodes>
          <leafValues>
            1. -4.9253731966018677e-01</leafValues></_>
        <_>
          <internalNodes>
            0 -1 304 3.0325167244882323e-05</internalNodes>
          <leafValues>
            2.5544148683547974e-01 -1.</leafValues></_>
        <_>
          <internalNodes>
            0 -1 54 -2.5962560903280973e-04</internalNodes>
          <leafValues>
            -6.2914174795150757e-01 4.2326417565345764e-01</leafValues></_>
        <_>
          <internalNodes>
            0 -1 9 -8.7208361946977675e-05</internalNodes>
          <leafValues>
            -6.9011557102203369e-01 4.0840622782707214e-01</leafValues></_></weakClassifiers></_>
    <!-- stage 29 -->
    <_>
      <maxWeakCount>5</maxWeakCount>
      <stageThreshold>-1.2731353938579559e-01</stageThreshold>
      <weakClassifiers>
        <_>
          <internalNodes>
            0 -1 188 4.2941919673467055e-06</internalNodes>
          <leafValues>
            -6.4705884456634521e-01 3.3333334326744080e-01</leafValues></_>
        <_>
          <internalNodes>
            0 -1 267 1.2642643923754804e-05</internalNodes>
          <leafValues>
            2.1697996556758881e-01 -9.0985208749771118e-01</leafValues></_>
        <_>
          <internalNodes>
            0 -1 125 -6.7413689066597726e-06</internalNodes>
          <leafValues>
            5.6251531839370728e-01 -5.1585310697555542e-01</leafValues></_>
        <_>
          <internalNodes>
            0 -1 75 -2.1841812413185835e-03</internalNodes>
          <leafValues>
            -8.3964914083480835e-01 2.8370118141174316e-01</leafValues></_>
        <_>
          <internalNodes>
            0 -1 300 -2.1279749926179647e-03</internalNodes>
          <leafValues>
            7.5434195995330811e-01 -3.9701130986213684e-01</leafValues></_></weakClassifiers></_></stages>
  <features>
    <_>
      <rects>
        <_>
          0 8 47 6 -1.</_>
        <_>
          0 10 47 2 3.</_></rects>
      <tilted>0</tilted></_>
    <_>
      <rects>
        <_>
          0 10 3 38 -1.</_>
        <_>
          0 29 3 19 2.</_></rects>
      <tilted>0</tilted></_>
    <_>
      <rects>
        <_>
          0 12 26 10 -1.</_>
        <_>
          0 12 13 5 2.</_>
        <_>
          13 17 13 5 2.</_></rects>
      <tilted>0</tilted></_>
    <_>
      <rects>
        <_>
          0 12 41 3 -1.</_>
        <_>
          0 13 41 1 3.</_></rects>
      <tilted>0</tilted></_>
    <_>
      <rects>
        <_>
          0 14 25 9 -1.</_>
        <_>
          0 17 25 3 3.</_></rects>
      <tilted>0</tilted></_>
    <_>
      <rects>
        <_>
          0 21 9 3 -1.</_>
        <_>
          0 22 9 1 3.</_></rects>
      <tilted>0</tilted></_>
    <_>
      <rects>
        <_>
          0 34 9 3 -1.</_>
        <_>
          3 34 3 3 3.</_></rects>
      <tilted>0</tilted></_>
    <_>
      <rects>
        <_>
          0 34 16 8 -1.</_>
        <_>
          0 34 8 4 2.</_>
        <_>
          8 38 8 4 2.</_></rects>
      <tilted>0</tilted></_>
    <_>
      <rects>
        <_>
          1 4 3 14 -1.</_>
        <_>
          1 11 3 7 2.</_></rects>
      <tilted>0</tilted></_>
    <_>
      <rects>
        <_>
          1 8 1 6 -1.</_>
        <_>
          1 10 1 2 3.</_></rects>
      <tilted>0</tilted></_>
    <_>
      <rects>
        <_>
          1 13 46 27 -1.</_>
        <_>
          24 13 23 27 2.</_></rects>
      <tilted>0</tilted></_>
    <_>
      <rects>
        <_>
          1 22 12 2 -1.</_>
        <_>
          1 22 6 1 2.</_>
        <_>
          7 23 6 1 2.</_></rects>
      <tilted>0</tilted></_>
    <_>
      <rects>
        <_>
          1 25 6 18 -1.</_>
        <_>
          1 25 3 9 2.</_>
        <_>
          4 34 3 9 2.</_></rects>
      <tilted>0</tilted></_>
    <_>
      <rects>
        <_>
          2 0 34 40 -1.</_>
        <_>
          2 0 17 20 2.</_>
        <_>
          19 20 17 20 2.</_></rects>
      <tilted>0</tilted></_>
    <_>
      <rects>
        <_>
          2 4 42 2 -1.</_>
        <_>
          16 4 14 2 3.</_></rects>
      <tilted>0</tilted></_>
    <_>
      <rects>
        <_>
          2 14 45 14 -1.</_>
        <_>
          17 14 15 14 3.</_></rects>
      <tilted>0</tilted></_>
    <_>
      <rects>
        <_>
          2 15 24 3 -1.</_>
        <_>
          2 16 24 1 3.</_></rects>
      <tilted>0</tilted></_>
    <_>
      <rects>
        <_>
          2 16 45 20 -1.</_>
        <_>
          17 16 15 20 3.</_></rects>
      <tilted>0</tilted></_>
    <_>
      <rects>
        <_>
          2 22 10 16 -1.</_>
        <_>
          2 22 5 8 2.</_>
        <_>
          7 30 5 8 2.</_></rects>
      <tilted>0</tilted></_>
    <_>
      <rects>
        <_>
          2 44 6 2 -1.</_>
        <_>
          2 45 6 1 2.</_></rects>
      <tilted>0</tilted></_>
    <_>
      <rects>
        <_>
          3 0 42 39 -1.</_>
        <_>
          17 0 14 39 3.</_></rects>
      <tilted>0</tilted></_>
    <_>
      <rects>
        <_>
          3 4 4 6 -1.</_>
        <_>
          3 6 4 2 3.</_></rects>
      <tilted>0</tilted></_>
    <_>
      <rects>
        <_>
          3 8 4 18 -1.</_>
        <_>
          3 8 2 9 2.</_>
        <_>
          5 17 2 9 2.</_></rects>
      <tilted>0</tilted></_>
    <_>
      <rects>
        <_>
          3 11 6 1 -1.</_>
        <_>
          6 11 3 1 2.</_></rects>
      <tilted>0</tilted></_>
    <_>
      <rects>
        <_>
          3 14 45 19 -1.</_>
        <_>
          18 14 15 19 3.</_></rects>
      <tilted>0</tilted></_>
    <_>
      <rects>
        <_>
          3 22 14 4 -1.</_>
        <_>
          3 22 7 2 2.</_>
        <_>
          10 24 7 2 2.</_></rects>
      <tilted>0</tilted></_>
    <_>
      <rects>
        <_>
          3 24 8 3 -1.</_>
        <_>
          3 25 8 1 3.</_></rects>
      <tilted>0</tilted></_>
    <_>
      <rects>
        <_>
          3 27 3 15 -1.</_>
        <_>
          4 27 1 15 3.</_></rects>
      <tilted>0</tilted></_>
    <_>
      <rects>
        <_>
          3 31 4 2 -1.</_>
        <_>
          3 32 4 1 2.</_></rects>
      <tilted>0</tilted></_>
    <_>
      <rects>
        <_>
          4 4 3 32 -1.</_>
        <_>
          5 4 1 32 3.</_></rects>
      <tilted>0</tilted></_>
    <_>
      <rects>
        <_>
          4 5 30 6 -1.</_>
        <_>
          4 7 30 2 3.</_></rects>
      <tilted>0</tilted></_>
    <_>
      <rects>
        <_>
          4 11 7 32 -1.</_>
        <_>
          4 27 7 16 2.</_></rects>
      <tilted>0</tilted></_>
    <_>
      <rects>
        <_>
          4 18 3 9 -1.</_>
        <_>
          5 18 1 9 3.</_></rects>
      <tilted>0</tilted></_>
    <_>
      <rects>
        <_>
          4 23 12 14 -1.</_>
        <_>
          4 30 12 7 2.</_></rects>
      <tilted>0</tilted></_>
    <_>
      <rects>
        <_>
          4 26 4 4 -1.</_>
        <_>
          4 26 2 2 2.</_>
        <_>
          6 28 2 2 2.</_></rects>
      <tilted>0</tilted></_>
    <_>
      <rects>
        <_>
          4 32 28 16 -1.</_>
        <_>
          4 32 14 8 2.</_>
        <_>
          18 40 14 8 2.</_></rects>
      <tilted>0</tilted></_>
    <_>
      <rects>
        <_>
          4 39 6 5 -1.</_>
        <_>
          6 39 2 5 3.</_></rects>
      <tilted>0</tilted></_>
    <_>
      <rects>
        <_>
          4 41 1 2 -1.</_>
        <_>
          4 42 1 1 2.</_></rects>
      <tilted>0</tilted></_>
    <_>
      <rects>
        <_>
          4 46 2 2 -1.</_>
        <_>
          4 47 2 1 2.</_></rects>
      <tilted>0</tilted></_>
    <_>
      <rects>
        <_>
          5 4 42 1 -1.</_>
        <_>
          19 4 14 1 3.</_></rects>
      <tilted>0</tilted></_>
    <_>
      <rects>
        <_>
          5 14 10 4 -1.</_>
        <_>
          5 16 10 2 2.</_></rects>
      <tilted>0</tilted></_>
    <_>
      <rects>
        <_>
          5 39 25 9 -1.</_>
        <_>
          5 42 25 3 3.</_></rects>
      <tilted>0</tilted></_>
    <_>
      <rects>
        <_>
          6 0 9 41 -1.</_>
        <_>
          9 0 3 41 3.</_></rects>
      <tilted>0</tilted></_>
    <_>
      <rects>
        <_>
          6 3 41 14 -1.</_>
        <_>
          6 10 41 7 2.</_></rects>
      <tilted>0</tilted></_>
    <_>
      <rects>
        <_>
          6 15 12 9 -1.</_>
        <_>
          6 18 12 3 3.</_></rects>
      <tilted>0</tilted></_>
    <_>
      <rects>
        <_>
          6 46 42 2 -1.</_>
        <_>
          20 46 14 2 3.</_></rects>
      <tilted>0</tilted></_>
    <_>
      <rects>
        <_>
          7 2 3 17 -1.</_>
        <_>
          8 2 1 17 3.</_></rects>
      <tilted>0</tilted></_>
    <_>
      <rects>
        <_>
          7 4 26 12 -1.</_>
        <_>
          7 10 26 6 2.</_></rects>
      <tilted>0</tilted></_>
    <_>
      <rects>
        <_>
          7 4 35 39 -1.</_>
        <_>
          7 17 35 13 3.</_></rects>
      <tilted>0</tilted></_>
    <_>
      <rects>
        <_>
          7 5 3 12 -1.</_>
        <_>
          7 9 3 4 3.</_></rects>
      <tilted>0</tilted></_>
    <_>
      <rects>
        <_>
          7 7 28 6 -1.</_>
        <_>
          7 9 28 2 3.</_></rects>
      <tilted>0</tilted></_>
    <_>
      <rects>
        <_>
          7 20 8 9 -1.</_>
        <_>
          7 23 8 3 3.</_></rects>
      <tilted>0</tilted></_>
    <_>
      <rects>
        <_>
          7 20 33 16 -1.</_>
        <_>
          18 20 11 16 3.</_></rects>
      <tilted>0</tilted></_>
    <_>
      <rects>
        <_>
          7 22 32 8 -1.</_>
        <_>
          23 22 16 8 2.</_></rects>
      <tilted>0</tilted></_>
    <_>
      <rects>
        <_>
          8 3 6 18 -1.</_>
        <_>
          10 3 2 18 3.</_></rects>
      <tilted>0</tilted></_>
    <_>
      <rects>
        <_>
          8 8 30 27 -1.</_>
        <_>
          23 8 15 27 2.</_></rects>
      <tilted>0</tilted></_>
    <_>
      <rects>
        <_>
          8 14 37 9 -1.</_>
        <_>
          8 17 37 3 3.</_></rects>
      <tilted>0</tilted></_>
    <_>
      <rects>
        <_>
          8 16 18 3 -1.</_>
        <_>
          14 16 6 3 3.</_></rects>
      <tilted>0</tilted></_>
    <_>
      <rects>
        <_>
          8 17 7 22 -1.</_>
        <_>
          8 28 7 11 2.</_></rects>
      <tilted>0</tilted></_>
    <_>
      <rects>
        <_>
          8 18 4 13 -1.</_>
        <_>
          10 18 2 13 2.</_></rects>
      <tilted>0</tilted></_>
    <_>
      <rects>
        <_>
          8 18 10 15 -1.</_>
        <_>
          8 23 10 5 3.</_></rects>
      <tilted>0</tilted></_>
    <_>
      <rects>
        <_>
          8 20 3 5 -1.</_>
        <_>
          9 20 1 5 3.</_></rects>
      <tilted>0</tilted></_>
    <_>
      <rects>
        <_>
          8 20 28 6 -1.</_>
        <_>
          8 20 14 3 2.</_>
        <_>
          22 23 14 3 2.</_></rects>
      <tilted>0</tilted></_>
    <_>
      <rects>
        <_>
          8 32 18 14 -1.</_>
        <_>
          8 32 9 7 2.</_>
        <_>
          17 39 9 7 2.</_></rects>
      <tilted>0</tilted></_>
    <_>
      <rects>
        <_>
          9 4 33 12 -1.</_>
        <_>
          9 10 33 6 2.</_></rects>
      <tilted>0</tilted></_>
    <_>
      <rects>
        <_>
          9 16 2 3 -1.</_>
        <_>
          9 17 2 1 3.</_></rects>
      <tilted>0</tilted></_>
    <_>
      <rects>
        <_>
          9 16 30 12 -1.</_>
        <_>
          24 16 15 12 2.</_></rects>
      <tilted>0</tilted></_>
    <_>
      <rects>
        <_>
          9 17 16 8 -1.</_>
        <_>
          9 17 8 4 2.</_>
        <_>
          17 21 8 4 2.</_></rects>
      <tilted>0</tilted></_>
    <_>
      <rects>
        <_>
          9 17 10 4 -1.</_>
        <_>
          9 19 10 2 2.</_></rects>
      <tilted>0</tilted></_>
    <_>
      <rects>
        <_>
          9 21 9 5 -1.</_>
        <_>
          12 21 3 5 3.</_></rects>
      <tilted>0</tilted></_>
    <_>
      <rects>
        <_>
          9 21 26 10 -1.</_>
        <_>
          9 21 13 5 2.</_>
        <_>
          22 26 13 5 2.</_></rects>
      <tilted>0</tilted></_>
    <_>
      <rects>
        <_>
          9 23 24 18 -1.</_>
        <_>
          9 32 24 9 2.</_></rects>
      <tilted>0</tilted></_>
    <_>
      <rects>
        <_>
          9 24 8 8 -1.</_>
        <_>
          9 28 8 4 2.</_></rects>
      <tilted>0</tilted></_>
    <_>
      <rects>
        <_>
          10 8 25 3 -1.</_>
        <_>
          10 9 25 1 3.</_></rects>
      <tilted>0</tilted></_>
    <_>
      <rects>
        <_>
          10 27 23 6 -1.</_>
        <_>
          10 29 23 2 3.</_></rects>
      <tilted>0</tilted></_>
    <_>
      <rects>
        <_>
          10 34 21 6 -1.</_>
        <_>
          10 36 21 2 3.</_></rects>
      <tilted>0</tilted></_>
    <_>
      <rects>
        <_>
          10 45 5 2 -1.</_>
        <_>
          10 46 5 1 2.</_></rects>
      <tilted>0</tilted></_>
    <_>
      <rects>
        <_>
          11 0 2 36 -1.</_>
        <_>
          11 0 1 18 2.</_>
        <_>
          12 18 1 18 2.</_></rects>
      <tilted>0</tilted></_>
    <_>
      <rects>
        <_>
          11 19 7 18 -1.</_>
        <_>
          11 25 7 6 3.</_></rects>
      <tilted>0</tilted></_>
    <_>
      <rects>
        <_>
          11 20 6 1 -1.</_>
        <_>
          13 20 2 1 3.</_></rects>
      <tilted>0</tilted></_>
    <_>
      <rects>
        <_>
          11 28 15 11 -1.</_>
        <_>
          16 28 5 11 3.</_></rects>
      <tilted>0</tilted></_>
    <_>
      <rects>
        <_>
          12 12 2 2 -1.</_>
        <_>
          13 12 1 2 2.</_></rects>
      <tilted>0</tilted></_>
    <_>
      <rects>
        <_>
          12 13 4 12 -1.</_>
        <_>
          12 17 4 4 3.</_></rects>
      <tilted>0</tilted></_>
    <_>
      <rects>
        <_>
          12 13 15 5 -1.</_>
        <_>
          17 13 5 5 3.</_></rects>
      <tilted>0</tilted></_>
    <_>
      <rects>
        <_>
          12 15 24 24 -1.</_>
        <_>
          20 15 8 24 3.</_></rects>
      <tilted>0</tilted></_>
    <_>
      <rects>
        <_>
          12 17 26 4 -1.</_>
        <_>
          12 17 13 2 2.</_>
        <_>
          25 19 13 2 2.</_></rects>
      <tilted>0</tilted></_>
    <_>
      <rects>
        <_>
          12 18 10 6 -1.</_>
        <_>
          12 18 5 3 2.</_>
        <_>
          17 21 5 3 2.</_></rects>
      <tilted>0</tilted></_>
    <_>
      <rects>
        <_>
          12 22 12 15 -1.</_>
        <_>
          16 22 4 15 3.</_></rects>
      <tilted>0</tilted></_>
    <_>
      <rects>
        <_>
          12 22 6 9 -1.</_>
        <_>
          12 25 6 3 3.</_></rects>
      <tilted>0</tilted></_>
    <_>
      <rects>
        <_>
          12 23 12 20 -1.</_>
        <_>
          16 23 4 20 3.</_></rects>
      <tilted>0</tilted></_>
    <_>
      <rects>
        <_>
          12 23 6 8 -1.</_>
        <_>
          12 27 6 4 2.</_></rects>
      <tilted>0</tilted></_>
    <_>
      <rects>
        <_>
          12 27 13 8 -1.</_>
        <_>
          12 31 13 4 2.</_></rects>
      <tilted>0</tilted></_>
    <_>
      <rects>
        <_>
          12 28 16 2 -1.</_>
        <_>
          20 28 8 2 2.</_></rects>
      <tilted>0</tilted></_>
    <_>
      <rects>
        <_>
          13 11 21 26 -1.</_>
        <_>
          20 11 7 26 3.</_></rects>
      <tilted>0</tilted></_>
    <_>
      <rects>
        <_>
          13 12 2 12 -1.</_>
        <_>
          13 16 2 4 3.</_></rects>
      <tilted>0</tilted></_>
    <_>
      <rects>
        <_>
          13 12 6 8 -1.</_>
        <_>
          13 12 3 4 2.</_>
        <_>
          16 16 3 4 2.</_></rects>
      <tilted>0</tilted></_>
    <_>
      <rects>
        <_>
          13 12 10 14 -1.</_>
        <_>
          13 12 5 7 2.</_>
        <_>
          18 19 5 7 2.</_></rects>
      <tilted>0</tilted></_>
    <_>
      <rects>
        <_>
          13 13 12 4 -1.</_>
        <_>
          17 13 4 4 3.</_></rects>
      <tilted>0</tilted></_>
    <_>
      <rects>
        <_>
          13 14 15 1 -1.</_>
        <_>
          18 14 5 1 3.</_></rects>
      <tilted>0</tilted></_>
    <_>
      <rects>
        <_>
          13 20 12 10 -1.</_>
        <_>
          13 20 6 5 2.</_>
        <_>
          19 25 6 5 2.</_></rects>
      <tilted>0</tilted></_>
    <_>
      <rects>
        <_>
          13 24 8 8 -1.</_>
        <_>
          13 24 4 4 2.</_>
        <_>
          17 28 4 4 2.</_></rects>
      <tilted>0</tilted></_>
    <_>
      <rects>
        <_>
          13 34 2 2 -1.</_>
        <_>
          13 34 1 1 2.</_>
        <_>
          14 35 1 1 2.</_></rects>
      <tilted>0</tilted></_>
    <_>
      <rects>
        <_>
          13 38 6 1 -1.</_>
        <_>
          15 38 2 1 3.</_></rects>
      <tilted>0</tilted></_>
    <_>
      <rects>
        <_>
          14 1 30 1 -1.</_>
        <_>
          29 1 15 1 2.</_></rects>
      <tilted>0</tilted></_>
    <_>
      <rects>
        <_>
          14 3 33 9 -1.</_>
        <_>
          25 3 11 9 3.</_></rects>
      <tilted>0</tilted></_>
    <_>
      <rects>
        <_>
          14 10 12 7 -1.</_>
        <_>
          18 10 4 7 3.</_></rects>
      <tilted>0</tilted></_>
    <_>
      <rects>
        <_>
          14 16 10 20 -1.</_>
        <_>
          14 16 5 10 2.</_>
        <_>
          19 26 5 10 2.</_></rects>
      <tilted>0</tilted></_>
    <_>
      <rects>
        <_>
          14 17 1 15 -1.</_>
        <_>
          14 22 1 5 3.</_></rects>
      <tilted>0</tilted></_>
    <_>
      <rects>
        <_>
          14 17 3 8 -1.</_>
        <_>
          14 21 3 4 2.</_></rects>
      <tilted>0</tilted></_>
    <_>
      <rects>
        <_>
          14 20 4 6 -1.</_>
        <_>
          14 22 4 2 3.</_></rects>
      <tilted>0</tilted></_>
    <_>
      <rects>
        <_>
          14 21 7 3 -1.</_>
        <_>
          14 22 7 1 3.</_></rects>
      <tilted>0</tilted></_>
    <_>
      <rects>
        <_>
          14 23 4 3 -1.</_>
        <_>
          14 24 4 1 3.</_></rects>
      <tilted>0</tilted></_>
    <_>
      <rects>
        <_>
          14 29 12 16 -1.</_>
        <_>
          14 29 6 8 2.</_>
        <_>
          20 37 6 8 2.</_></rects>
      <tilted>0</tilted></_>
    <_>
      <rects>
        <_>
          14 29 17 18 -1.</_>
        <_>
          14 38 17 9 2.</_></rects>
      <tilted>0</tilted></_>
    <_>
      <rects>
        <_>
          14 30 10 8 -1.</_>
        <_>
          19 30 5 8 2.</_></rects>
      <tilted>0</tilted></_>
    <_>
      <rects>
        <_>
          14 44 14 1 -1.</_>
        <_>
          21 44 7 1 2.</_></rects>
      <tilted>0</tilted></_>
    <_>
      <rects>
        <_>
          15 0 9 41 -1.</_>
        <_>
          18 0 3 41 3.</_></rects>
      <tilted>0</tilted></_>
    <_>
      <rects>
        <_>
          15 6 4 10 -1.</_>
        <_>
          15 6 2 5 2.</_>
        <_>
          17 11 2 5 2.</_></rects>
      <tilted>0</tilted></_>
    <_>
      <rects>
        <_>
          15 7 12 18 -1.</_>
        <_>
          15 7 6 9 2.</_>
        <_>
          21 16 6 9 2.</_></rects>
      <tilted>0</tilted></_>
    <_>
      <rects>
        <_>
          15 10 3 3 -1.</_>
        <_>
          16 10 1 3 3.</_></rects>
      <tilted>0</tilted></_>
    <_>
      <rects>
        <_>
          15 16 6 2 -1.</_>
        <_>
          15 17 6 1 2.</_></rects>
      <tilted>0</tilted></_>
    <_>
      <rects>
        <_>
          15 21 6 6 -1.</_>
        <_>
          15 23 6 2 3.</_></rects>
      <tilted>0</tilted></_>
    <_>
      <rects>
        <_>
          15 22 2 9 -1.</_>
        <_>
          15 25 2 3 3.</_></rects>
      <tilted>0</tilted></_>
    <_>
      <rects>
        <_>
          15 22 14 10 -1.</_>
        <_>
          15 22 7 5 2.</_>
        <_>
          22 27 7 5 2.</_></rects>
      <tilted>0</tilted></_>
    <_>
      <rects>
        <_>
          15 24 16 4 -1.</_>
        <_>
          15 24 8 2 2.</_>
        <_>
          23 26 8 2 2.</_></rects>
      <tilted>0</tilted></_>
    <_>
      <rects>
        <_>
          15 25 2 2 -1.</_>
        <_>
          15 25 1 1 2.</_>
        <_>
          16 26 1 1 2.</_></rects>
      <tilted>0</tilted></_>
    <_>
      <rects>
        <_>
          15 27 10 2 -1.</_>
        <_>
          15 27 5 1 2.</_>
        <_>
          20 28 5 1 2.</_></rects>
      <tilted>0</tilted></_>
    <_>
      <rects>
        <_>
          15 28 6 5 -1.</_>
        <_>
          17 28 2 5 3.</_></rects>
      <tilted>0</tilted></_>
    <_>
      <rects>
        <_>
          15 30 10 8 -1.</_>
        <_>
          20 30 5 8 2.</_></rects>
      <tilted>0</tilted></_>
    <_>
      <rects>
        <_>
          15 38 20 3 -1.</_>
        <_>
          15 39 20 1 3.</_></rects>
      <tilted>0</tilted></_>
    <_>
      <rects>
        <_>
          16 2 26 14 -1.</_>
        <_>
          16 2 13 7 2.</_>
        <_>
          29 9 13 7 2.</_></rects>
      <tilted>0</tilted></_>
    <_>
      <rects>
        <_>
          16 18 4 9 -1.</_>
        <_>
          16 21 4 3 3.</_></rects>
      <tilted>0</tilted></_>
    <_>
      <rects>
        <_>
          16 20 12 28 -1.</_>
        <_>
          16 34 12 14 2.</_></rects>
      <tilted>0</tilted></_>
    <_>
      <rects>
        <_>
          16 22 6 12 -1.</_>
        <_>
          16 22 3 6 2.</_>
        <_>
          19 28 3 6 2.</_></rects>
      <tilted>0</tilted></_>
    <_>
      <rects>
        <_>
          16 22 8 4 -1.</_>
        <_>
          16 22 4 2 2.</_>
        <_>
          20 24 4 2 2.</_></rects>
      <tilted>0</tilted></_>
    <_>
      <rects>
        <_>
          16 23 9 1 -1.</_>
        <_>
          19 23 3 1 3.</_></rects>
      <tilted>0</tilted></_>
    <_>
      <rects>
        <_>
          17 10 6 22 -1.</_>
        <_>
          17 10 3 11 2.</_>
        <_>
          20 21 3 11 2.</_></rects>
      <tilted>0</tilted></_>
    <_>
      <rects>
        <_>
          17 12 4 32 -1.</_>
        <_>
          17 12 2 16 2.</_>
        <_>
          19 28 2 16 2.</_></rects>
      <tilted>0</tilted></_>
    <_>
      <rects>
        <_>
          17 16 9 3 -1.</_>
        <_>
          20 16 3 3 3.</_></rects>
      <tilted>0</tilted></_>
    <_>
      <rects>
        <_>
          17 20 2 9 -1.</_>
        <_>
          17 23 2 3 3.</_></rects>
      <tilted>0</tilted></_>
    <_>
      <rects>
        <_>
          17 23 14 2 -1.</_>
        <_>
          17 23 7 1 2.</_>
        <_>
          24 24 7 1 2.</_></rects>
      <tilted>0</tilted></_>
    <_>
      <rects>
        <_>
          17 29 6 4 -1.</_>
        <_>
          17 29 3 2 2.</_>
        <_>
          20 31 3 2 2.</_></rects>
      <tilted>0</tilted></_>
    <_>
      <rects>
        <_>
          17 29 6 9 -1.</_>
        <_>
          20 29 3 9 2.</_></rects>
      <tilted>0</tilted></_>
    <_>
      <rects>
        <_>
          18 1 30 46 -1.</_>
        <_>
          18 1 15 23 2.</_>
        <_>
          33 24 15 23 2.</_></rects>
      <tilted>0</tilted></_>
    <_>
      <rects>
        <_>
          18 12 6 7 -1.</_>
        <_>
          20 12 2 7 3.</_></rects>
      <tilted>0</tilted></_>
    <_>
      <rects>
        <_>
          18 17 16 5 -1.</_>
        <_>
          26 17 8 5 2.</_></rects>
      <tilted>0</tilted></_>
    <_>
      <rects>
        <_>
          18 30 2 1 -1.</_>
        <_>
          19 30 1 1 2.</_></rects>
      <tilted>0</tilted></_>
    <_>
      <rects>
        <_>
          18 35 10 2 -1.</_>
        <_>
          18 35 5 1 2.</_>
        <_>
          23 36 5 1 2.</_></rects>
      <tilted>0</tilted></_>
    <_>
      <rects>
        <_>
          18 40 2 8 -1.</_>
        <_>
          19 40 1 8 2.</_></rects>
      <tilted>0</tilted></_>
    <_>
      <rects>
        <_>
          18 43 18 5 -1.</_>
        <_>
          24 43 6 5 3.</_></rects>
      <tilted>0</tilted></_>
    <_>
      <rects>
        <_>
          18 45 9 2 -1.</_>
        <_>
          21 45 3 2 3.</_></rects>
      <tilted>0</tilted></_>
    <_>
      <rects>
        <_>
          19 0 15 48 -1.</_>
        <_>
          19 16 15 16 3.</_></rects>
      <tilted>0</tilted></_>
    <_>
      <rects>
        <_>
          19 1 6 30 -1.</_>
        <_>
          21 1 2 30 3.</_></rects>
      <tilted>0</tilted></_>
    <_>
      <rects>
        <_>
          19 2 6 18 -1.</_>
        <_>
          19 11 6 9 2.</_></rects>
      <tilted>0</tilted></_>
    <_>
      <rects>
        <_>
          19 2 14 2 -1.</_>
        <_>
          19 3 14 1 2.</_></rects>
      <tilted>0</tilted></_>
    <_>
      <rects>
        <_>
          19 7 8 38 -1.</_>
        <_>
          19 7 4 19 2.</_>
        <_>
          23 26 4 19 2.</_></rects>
      <tilted>0</tilted></_>
    <_>
      <rects>
        <_>
          19 10 2 3 -1.</_>
        <_>
          20 10 1 3 2.</_></rects>
      <tilted>0</tilted></_>
    <_>
      <rects>
        <_>
          19 12 15 8 -1.</_>
        <_>
          24 12 5 8 3.</_></rects>
      <tilted>0</tilted></_>
    <_>
      <rects>
        <_>
          19 15 6 2 -1.</_>
        <_>
          21 15 2 2 3.</_></rects>
      <tilted>0</tilted></_>
    <_>
      <rects>
        <_>
          19 25 2 3 -1.</_>
        <_>
          20 25 1 3 2.</_></rects>
      <tilted>0</tilted></_>
    <_>
      <rects>
        <_>
          19 28 18 8 -1.</_>
        <_>
          25 28 6 8 3.</_></rects>
      <tilted>0</tilted></_>
    <_>
      <rects>
        <_>
          19 32 6 9 -1.</_>
        <_>
          21 32 2 9 3.</_></rects>
      <tilted>0</tilted></_>
    <_>
      <rects>
        <_>
          20 7 12 13 -1.</_>
        <_>
          24 7 4 13 3.</_></rects>
      <tilted>0</tilted></_>
    <_>
      <rects>
        <_>
          20 7 15 8 -1.</_>
        <_>
          25 7 5 8 3.</_></rects>
      <tilted>0</tilted></_>
    <_>
      <rects>
        <_>
          20 11 22 34 -1.</_>
        <_>
          31 11 11 34 2.</_></rects>
      <tilted>0</tilted></_>
    <_>
      <rects>
        <_>
          20 16 15 1 -1.</_>
        <_>
          25 16 5 1 3.</_></rects>
      <tilted>0</tilted></_>
    <_>
      <rects>
        <_>
          20 19 28 8 -1.</_>
        <_>
          34 19 14 8 2.</_></rects>
      <tilted>0</tilted></_>
    <_>
      <rects>
        <_>
          20 20 3 2 -1.</_>
        <_>
          21 20 1 2 3.</_></rects>
      <tilted>0</tilted></_>
    <_>
      <rects>
        <_>
          20 21 6 16 -1.</_>
        <_>
          22 21 2 16 3.</_></rects>
      <tilted>0</tilted></_>
    <_>
      <rects>
        <_>
          20 22 4 3 -1.</_>
        <_>
          22 22 2 3 2.</_></rects>
      <tilted>0</tilted></_>
    <_>
      <rects>
        <_>
          20 23 4 1 -1.</_>
        <_>
          22 23 2 1 2.</_></rects>
      <tilted>0</tilted></_>
    <_>
      <rects>
        <_>
          20 30 2 4 -1.</_>
        <_>
          21 30 1 4 2.</_></rects>
      <tilted>0</tilted></_>
    <_>
      <rects>
        <_>
          20 44 12 3 -1.</_>
        <_>
          24 44 4 3 3.</_></rects>
      <tilted>0</tilted></_>
    <_>
      <rects>
        <_>
          21 2 10 16 -1.</_>
        <_>
          21 2 5 8 2.</_>
        <_>
          26 10 5 8 2.</_></rects>
      <tilted>0</tilted></_>
    <_>
      <rects>
        <_>
          21 12 2 10 -1.</_>
        <_>
          21 12 1 5 2.</_>
        <_>
          22 17 1 5 2.</_></rects>
      <tilted>0</tilted></_>
    <_>
      <rects>
        <_>
          21 12 3 9 -1.</_>
        <_>
