<?xml version="1.0"?>
<opencv_storage>
<cascade>
  <stageType>BOOST</stageType>
  <featureType>HAAR</featureType>
  <height>48</height>
  <width>48</width>
  <stageParams>
    <boostType>GAB</boostType>
    <minHitRate>9.9500000476837158e-01</minHitRate>
    <maxFalseAlarm>5.0000000000000000e-01</maxFalseAlarm>
    <weightTrimRate>9.4999999999999996e-01</weightTrimRate>
    <maxDepth>1</maxDepth>
    <maxWeakCount>100</maxWeakCount></stageParams>
  <featureParams>
    <maxCatCount>0</maxCatCount>
    <featSize>1</featSize>
    <mode>BASIC</mode></featureParams>
  <stageNum>10</stageNum>
  <stages>
    <!-- stage 0 -->
    <_>
      <maxWeakCount>6</maxWeakCount>
      <stageThreshold>-7.7340376377105713e-01</stageThreshold>
      <weakClassifiers>
        <_>
          <internalNodes>
            0 -1 37 -2.6284993509761989e-05</internalNodes>
          <leafValues>
            -5.7647061347961426e-01 6.0000002384185791e-01</leafValues></_>
        <_>
          <internalNodes>
            0 -1 11 -4.0826208889484406e-02</internalNodes>
          <leafValues>
            9.1615045070648193e-01 -2.0771384239196777e-01</leafValues></_>
        <_>
          <internalNodes>
            0 -1 44 -4.8092748329509050e-05</internalNodes>
          <leafValues>
            -6.8661743402481079e-01 3.2676675915718079e-01</leafValues></_>
        <_>
          <internalNodes>
            0 -1 35 2.5028772652149200e-03</internalNodes>
          <leafValues>
            -2.6160523295402527e-01 6.8793648481369019e-01</leafValues></_>
        <_>
          <internalNodes>
            0 -1 19 1.6444104403490201e-05</internalNodes>
          <leafValues>
            -5.5193883180618286e-01 3.4821358323097229e-01</leafValues></_>
        <_>
          <internalNodes>
            0 -1 51 1.1110870400443673e-04</internalNodes>
          <leafValues>
            2.7753835916519165e-01 -6.7891263961791992e-01</leafValues></_></weakClassifiers></_>
    <!-- stage 1 -->
    <_>
      <maxWeakCount>6</maxWeakCount>
      <stageThreshold>-3.9771476387977600e-01</stageThreshold>
      <weakClassifiers>
        <_>
          <internalNodes>
            0 -1 47 -4.5103210140950978e-05</internalNodes>
          <leafValues>
            -6.3636362552642822e-01 5.8865249156951904e-01</leafValues></_>
        <_>
          <internalNodes>
            0 -1 31 -2.2624235600233078e-02</internalNodes>
          <leafValues>
            7.4198454618453979e-01 -3.4356951713562012e-01</leafValues></_>
        <_>
          <internalNodes>
            0 -1 63 -9.7987651824951172e-03</internalNodes>
          <leafValues>
            7.1455609798431396e-01 -2.4037848412990570e-01</leafValues></_>
        <_>
          <internalNodes>
            0 -1 48 -5.5086431530071422e-05</internalNodes>
          <leafValues>
            -7.7829295396804810e-01 2.6019331812858582e-01</leafValues></_>
        <_>
          <internalNodes>
            0 -1 27 1.2242323464306537e-05</internalNodes>
          <leafValues>
            -6.0635262727737427e-01 2.7971723675727844e-01</leafValues></_>
        <_>
          <internalNodes>
            0 -1 55 5.8959685702575371e-05</internalNodes>
          <leafValues>
            2.8268626332283020e-01 -6.8201839923858643e-01</leafValues></_></weakClassifiers></_>
    <!-- stage 2 -->
    <_>
      <maxWeakCount>12</maxWeakCount>
      <stageThreshold>-4.1150727868080139e-01</stageThreshold>
      <weakClassifiers>
        <_>
          <internalNodes>
            0 -1 24 -1.9391212612390518e-02</internalNodes>
          <leafValues>
            9.4047617912292480e-01 1.2650603055953979e-01</leafValues></_>
        <_>
          <internalNodes>
            0 -1 29 -1.5056699048727751e-03</internalNodes>
          <leafValues>
            6.5704184770584106e-01 -1.5087807178497314e-01</leafValues></_>
        <_>
          <internalNodes>
            0 -1 65 1.3118132483214140e-03</internalNodes>
          <leafValues>
            -2.6261767745018005e-01 6.6263401508331299e-01</leafValues></_>
        <_>
          <internalNodes>
            0 -1 60 -3.5846635000780225e-05</internalNodes>
          <leafValues>
            -6.3857913017272949e-01 2.9552355408668518e-01</leafValues></_>
        <_>
          <internalNodes>
            0 -1 66 2.2759111016057432e-04</internalNodes>
          <leafValues>
            -3.0935159325599670e-01 6.2355142831802368e-01</leafValues></_>
        <_>
          <internalNodes>
            0 -1 8 -2.7303919196128845e-03</internalNodes>
          <leafValues>
            8.4842240810394287e-01 -1.5721893310546875e-01</leafValues></_>
        <_>
          <internalNodes>
            0 -1 38 1.2289563892409205e-03</internalNodes>
          <leafValues>
            -1.5082153677940369e-01 9.4594734907150269e-01</leafValues></_>
        <_>
          <internalNodes>
            0 -1 45 -2.3823433366487734e-05</internalNodes>
          <leafValues>
            -6.0276687145233154e-01 3.2212933897972107e-01</leafValues></_>
        <_>
          <internalNodes>
            0 -1 9 -4.0844557806849480e-03</internalNodes>
          <leafValues>
            8.5489809513092041e-01 -2.5181862711906433e-01</leafValues></_>
        <_>
          <internalNodes>
            0 -1 7 5.7307048700749874e-03</internalNodes>
          <leafValues>
            -2.2044251859188080e-01 7.0890110731124878e-01</leafValues></_>
        <_>
          <internalNodes>
            0 -1 64 7.8033888712525368e-03</internalNodes>
          <leafValues>
            -1.9197794795036316e-01 7.7522140741348267e-01</leafValues></_>
        <_>
          <internalNodes>
            0 -1 32 -3.9300673961406574e-05</internalNodes>
          <leafValues>
            5.3946071863174438e-01 -3.1668925285339355e-01</leafValues></_></weakClassifiers></_>
    <!-- stage 3 -->
    <_>
      <maxWeakCount>4</maxWeakCount>
      <stageThreshold>-1.9096858799457550e-01</stageThreshold>
      <weakClassifiers>
        <_>
          <internalNodes>
            0 -1 42 -5.9470228734426200e-05</internalNodes>
          <leafValues>
            -9.0476191043853760e-01 5.8810067176818848e-01</leafValues></_>
        <_>
          <internalNodes>
            0 -1 57 -7.1800837758928537e-05</internalNodes>
          <leafValues>
            -6.6570287942886353e-01 3.6294236779212952e-01</leafValues></_>
        <_>
          <internalNodes>
            0 -1 16 2.0843014121055603e-02</internalNodes>
          <leafValues>
            -3.3065155148506165e-01 6.6701340675354004e-01</leafValues></_>
        <_>
          <internalNodes>
            0 -1 46 -6.0837977798655629e-05</internalNodes>
          <leafValues>
            -8.1136006116867065e-01 2.7761930227279663e-01</leafValues></_></weakClassifiers></_>
    <!-- stage 4 -->
    <_>
      <maxWeakCount>8</maxWeakCount>
      <stageThreshold>-4.9919331073760986e-01</stageThreshold>
      <weakClassifiers>
        <_>
          <internalNodes>
            0 -1 61 -1.6438756138086319e-02</internalNodes>
          <leafValues>
            8.2400000095367432e-01 -2.4000000208616257e-02</leafValues></_>
        <_>
          <internalNodes>
            0 -1 43 -3.5361092159291729e-05</internalNodes>
          <leafValues>
            -7.3837953805923462e-01 3.4206652641296387e-01</leafValues></_>
        <_>
          <internalNodes>
            0 -1 23 2.8325150651653530e-06</internalNodes>
          <leafValues>
            -5.4174107313156128e-01 3.6987879872322083e-01</leafValues></_>
        <_>
          <internalNodes>
            0 -1 49 -5.2969357057008892e-05</internalNodes>
          <leafValues>
            -6.3394951820373535e-01 3.1352078914642334e-01</leafValues></_>
        <_>
          <internalNodes>
            0 -1 3 9.7395004704594612e-03</internalNodes>
          <leafValues>
            -2.8748530149459839e-01 8.0887019634246826e-01</leafValues></_>
        <_>
          <internalNodes>
            0 -1 17 2.3141104727983475e-02</internalNodes>
          <leafValues>
            -2.9437512159347534e-01 6.4568227529525757e-01</leafValues></_>
        <_>
          <internalNodes>
            0 -1 12 8.0296231317333877e-06</internalNodes>
          <leafValues>
            -4.4676271080970764e-01 4.6406751871109009e-01</leafValues></_>
        <_>
          <internalNodes>
            0 -1 28 6.8126065889373422e-04</internalNodes>
          <leafValues>
            -3.0242049694061279e-01 6.1694097518920898e-01</leafValues></_></weakClassifiers></_>
    <!-- stage 5 -->
    <_>
      <maxWeakCount>7</maxWeakCount>
      <stageThreshold>-8.0365151166915894e-01</stageThreshold>
      <weakClassifiers>
        <_>
          <internalNodes>
            0 -1 39 -1.2827926548197865e-04</internalNodes>
          <leafValues>
            -5.9459459781646729e-01 5.7276993989944458e-01</leafValues></_>
        <_>
          <internalNodes>
            0 -1 71 -8.8377129286527634e-03</internalNodes>
          <leafValues>
            7.4501842260360718e-01 -2.5819596648216248e-01</leafValues></_>
        <_>
          <internalNodes>
            0 -1 20 -1.7107550229411572e-04</internalNodes>
          <leafValues>
            -4.7800242900848389e-01 3.6962375044822693e-01</leafValues></_>
        <_>
          <internalNodes>
            0 -1 53 1.9462959608063102e-04</internalNodes>
          <leafValues>
            2.7569964528083801e-01 -5.4887211322784424e-01</leafValues></_>
        <_>
          <internalNodes>
            0 -1 1 4.8641311004757881e-03</internalNodes>
          <leafValues>
            -2.4650596082210541e-01 7.0594638586044312e-01</leafValues></_>
        <_>
          <internalNodes>
            0 -1 69 5.1700335461646318e-05</internalNodes>
          <leafValues>
            -3.0778032541275024e-01 5.7182854413986206e-01</leafValues></_>
        <_>
          <internalNodes>
            0 -1 21 8.7305324996123090e-06</internalNodes>
          <leafValues>
            -4.8951694369316101e-01 3.6167871952056885e-01</leafValues></_></weakClassifiers></_>
    <!-- stage 6 -->
    <_>
      <maxWeakCount>7</maxWeakCount>
      <stageThreshold>-2.6622542738914490e-01</stageThreshold>
      <weakClassifiers>
        <_>
          <internalNodes>
            0 -1 30 3.6227750115358504e-06</internalNodes>
          <leafValues>
            -2.6388889551162720e-01 6.6853934526443481e-01</leafValues></_>
        <_>
          <internalNodes>
            0 -1 25 1.1847842484712601e-02</internalNodes>
          <leafValues>
            -2.5526505708694458e-01 6.1777520179748535e-01</leafValues></_>
        <_>
          <internalNodes>
            0 -1 52 -5.0526927225291729e-05</internalNodes>
          <leafValues>
            -6.7161107063293457e-01 2.6590955257415771e-01</leafValues></_>
        <_>
          <internalNodes>
            0 -1 33 -7.4463440105319023e-03</internalNodes>
          <leafValues>
            6.6443884372711182e-01 -2.7368351817131042e-01</leafValues></_>
        <_>
          <internalNodes>
            0 -1 26 7.4800095717364457e-06</internalNodes>
          <leafValues>
            -3.2604208588600159e-01 5.3434598445892334e-01</leafValues></_>
        <_>
          <internalNodes>
            0 -1 50 -5.2589399274438620e-05</internalNodes>
          <leafValues>
            -8.6011004447937012e-01 1.7352183163166046e-01</leafValues></_>
        <_>
          <internalNodes>
            0 -1 4 2.0148206385783851e-04</internalNodes>
          <leafValues>
            -3.5921555757522583e-01 5.0200754404067993e-01</leafValues></_></weakClassifiers></_>
    <!-- stage 7 -->
    <_>
      <maxWeakCount>6</maxWeakCount>
      <stageThreshold>-4.1117691993713379e-01</stageThreshold>
      <weakClassifiers>
        <_>
          <internalNodes>
            0 -1 50 6.7797314841300249e-05</internalNodes>
          <leafValues>
            6.0784316062927246e-01 -5.2173912525177002e-01</leafValues></_>
        <_>
          <internalNodes>
            0 -1 0 2.9432868584990501e-02</internalNodes>
          <leafValues>
            -2.0304051041603088e-01 8.4923988580703735e-01</leafValues></_>
        <_>
          <internalNodes>
            0 -1 58 -7.6786547899246216e-02</internalNodes>
          <leafValues>
            7.5108146667480469e-01 -1.9025862216949463e-01</leafValues></_>
        <_>
          <internalNodes>
            0 -1 22 1.6951406723819673e-04</internalNodes>
          <leafValues>
            3.8906255364418030e-01 -4.9846014380455017e-01</leafValues></_>
        <_>
          <internalNodes>
            0 -1 10 -1.1553685908438638e-05</internalNodes>
          <leafValues>
            -4.0463480353355408e-01 4.2311671376228333e-01</leafValues></_>
        <_>
          <internalNodes>
            0 -1 15 2.5338836014270782e-02</internalNodes>
          <leafValues>
            -3.4690901637077332e-01 5.7920479774475098e-01</leafValues></_></weakClassifiers></_>
    <!-- stage 8 -->
    <_>
      <maxWeakCount>8</maxWeakCount>
      <stageThreshold>-2.2052229940891266e-01</stageThreshold>
      <weakClassifiers>
        <_>
          <internalNodes>
            0 -1 54 -9.7345560789108276e-05</internalNodes>
          <leafValues>
            -8.8235294818878174e-01 4.9356222152709961e-01</leafValues></_>
        <_>
          <internalNodes>
            0 -1 14 1.0562887787818909e-01</internalNodes>
          <leafValues>
            -1.4611338078975677e-01 9.1702657938003540e-01</leafValues></_>
        <_>
          <internalNodes>
            0 -1 6 2.8922292403876781e-03</internalNodes>
          <leafValues>
            -1.9582161307334900e-01 6.7714631557464600e-01</leafValues></_>
        <_>
          <internalNodes>
            0 -1 62 -1.1745110154151917e-02</internalNodes>
          <leafValues>
            6.6878992319107056e-01 -2.5009012222290039e-01</leafValues></_>
        <_>
          <internalNodes>
            0 -1 13 3.4679884265642613e-05</internalNodes>
          <leafValues>
            -4.7206592559814453e-01 3.4392008185386658e-01</leafValues></_>
        <_>
          <internalNodes>
            0 -1 18 1.7302602645941079e-04</internalNodes>
          <leafValues>
            3.3532086014747620e-01 -4.1047173738479614e-01</leafValues></_>
        <_>
          <internalNodes>
            0 -1 41 -2.7251955998508492e-06</internalNodes>
          <leafValues>
            5.3740084171295166e-01 -3.0636602640151978e-01</leafValues></_>
        <_>
          <internalNodes>
            0 -1 36 4.2653155105654150e-06</internalNodes>
          <leafValues>
            -4.8739039897918701e-01 3.2105165719985962e-01</leafValues></_></weakClassifiers></_>
    <!-- stage 9 -->
    <_>
      <maxWeakCount>9</maxWeakCount>
      <stageThreshold>-6.8952739238739014e-01</stageThreshold>
      <weakClassifiers>
        <_>
          <internalNodes>
            0 -1 56 6.7554421548265964e-05</internalNodes>
          <leafValues>
            5.9493672847747803e-01 -3.3333334326744080e-01</leafValues></_>
        <_>
          <internalNodes>
            0 -1 34 -2.5572409853339195e-02</internalNodes>
          <leafValues>
            5.0606441497802734e-01 -3.3515837788581848e-01</leafValues></_>
        <_>
          <internalNodes>
            0 -1 68 1.9517255714163184e-04</internalNodes>
          <leafValues>
            -2.0765805244445801e-01 7.8141552209854126e-01</leafValues></_>
        <_>
          <internalNodes>
            0 -1 67 -1.5778840752318501e-03</internalNodes>
          <leafValues>
            7.8200101852416992e-01 -2.1664196252822876e-01</leafValues></_>
        <_>
          <internalNodes>
            0 -1 59 4.1705963667482138e-05</internalNodes>
          <leafValues>
            3.4793621301651001e-01 -4.3072733283042908e-01</leafValues></_>
        <_>
          <internalNodes>
            0 -1 5 4.2406329885125160e-03</internalNodes>
          <leafValues>
            -2.5618582963943481e-01 6.5366435050964355e-01</leafValues></_>
        <_>
          <internalNodes>
            0 -1 2 3.6721974611282349e-03</internalNodes>
          <leafValues>
            -1.6238778829574585e-01 9.2925614118576050e-01</leafValues></_>
        <_>
          <internalNodes>
            0 -1 70 -6.1004533199593425e-04</internalNodes>
          <leafValues>
            7.5629580020904541e-01 -1.8574388325214386e-01</leafValues></_>
        <_>
          <internalNodes>
            0 -1 40 -7.8677385317860171e-06</internalNodes>
          <leafValues>
            4.9554482102394104e-01 -3.1276381015777588e-01</leafValues></_></weakClassifiers></_></stages>
  <features>
    <_>
      <rects>
        <_>
          0 26 36 5 -1.</_>
        <_>
          12 26 12 5 3.</_></rects>
      <tilted>0</tilted></_>
    <_>
      <rects>
        <_>
          3 14 12 10 -1.</_>
        <_>
          3 14 6 5 2.</_>
        <_>
          9 19 6 5 2.</_></rects>
      <tilted>0</tilted></_>
    <_>
      <rects>
        <_>
          4 11 20 6 -1.</_>
        <_>
          4 13 20 2 3.</_></rects>
      <tilted>0</tilted></_>
    <_>
      <rects>
        <_>
          5 22 15 25 -1.</_>
        <_>
          10 22 5 25 3.</_></rects>
      <tilted>0</tilted></_>
    <_>
      <rects>
        <_>
          5 31 40 2 -1.</_>
        <_>
          5 31 20 1 2.</_>
        <_>
          25 32 20 1 2.</_></rects>
      <tilted>0</tilted></_>
    <_>
      <rects>
        <_>
          6 14 34 4 -1.</_>
        <_>
          6 16 34 2 2.</_></rects>
      <tilted>0</tilted></_>
    <_>
      <rects>
        <_>
          7 6 30 4 -1.</_>
        <_>
          7 8 30 2 2.</_></rects>
      <tilted>0</tilted></_>
    <_>
      <rects>
        <_>
          7 17 24 8 -1.</_>
        <_>
          7 17 12 4 2.</_>
        <_>
          19 21 12 4 2.</_></rects>
      <tilted>0</tilted></_>
    <_>
      <rects>
        <_>
          8 19 4 6 -1.</_>
        <_>
          8 22 4 3 2.</_></rects>
      <tilted>0</tilted></_>
    <_>
      <rects>
        <_>
          9 18 22 6 -1.</_>
        <_>
          9 18 11 3 2.</_>
        <_>
          20 21 11 3 2.</_></rects>
      <tilted>0</tilted></_>
    <_>
      <rects>
        <_>
          10 25 4 1 -1.</_>
        <_>
          12 25 2 1 2.</_></rects>
      <tilted>0</tilted></_>
    <_>
      <rects>
        <_>
          11 12 22 28 -1.</_>
        <_>
          11 12 11 14 2.</_>
        <_>
          22 26 11 14 2.</_></rects>
      <tilted>0</tilted></_>
    <_>
      <rects>
        <_>
          11 26 4 2 -1.</_>
        <_>
          13 26 2 2 2.</_></rects>
      <tilted>0</tilted></_>
    <_>
      <rects>
        <_>
          11 27 6 5 -1.</_>
        <_>
          14 27 3 5 2.</_></rects>
      <tilted>0</tilted></_>
    <_>
      <rects>
        <_>
          12 9 36 14 -1.</_>
        <_>
          24 9 12 14 3.</_></rects>
      <tilted>0</tilted></_>
    <_>
      <rects>
        <_>
          12 24 26 13 -1.</_>
        <_>
          25 24 13 13 2.</_></rects>
      <tilted>0</tilted></_>
    <_>
      <rects>
        <_>
          12 28 36 18 -1.</_>
        <_>
          12 28 18 9 2.</_>
        <_>
          30 37 18 9 2.</_></rects>
      <tilted>0</tilted></_>
    <_>
      <rects>
        <_>
          13 8 26 32 -1.</_>
        <_>
          13 8 13 16 2.</_>
        <_>
          26 24 13 16 2.</_></rects>
      <tilted>0</tilted></_>
    <_>
      <rects>
        <_>
          13 27 4 4 -1.</_>
        <_>
          15 27 2 4 2.</_></rects>
      <tilted>0</tilted></_>
    <_>
      <rects>
        <_>
          13 29 10 1 -1.</_>
        <_>
          18 29 5 1 2.</_></rects>
      <tilted>0</tilted></_>
    <_>
      <rects>
        <_>
          14 27 5 4 -1.</_>
        <_>
          14 29 5 2 2.</_></rects>
      <tilted>0</tilted></_>
    <_>
      <rects>
        <_>
          14 28 4 2 -1.</_>
        <_>
          16 28 2 2 2.</_></rects>
      <tilted>0</tilted></_>
    <_>
      <rects>
        <_>
          14 28 12 1 -1.</_>
        <_>
          18 28 4 1 3.</_></rects>
      <tilted>0</tilted></_>
    <_>
      <rects>
        <_>
          14 29 4 2 -1.</_>
        <_>
          16 29 2 2 2.</_></rects>
      <tilted>0</tilted></_>
    <_>
      <rects>
        <_>
          15 17 20 16 -1.</_>
        <_>
          15 17 10 8 2.</_>
        <_>
          25 25 10 8 2.</_></rects>
      <tilted>0</tilted></_>
    <_>
      <rects>
        <_>
          16 1 19 16 -1.</_>
        <_>
          16 9 19 8 2.</_></rects>
      <tilted>0</tilted></_>
    <_>
      <rects>
        <_>
          16 25 22 2 -1.</_>
        <_>
          16 26 22 1 2.</_></rects>
      <tilted>0</tilted></_>
    <_>
      <rects>
        <_>
          16 28 6 3 -1.</_>
        <_>
          19 28 3 3 2.</_></rects>
      <tilted>0</tilted></_>
    <_>
      <rects>
        <_>
          17 11 4 12 -1.</_>
        <_>
          17 17 4 6 2.</_></rects>
      <tilted>0</tilted></_>
    <_>
      <rects>
        <_>
          18 28 6 16 -1.</_>
        <_>
          18 28 3 8 2.</_>
        <_>
          21 36 3 8 2.</_></rects>
      <tilted>0</tilted></_>
    <_>
      <rects>
        <_>
          19 21 6 4 -1.</_>
        <_>
          22 21 3 4 2.</_></rects>
      <tilted>0</tilted></_>
    <_>
      <rects>
        <_>
          19 23 12 20 -1.</_>
        <_>
          19 33 12 10 2.</_></rects>
      <tilted>0</tilted></_>
    <_>
      <rects>
        <_>
          19 24 9 6 -1.</_>
        <_>
          19 26 9 2 3.</_></rects>
      <tilted>0</tilted></_>
    <_>
      <rects>
        <_>
          19 26 10 19 -1.</_>
        <_>
          24 26 5 19 2.</_></rects>
      <tilted>0</tilted></_>
    <_>
      <rects>
        <_>
          20 18 9 30 -1.</_>
        <_>
          20 33 9 15 2.</_></rects>
      <tilted>0</tilted></_>
    <_>
      <rects>
        <_>
          20 25 14 8 -1.</_>
        <_>
          20 25 7 4 2.</_>
        <_>
          27 29 7 4 2.</_></rects>
      <tilted>0</tilted></_>
    <_>
      <rects>
        <_>
          21 21 6 3 -1.</_>
        <_>
          24 21 3 3 2.</_></rects>
      <tilted>0</tilted></_>
    <_>
      <rects>
        <_>
          21 24 4 1 -1.</_>
        <_>
          23 24 2 1 2.</_></rects>
      <tilted>0</tilted></_>
    <_>
      <rects>
        <_>
          22 8 8 4 -1.</_>
        <_>
          22 8 4 2 2.</_>
        <_>
          26 10 4 2 2.</_></rects>
      <tilted>0</tilted></_>
    <_>
      <rects>
        <_>
          22 24 3 3 -1.</_>
        <_>
          22 25 3 1 3.</_></rects>
      <tilted>0</tilted></_>
    <_>
      <rects>
        <_>
          22 28 5 3 -1.</_>
        <_>
          22 29 5 1 3.</_></rects>
      <tilted>0</tilted></_>
    <_>
      <rects>
        <_>
          24 20 3 4 -1.</_>
        <_>
          24 22 3 2 2.</_></rects>
      <tilted>0</tilted></_>
    <_>
      <rects>
        <_>
          24 21 2 2 -1.</_>
        <_>
          25 21 1 2 2.</_></rects>
      <tilted>0</tilted></_>
    <_>
      <rects>
        <_>
          24 22 2 2 -1.</_>
        <_>
          24 23 2 1 2.</_></rects>
      <tilted>0</tilted></_>
    <_>
      <rects>
        <_>
          24 23 4 2 -1.</_>
        <_>
          26 23 2 2 2.</_></rects>
      <tilted>0</tilted></_>
    <_>
      <rects>
        <_>
          24 24 2 2 -1.</_>
        <_>
          24 25 2 1 2.</_></rects>
      <tilted>0</tilted></_>
    <_>
      <rects>
        <_>
          25 19 1 4 -1.</_>
        <_>
          25 21 1 2 2.</_></rects>
      <tilted>0</tilted></_>
    <_>
      <rects>
        <_>
          25 21 1 4 -1.</_>
        <_>
          25 23 1 2 2.</_></rects>
      <tilted>0</tilted></_>
    <_>
      <rects>
        <_>
          25 21 4 1 -1.</_>
        <_>
          27 21 2 1 2.</_></rects>
      <tilted>0</tilted></_>
    <_>
      <rects>
        <_>
          25 24 1 4 -1.</_>
        <_>
          25 26 1 2 2.</_></rects>
      <tilted>0</tilted></_>
    <_>
      <rects>
        <_>
          26 19 2 2 -1.</_>
        <_>
          26 20 2 1 2.</_></rects>
      <tilted>0</tilted></_>
    <_>
      <rects>
        <_>
          26 19 4 2 -1.</_>
        <_>
          28 19 2 2 2.</_></rects>
      <tilted>0</tilted></_>
    <_>
      <rects>
        <_>
          26 20 1 6 -1.</_>
        <_>
          26 23 1 3 2.</_></rects>
      <tilted>0</tilted></_>
    <_>
      <rects>
        <_>
          27 17 2 6 -1.</_>
        <_>
          27 20 2 3 2.</_></rects>
      <tilted>0</tilted></_>
    <_>
      <rects>
        <_>
          27 18 1 3 -1.</_>
        <_>
          27 19 1 1 3.</_></rects>
      <tilted>0</tilted></_>
    <_>
      <rects>
        <_>
          27 19 2 4 -1.</_>
        <_>
          28 19 1 4 2.</_></rects>
      <tilted>0</tilted></_>
    <_>
      <rects>
        <_>
          27 19 2 4 -1.</_>
        <_>
          27 21 2 2 2.</_></rects>
      <tilted>0</tilted></_>
    <_>
      <rects>
        <_>
          27 20 2 4 -1.</_>
        <_>
          28 20 1 4 2.</_></rects>
      <tilted>0</tilted></_>
    <_>
      <rects>
        <_>
          28 8 20 27 -1.</_>
        <_>
          38 8 10 27 2.</_></rects>
      <tilted>0</tilted></_>
    <_>
      <rects>
        <_>
          28 16 2 4 -1.</_>
        <_>
          28 18 2 2 2.</_></rects>
      <tilted>0</tilted></_>
    <_>
      <rects>
        <_>
          28 17 1 4 -1.</_>
        <_>
          28 19 1 2 2.</_></rects>
      <tilted>0</tilted></_>
    <_>
      <rects>
        <_>
          30 6 18 19 -1.</_>
        <_>
          39 6 9 19 2.</_></rects>
      <tilted>0</tilted></_>
    <_>
      <rects>
        <_>
          31 4 8 18 -1.</_>
        <_>
          31 10 8 6 3.</_></rects>
      <tilted>0</tilted></_>
    <_>
      <rects>
        <_>
          31 4 16 18 -1.</_>
        <_>
          31 4 8 9 2.</_>
        <_>
          39 13 8 9 2.</_></rects>
      <tilted>0</tilted></_>
    <_>
      <rects>
        <_>
          31 16 16 12 -1.</_>
        <_>
          31 16 8 6 2.</_>
        <_>
          39 22 8 6 2.</_></rects>
      <tilted>0</tilted></_>
    <_>
      <rects>
        <_>
          32 14 10 6 -1.</_>
        <_>
          32 14 5 3 2.</_>
        <_>
          37 17 5 3 2.</_></rects>
      <tilted>0</tilted></_>
    <_>
      <rects>
        <_>
          32 22 10 2 -1.</_>
        <_>
          32 22 5 1 2.</_>
        <_>
          37 23 5 1 2.</_></rects>
      <tilted>0</tilted></_>
    <_>
      <rects>
        <_>
          34 22 10 4 -1.</_>
        <_>
          34 22 5 2 2.</_>
        <_>
          39 24 5 2 2.</_></rects>
      <tilted>0</tilted></_>
    <_>
      <rects>
        <_>
          36 23 6 2 -1.</_>
        <_>
          36 23 3 1 2.</_>
        <_>
          39 24 3 1 2.</_></rects>
      <tilted>0</tilted></_>
    <_>
      <rects>
        <_>
          37 17 2 9 -1.</_>
        <_>
          38 17 1 9 2.</_></rects>
      <tilted>0</tilted></_>
    <_>
      <rects>
        <_>
          37 18 6 4 -1.</_>
        <_>
          37 18 3 2 2.</_>
        <_>
          40 20 3 2 2.</_></rects>
      <tilted>0</tilted></_>
    <_>
      <rects>
        <_>
          38 18 10 16 -1.</_>
        <_>
          43 18 5 16 2.</_></rects>
      <tilted>0</tilted></_></features></cascade>
</opencv_storage>
