<?xml version="1.0"?>
<opencv_storage>
<cascade>
  <stageType>BOOST</stageType>
  <featureType>HAAR</featureType>
  <height>48</height>
  <width>48</width>
  <stageParams>
    <boostType>GAB</boostType>
    <minHitRate>9.9500000476837158e-01</minHitRate>
    <maxFalseAlarm>5.0000000000000000e-01</maxFalseAlarm>
    <weightTrimRate>9.4999999999999996e-01</weightTrimRate>
    <maxDepth>1</maxDepth>
    <maxWeakCount>100</maxWeakCount></stageParams>
  <featureParams>
    <maxCatCount>0</maxCatCount>
    <featSize>1</featSize>
    <mode>BASIC</mode></featureParams>
  <stageNum>15</stageNum>
  <stages>
    <!-- stage 0 -->
    <_>
      <maxWeakCount>6</maxWeakCount>
      <stageThreshold>-1.2407419681549072e+00</stageThreshold>
      <weakClassifiers>
        <_>
          <internalNodes>
            0 -1 63 8.3379056304693222e-03</internalNodes>
          <leafValues>
            -7.1084338426589966e-01 5.1351350545883179e-01</leafValues></_>
        <_>
          <internalNodes>
            0 -1 23 3.1464564381167293e-04</internalNodes>
          <leafValues>
            2.5923866033554077e-01 -9.7265684604644775e-01</leafValues></_>
        <_>
          <internalNodes>
            0 -1 13 -3.2705739140510559e-03</internalNodes>
          <leafValues>
            7.5196319818496704e-01 -4.6636942028999329e-01</leafValues></_>
        <_>
          <internalNodes>
            0 -1 31 -9.4276033341884613e-03</internalNodes>
          <leafValues>
            5.2862566709518433e-01 -5.8537554740905762e-01</leafValues></_>
        <_>
          <internalNodes>
            0 -1 77 -3.3839603420346975e-03</internalNodes>
          <leafValues>
            7.1621590852737427e-01 -4.6619984507560730e-01</leafValues></_>
        <_>
          <internalNodes>
            0 -1 4 -1.7620371654629707e-03</internalNodes>
          <leafValues>
            7.7087587118148804e-01 -3.8519364595413208e-01</leafValues></_></weakClassifiers></_>
    <!-- stage 1 -->
    <_>
      <maxWeakCount>3</maxWeakCount>
      <stageThreshold>-6.4876556396484375e-01</stageThreshold>
      <weakClassifiers>
        <_>
          <internalNodes>
            0 -1 39 -1.7316935554845259e-05</internalNodes>
          <leafValues>
            -8.8844621181488037e-01 6.5902575850486755e-02</leafValues></_>
        <_>
          <internalNodes>
            0 -1 39 1.1202597306692041e-05</internalNodes>
          <leafValues>
            2.4421413242816925e-01 -9.5044666528701782e-01</leafValues></_>
        <_>
          <internalNodes>
            0 -1 55 1.7990729247685522e-05</internalNodes>
          <leafValues>
            2.3577855527400970e-01 -9.1357576847076416e-01</leafValues></_></weakClassifiers></_>
    <!-- stage 2 -->
    <_>
      <maxWeakCount>4</maxWeakCount>
      <stageThreshold>-1.3030816316604614e+00</stageThreshold>
      <weakClassifiers>
        <_>
          <internalNodes>
            0 -1 55 -1.1521029591676779e-05</internalNodes>
          <leafValues>
            -9.3209874629974365e-01 3.6956521868705750e-01</leafValues></_>
        <_>
          <internalNodes>
            0 -1 78 2.7509673964232206e-03</internalNodes>
          <leafValues>
            -4.9867236614227295e-01 7.8478771448135376e-01</leafValues></_>
        <_>
          <internalNodes>
            0 -1 42 2.6295310817658901e-03</internalNodes>
          <leafValues>
            -6.6113317012786865e-01 4.6457272768020630e-01</leafValues></_>
        <_>
          <internalNodes>
            0 -1 7 -2.9261880554258823e-03</internalNodes>
          <leafValues>
            7.8882259130477905e-01 -4.3471926450729370e-01</leafValues></_></weakClassifiers></_>
    <!-- stage 3 -->
    <_>
      <maxWeakCount>6</maxWeakCount>
      <stageThreshold>-7.5273919105529785e-01</stageThreshold>
      <weakClassifiers>
        <_>
          <internalNodes>
            0 -1 55 -3.0116636480670422e-05</internalNodes>
          <leafValues>
            -9.4092828035354614e-01 6.3360884785652161e-02</leafValues></_>
        <_>
          <internalNodes>
            0 -1 32 2.4028844200074673e-03</internalNodes>
          <leafValues>
            -7.6087051630020142e-01 3.0558094382286072e-01</leafValues></_>
        <_>
          <internalNodes>
            0 -1 2 -4.4216357171535492e-02</internalNodes>
          <leafValues>
            7.7885824441909790e-01 -3.9668816328048706e-01</leafValues></_>
        <_>
          <internalNodes>
            0 -1 1 1.2007249519228935e-02</internalNodes>
          <leafValues>
            -4.4280177354812622e-01 6.2233275175094604e-01</leafValues></_>
        <_>
          <internalNodes>
            0 -1 28 8.6542087956331670e-05</internalNodes>
          <leafValues>
            2.9836973547935486e-01 -8.9334791898727417e-01</leafValues></_>
        <_>
          <internalNodes>
            0 -1 81 5.3612806368619204e-04</internalNodes>
          <leafValues>
            -4.4288194179534912e-01 6.1247378587722778e-01</leafValues></_></weakClassifiers></_>
    <!-- stage 4 -->
    <_>
      <maxWeakCount>7</maxWeakCount>
      <stageThreshold>-1.6026779413223267e+00</stageThreshold>
      <weakClassifiers>
        <_>
          <internalNodes>
            0 -1 34 -4.8053446225821972e-03</internalNodes>
          <leafValues>
            9.1503269970417023e-02 -7.7551019191741943e-01</leafValues></_>
        <_>
          <internalNodes>
            0 -1 41 3.5506534914020449e-05</internalNodes>
          <leafValues>
            2.3382066190242767e-01 -8.6845040321350098e-01</leafValues></_>
        <_>
          <internalNodes>
            0 -1 19 -1.1008468456566334e-02</internalNodes>
          <leafValues>
            -9.8410362005233765e-01 1.6976132988929749e-01</leafValues></_>
        <_>
          <internalNodes>
            0 -1 83 -1.7640353180468082e-03</internalNodes>
          <leafValues>
            6.8368285894393921e-01 -3.6932796239852905e-01</leafValues></_>
        <_>
          <internalNodes>
            0 -1 22 8.0082677304744720e-03</internalNodes>
          <leafValues>
            3.0783450603485107e-01 -8.9531219005584717e-01</leafValues></_>
        <_>
          <internalNodes>
            0 -1 76 1.6854714602231979e-02</internalNodes>
          <leafValues>
            -4.1315439343452454e-01 7.3376101255416870e-01</leafValues></_>
        <_>
          <internalNodes>
            0 -1 38 -3.9435741200577468e-05</internalNodes>
          <leafValues>
            -7.1715289354324341e-01 3.4616920351982117e-01</leafValues></_></weakClassifiers></_>
    <!-- stage 5 -->
    <_>
      <maxWeakCount>4</maxWeakCount>
      <stageThreshold>-9.8897635936737061e-01</stageThreshold>
      <weakClassifiers>
        <_>
          <internalNodes>
            0 -1 52 -5.7525077136233449e-04</internalNodes>
          <leafValues>
            6.3157892227172852e-01 -6.6071426868438721e-01</leafValues></_>
        <_>
          <internalNodes>
            0 -1 57 -5.3903856314718723e-04</internalNodes>
          <leafValues>
            6.9298565387725830e-01 -5.0979423522949219e-01</leafValues></_>
        <_>
          <internalNodes>
            0 -1 64 -5.8756791986525059e-04</internalNodes>
          <leafValues>
            7.3633432388305664e-01 -4.6245628595352173e-01</leafValues></_>
        <_>
          <internalNodes>
            0 -1 62 -1.4823026140220463e-04</internalNodes>
          <leafValues>
            6.4398843050003052e-01 -5.0963318347930908e-01</leafValues></_></weakClassifiers></_>
    <!-- stage 6 -->
    <_>
      <maxWeakCount>7</maxWeakCount>
      <stageThreshold>-1.0142602920532227e+00</stageThreshold>
      <weakClassifiers>
        <_>
          <internalNodes>
            0 -1 8 -4.6355170197784901e-03</internalNodes>
          <leafValues>
            5.2941179275512695e-01 -5.4677754640579224e-01</leafValues></_>
        <_>
          <internalNodes>
            0 -1 59 3.4020355087704957e-05</internalNodes>
          <leafValues>
            2.3805683851242065e-01 -8.8048589229583740e-01</leafValues></_>
        <_>
          <internalNodes>
            0 -1 33 -4.4909985736012459e-03</internalNodes>
          <leafValues>
            6.8352353572845459e-01 -3.8796702027320862e-01</leafValues></_>
        <_>
          <internalNodes>
            0 -1 35 2.2389649529941380e-05</internalNodes>
          <leafValues>
            2.9989153146743774e-01 -8.5463833808898926e-01</leafValues></_>
        <_>
          <internalNodes>
            0 -1 45 -3.0495284590870142e-05</internalNodes>
          <leafValues>
            -8.5844069719314575e-01 2.5563788414001465e-01</leafValues></_>
        <_>
          <internalNodes>
            0 -1 14 -2.0399743225425482e-03</internalNodes>
          <leafValues>
            6.4636474847793579e-01 -3.9871025085449219e-01</leafValues></_>
        <_>
          <internalNodes>
            0 -1 27 -5.1250644028186798e-03</internalNodes>
          <leafValues>
            7.2828704118728638e-01 -3.1788471341133118e-01</leafValues></_></weakClassifiers></_>
    <!-- stage 7 -->
    <_>
      <maxWeakCount>3</maxWeakCount>
      <stageThreshold>-5.9649497270584106e-01</stageThreshold>
      <weakClassifiers>
        <_>
          <internalNodes>
            0 -1 67 -4.4809919199906290e-04</internalNodes>
          <leafValues>
            2.1658986806869507e-01 -6.4490860700607300e-01</leafValues></_>
        <_>
          <internalNodes>
            0 -1 20 -9.6347313374280930e-03</internalNodes>
          <leafValues>
            -9.7006541490554810e-01 1.7395843565464020e-01</leafValues></_>
        <_>
          <internalNodes>
            0 -1 36 1.3590628281235695e-02</internalNodes>
          <leafValues>
            2.0381592214107513e-01 -9.8704326152801514e-01</leafValues></_></weakClassifiers></_>
    <!-- stage 8 -->
    <_>
      <maxWeakCount>6</maxWeakCount>
      <stageThreshold>-1.4372277259826660e+00</stageThreshold>
      <weakClassifiers>
        <_>
          <internalNodes>
            0 -1 56 -1.3927900909038726e-05</internalNodes>
          <leafValues>
            -9.5215308666229248e-01 -2.5575447361916304e-03</leafValues></_>
        <_>
          <internalNodes>
            0 -1 56 2.0594448869815096e-05</internalNodes>
          <leafValues>
            2.3471218347549438e-01 -8.8695567846298218e-01</leafValues></_>
        <_>
          <internalNodes>
            0 -1 47 -2.2777925551054068e-05</internalNodes>
          <leafValues>
            -7.9539233446121216e-01 2.1860320866107941e-01</leafValues></_>
        <_>
          <internalNodes>
            0 -1 56 -2.0638704882003367e-05</internalNodes>
          <leafValues>
            -8.4404438734054565e-01 2.5983214378356934e-01</leafValues></_>
        <_>
          <internalNodes>
            0 -1 80 3.8711915258318186e-03</internalNodes>
          <leafValues>
            -4.0317687392234802e-01 6.6037899255752563e-01</leafValues></_>
        <_>
          <internalNodes>
            0 -1 49 5.4879201343283057e-05</internalNodes>
          <leafValues>
            3.0883124470710754e-01 -8.3852565288543701e-01</leafValues></_></weakClassifiers></_>
    <!-- stage 9 -->
    <_>
      <maxWeakCount>6</maxWeakCount>
      <stageThreshold>-8.5049372911453247e-01</stageThreshold>
      <weakClassifiers>
        <_>
          <internalNodes>
            0 -1 3 2.7378277853131294e-02</internalNodes>
          <leafValues>
            -5.2631580829620361e-01 5.6603771448135376e-01</leafValues></_>
        <_>
          <internalNodes>
            0 -1 44 -6.0676204157061875e-05</internalNodes>
          <leafValues>
            -8.2370358705520630e-01 2.1240456402301788e-01</leafValues></_>
        <_>
          <internalNodes>
            0 -1 79 -5.9339794097468257e-04</internalNodes>
          <leafValues>
            4.6680200099945068e-01 -4.2366263270378113e-01</leafValues></_>
        <_>
          <internalNodes>
            0 -1 40 3.1270974432118237e-05</internalNodes>
          <leafValues>
            3.0283972620964050e-01 -7.1962100267410278e-01</leafValues></_>
        <_>
          <internalNodes>
            0 -1 70 -2.1895752070122398e-05</internalNodes>
          <leafValues>
            4.0211182832717896e-01 -5.1427221298217773e-01</leafValues></_>
        <_>
          <internalNodes>
            0 -1 37 -6.7197587341070175e-03</internalNodes>
          <leafValues>
            -9.3115162849426270e-01 2.4415612220764160e-01</leafValues></_></weakClassifiers></_>
    <!-- stage 10 -->
    <_>
      <maxWeakCount>7</maxWeakCount>
      <stageThreshold>-8.5893076658248901e-01</stageThreshold>
      <weakClassifiers>
        <_>
          <internalNodes>
            0 -1 73 1.2890582438558340e-03</internalNodes>
          <leafValues>
            -6.3456791639328003e-01 2.9230770468711853e-01</leafValues></_>
        <_>
          <internalNodes>
            0 -1 18 -1.2559274910017848e-03</internalNodes>
          <leafValues>
            3.5501921176910400e-01 -4.7498998045921326e-01</leafValues></_>
        <_>
          <internalNodes>
            0 -1 15 -7.7909271567477845e-06</internalNodes>
          <leafValues>
            5.1357030868530273e-01 -3.4539958834648132e-01</leafValues></_>
        <_>
          <internalNodes>
            0 -1 21 -6.2038321048021317e-03</internalNodes>
          <leafValues>
            -8.2596492767333984e-01 2.4738956987857819e-01</leafValues></_>
        <_>
          <internalNodes>
            0 -1 16 -1.0199113748967648e-03</internalNodes>
          <leafValues>
            3.7575230002403259e-01 -5.4126530885696411e-01</leafValues></_>
        <_>
          <internalNodes>
            0 -1 30 7.1821091696619987e-03</internalNodes>
          <leafValues>
            -4.3919241428375244e-01 4.8782724142074585e-01</leafValues></_>
        <_>
          <internalNodes>
            0 -1 82 2.7106795459985733e-04</internalNodes>
          <leafValues>
            -3.5127213597297668e-01 4.9908563494682312e-01</leafValues></_></weakClassifiers></_>
    <!-- stage 11 -->
    <_>
      <maxWeakCount>8</maxWeakCount>
      <stageThreshold>-1.0731568336486816e+00</stageThreshold>
      <weakClassifiers>
        <_>
          <internalNodes>
            0 -1 60 -1.0136773809790611e-02</internalNodes>
          <leafValues>
            2.5654450058937073e-01 -6.0880196094512939e-01</leafValues></_>
        <_>
          <internalNodes>
            0 -1 75 6.9568865001201630e-03</internalNodes>
          <leafValues>
            -3.1620338559150696e-01 6.3610523939132690e-01</leafValues></_>
        <_>
          <internalNodes>
            0 -1 54 2.6525211069383658e-05</internalNodes>
          <leafValues>
            2.3813225328922272e-01 -8.3913755416870117e-01</leafValues></_>
        <_>
          <internalNodes>
            0 -1 11 1.5882615698501468e-03</internalNodes>
          <leafValues>
            -3.9292982220649719e-01 5.6508034467697144e-01</leafValues></_>
        <_>
          <internalNodes>
            0 -1 66 -3.5405508242547512e-04</internalNodes>
          <leafValues>
            5.4657298326492310e-01 -4.0196877717971802e-01</leafValues></_>
        <_>
          <internalNodes>
            0 -1 53 -4.3164254166185856e-03</internalNodes>
          <leafValues>
            6.8986237049102783e-01 -3.2127261161804199e-01</leafValues></_>
        <_>
          <internalNodes>
            0 -1 61 1.1485084891319275e-02</internalNodes>
          <leafValues>
            2.4660581350326538e-01 -8.6490678787231445e-01</leafValues></_>
        <_>
          <internalNodes>
            0 -1 17 3.3012698404490948e-03</internalNodes>
          <leafValues>
            -3.3343133330345154e-01 6.4625257253646851e-01</leafValues></_></weakClassifiers></_>
    <!-- stage 12 -->
    <_>
      <maxWeakCount>8</maxWeakCount>
      <stageThreshold>-8.9968919754028320e-01</stageThreshold>
      <weakClassifiers>
        <_>
          <internalNodes>
            0 -1 68 1.2940686196088791e-02</internalNodes>
          <leafValues>
            -5.1983296871185303e-01 4.0495866537094116e-01</leafValues></_>
        <_>
          <internalNodes>
            0 -1 48 -1.3268012553453445e-02</internalNodes>
          <leafValues>
            -8.3592724800109863e-01 1.9653476774692535e-01</leafValues></_>
        <_>
          <internalNodes>
            0 -1 5 2.7247918769717216e-03</internalNodes>
          <leafValues>
            -5.9843003749847412e-01 2.6060402393341064e-01</leafValues></_>
        <_>
          <internalNodes>
            0 -1 26 4.9778653192333877e-05</internalNodes>
          <leafValues>
            1.9943286478519440e-01 -8.3467388153076172e-01</leafValues></_>
        <_>
          <internalNodes>
            0 -1 6 -4.1685448959469795e-03</internalNodes>
          <leafValues>
            6.1269789934158325e-01 -3.3946716785430908e-01</leafValues></_>
        <_>
          <internalNodes>
            0 -1 25 -1.0075114667415619e-02</internalNodes>
          <leafValues>
            -1. 2.0226086676120758e-01</leafValues></_>
        <_>
          <internalNodes>
            0 -1 12 -1.5949545195326209e-03</internalNodes>
          <leafValues>
            5.9136372804641724e-01 -3.5097554326057434e-01</leafValues></_>
        <_>
          <internalNodes>
            0 -1 29 -8.6058839224278927e-04</internalNodes>
          <leafValues>
            4.8421597480773926e-01 -4.7636145353317261e-01</leafValues></_></weakClassifiers></_>
    <!-- stage 13 -->
    <_>
      <maxWeakCount>8</maxWeakCount>
      <stageThreshold>-1.2606519460678101e+00</stageThreshold>
      <weakClassifiers>
        <_>
          <internalNodes>
            0 -1 69 -1.5759818255901337e-02</internalNodes>
          <leafValues>
            3.4751772880554199e-01 -5.4248368740081787e-01</leafValues></_>
        <_>
          <internalNodes>
            0 -1 43 -4.7793681733310223e-03</internalNodes>
          <leafValues>
            -9.4259417057037354e-01 1.3024131953716278e-01</leafValues></_>
        <_>
          <internalNodes>
            0 -1 65 -1.9376273849047720e-04</internalNodes>
          <leafValues>
            3.6190715432167053e-01 -5.1935821771621704e-01</leafValues></_>
        <_>
          <internalNodes>
            0 -1 9 8.5778692737221718e-03</internalNodes>
          <leafValues>
            -3.0400052666664124e-01 6.2607413530349731e-01</leafValues></_>
        <_>
          <internalNodes>
            0 -1 10 -3.4875590354204178e-03</internalNodes>
          <leafValues>
            5.8154088258743286e-01 -2.7471148967742920e-01</leafValues></_>
        <_>
          <internalNodes>
            0 -1 51 2.6484160116524436e-05</internalNodes>
          <leafValues>
            2.5572973489761353e-01 -7.9094511270523071e-01</leafValues></_>
        <_>
          <internalNodes>
            0 -1 74 -6.2242061176220886e-06</internalNodes>
          <leafValues>
            4.6804505586624146e-01 -4.3764936923980713e-01</leafValues></_>
        <_>
          <internalNodes>
            0 -1 50 -1.6986103219096549e-05</internalNodes>
          <leafValues>
            4.3158030509948730e-01 -4.4420820474624634e-01</leafValues></_></weakClassifiers></_>
    <!-- stage 14 -->
    <_>
      <maxWeakCount>7</maxWeakCount>
      <stageThreshold>-8.1427043676376343e-01</stageThreshold>
      <weakClassifiers>
        <_>
          <internalNodes>
            0 -1 46 -6.4571929397061467e-04</internalNodes>
          <leafValues>
            8.9494161307811737e-02 -6.5014576911926270e-01</leafValues></_>
        <_>
          <internalNodes>
            0 -1 72 -4.0293127298355103e-02</internalNodes>
          <leafValues>
            7.5185358524322510e-01 -2.4194577336311340e-01</leafValues></_>
        <_>
          <internalNodes>
            0 -1 58 2.1211642888374627e-05</internalNodes>
          <leafValues>
            1.8714790046215057e-01 -9.0130829811096191e-01</leafValues></_>
        <_>
          <internalNodes>
            0 -1 71 3.0771723231737269e-06</internalNodes>
          <leafValues>
            -4.0643775463104248e-01 3.7006768584251404e-01</leafValues></_>
        <_>
          <internalNodes>
            0 -1 24 1.4304152689874172e-02</internalNodes>
          <leafValues>
            1.7606429755687714e-01 -8.7494695186614990e-01</leafValues></_>
        <_>
          <internalNodes>
            0 -1 0 -1.1134514585137367e-02</internalNodes>
          <leafValues>
            5.0455784797668457e-01 -3.1656599044799805e-01</leafValues></_>
        <_>
          <internalNodes>
            0 -1 84 -6.7302539719094057e-06</internalNodes>
          <leafValues>
            5.3818064928054810e-01 -2.8168088197708130e-01</leafValues></_></weakClassifiers></_></stages>
  <features>
    <_>
      <rects>
        <_>
          0 7 18 12 -1.</_>
        <_>
          0 7 9 6 2.</_>
        <_>
          9 13 9 6 2.</_></rects>
      <tilted>0</tilted></_>
    <_>
      <rects>
        <_>
          0 10 18 29 -1.</_>
        <_>
          6 10 6 29 3.</_></rects>
      <tilted>0</tilted></_>
    <_>
      <rects>
        <_>
          1 10 20 31 -1.</_>
        <_>
          11 10 10 31 2.</_></rects>
      <tilted>0</tilted></_>
    <_>
      <rects>
        <_>
          1 31 20 16 -1.</_>
        <_>
          1 31 10 8 2.</_>
        <_>
          11 39 10 8 2.</_></rects>
      <tilted>0</tilted></_>
    <_>
      <rects>
        <_>
          2 23 6 3 -1.</_>
        <_>
          4 23 2 3 3.</_></rects>
      <tilted>0</tilted></_>
    <_>
      <rects>
        <_>
          3 18 42 12 -1.</_>
        <_>
          3 22 42 4 3.</_></rects>
      <tilted>0</tilted></_>
    <_>
      <rects>
        <_>
          3 19 6 11 -1.</_>
        <_>
          5 19 2 11 3.</_></rects>
      <tilted>0</tilted></_>
    <_>
      <rects>
        <_>
          3 21 6 5 -1.</_>
        <_>
          5 21 2 5 3.</_></rects>
      <tilted>0</tilted></_>
    <_>
      <rects>
        <_>
          4 10 8 10 -1.</_>
        <_>
          4 10 4 5 2.</_>
        <_>
          8 15 4 5 2.</_></rects>
      <tilted>0</tilted></_>
    <_>
      <rects>
        <_>
          4 26 10 12 -1.</_>
        <_>
          4 26 5 6 2.</_>
        <_>
          9 32 5 6 2.</_></rects>
      <tilted>0</tilted></_>
    <_>
      <rects>
        <_>
          5 27 8 8 -1.</_>
        <_>
          5 27 4 4 2.</_>
        <_>
          9 31 4 4 2.</_></rects>
      <tilted>0</tilted></_>
    <_>
      <rects>
        <_>
          6 15 6 8 -1.</_>
        <_>
          6 15 3 4 2.</_>
        <_>
          9 19 3 4 2.</_></rects>
      <tilted>0</tilted></_>
    <_>
      <rects>
        <_>
          6 22 6 5 -1.</_>
        <_>
          8 22 2 5 3.</_></rects>
      <tilted>0</tilted></_>
    <_>
      <rects>
        <_>
          6 22 6 10 -1.</_>
        <_>
          6 22 3 5 2.</_>
        <_>
          9 27 3 5 2.</_></rects>
      <tilted>0</tilted></_>
    <_>
      <rects>
        <_>
          6 25 6 8 -1.</_>
        <_>
          6 25 3 4 2.</_>
        <_>
          9 29 3 4 2.</_></rects>
      <tilted>0</tilted></_>
    <_>
      <rects>
        <_>
          7 32 2 4 -1.</_>
        <_>
          7 32 1 2 2.</_>
        <_>
          8 34 1 2 2.</_></rects>
      <tilted>0</tilted></_>
    <_>
      <rects>
        <_>
          9 12 27 7 -1.</_>
        <_>
          18 12 9 7 3.</_></rects>
      <tilted>0</tilted></_>
    <_>
      <rects>
        <_>
          10 9 2 12 -1.</_>
        <_>
          10 13 2 4 3.</_></rects>
      <tilted>0</tilted></_>
    <_>
      <rects>
        <_>
          10 27 15 10 -1.</_>
        <_>
          15 27 5 10 3.</_></rects>
      <tilted>0</tilted></_>
    <_>
      <rects>
        <_>
          11 15 20 15 -1.</_>
        <_>
          21 15 10 15 2.</_></rects>
      <tilted>0</tilted></_>
    <_>
      <rects>
        <_>
          12 15 26 17 -1.</_>
        <_>
          25 15 13 17 2.</_></rects>
      <tilted>0</tilted></_>
    <_>
      <rects>
        <_>
          12 20 18 6 -1.</_>
        <_>
          18 20 6 6 3.</_></rects>
      <tilted>0</tilted></_>
    <_>
      <rects>
        <_>
          13 17 14 18 -1.</_>
        <_>
          20 17 7 18 2.</_></rects>
      <tilted>0</tilted></_>
    <_>
      <rects>
        <_>
          14 30 21 4 -1.</_>
        <_>
          21 30 7 4 3.</_></rects>
      <tilted>0</tilted></_>
    <_>
      <rects>
        <_>
          15 16 16 15 -1.</_>
        <_>
          23 16 8 15 2.</_></rects>
      <tilted>0</tilted></_>
    <_>
      <rects>
        <_>
          16 12 15 11 -1.</_>
        <_>
          21 12 5 11 3.</_></rects>
      <tilted>0</tilted></_>
    <_>
      <rects>
        <_>
          16 16 15 1 -1.</_>
        <_>
          21 16 5 1 3.</_></rects>
      <tilted>0</tilted></_>
    <_>
      <rects>
        <_>
          16 22 18 6 -1.</_>
        <_>
          16 22 9 3 2.</_>
        <_>
          25 25 9 3 2.</_></rects>
      <tilted>0</tilted></_>
    <_>
      <rects>
        <_>
          17 16 9 2 -1.</_>
        <_>
          20 16 3 2 3.</_></rects>
      <tilted>0</tilted></_>
    <_>
      <rects>
        <_>
          17 17 4 16 -1.</_>
        <_>
          19 17 2 16 2.</_></rects>
      <tilted>0</tilted></_>
    <_>
      <rects>
        <_>
          17 22 30 6 -1.</_>
        <_>
          27 22 10 6 3.</_></rects>
      <tilted>0</tilted></_>
    <_>
      <rects>
        <_>
          18 6 13 18 -1.</_>
        <_>
          18 12 13 6 3.</_></rects>
      <tilted>0</tilted></_>
    <_>
      <rects>
        <_>
          18 15 14 10 -1.</_>
        <_>
          18 20 14 5 2.</_></rects>
      <tilted>0</tilted></_>
    <_>
      <rects>
        <_>
          18 20 6 11 -1.</_>
        <_>
          20 20 2 11 3.</_></rects>
      <tilted>0</tilted></_>
    <_>
      <rects>
        <_>
          18 23 6 18 -1.</_>
        <_>
          18 29 6 6 3.</_></rects>
      <tilted>0</tilted></_>
    <_>
      <rects>
        <_>
          18 32 10 1 -1.</_>
        <_>
          23 32 5 1 2.</_></rects>
      <tilted>0</tilted></_>
    <_>
      <rects>
        <_>
          19 17 16 15 -1.</_>
        <_>
          27 17 8 15 2.</_></rects>
      <tilted>0</tilted></_>
    <_>
      <rects>
        <_>
          19 18 18 13 -1.</_>
        <_>
          25 18 6 13 3.</_></rects>
      <tilted>0</tilted></_>
    <_>
      <rects>
        <_>
          19 29 8 1 -1.</_>
        <_>
          23 29 4 1 2.</_></rects>
      <tilted>0</tilted></_>
    <_>
      <rects>
        <_>
          19 32 4 1 -1.</_>
        <_>
          21 32 2 1 2.</_></rects>
      <tilted>0</tilted></_>
    <_>
      <rects>
        <_>
          20 15 10 1 -1.</_>
        <_>
          25 15 5 1 2.</_></rects>
      <tilted>0</tilted></_>
    <_>
      <rects>
        <_>
          20 16 8 1 -1.</_>
        <_>
          24 16 4 1 2.</_></rects>
      <tilted>0</tilted></_>
    <_>
      <rects>
        <_>
          21 10 7 18 -1.</_>
        <_>
          21 19 7 9 2.</_></rects>
      <tilted>0</tilted></_>
    <_>
      <rects>
        <_>
          21 13 16 22 -1.</_>
        <_>
          29 13 8 22 2.</_></rects>
      <tilted>0</tilted></_>
    <_>
      <rects>
        <_>
          21 15 8 1 -1.</_>
        <_>
          25 15 4 1 2.</_></rects>
      <tilted>0</tilted></_>
    <_>
      <rects>
        <_>
          21 31 6 2 -1.</_>
        <_>
          24 31 3 2 2.</_></rects>
      <tilted>0</tilted></_>
    <_>
      <rects>
        <_>
          21 31 24 2 -1.</_>
        <_>
          29 31 8 2 3.</_></rects>
      <tilted>0</tilted></_>
    <_>
      <rects>
        <_>
          21 34 8 2 -1.</_>
        <_>
          25 34 4 2 2.</_></rects>
      <tilted>0</tilted></_>
    <_>
      <rects>
        <_>
          22 9 4 32 -1.</_>
        <_>
          22 25 4 16 2.</_></rects>
      <tilted>0</tilted></_>
    <_>
      <rects>
        <_>
          22 14 12 2 -1.</_>
        <_>
          26 14 4 2 3.</_></rects>
      <tilted>0</tilted></_>
    <_>
      <rects>
        <_>
          22 21 1 6 -1.</_>
        <_>
          22 23 1 2 3.</_></rects>
      <tilted>0</tilted></_>
    <_>
      <rects>
        <_>
          22 31 6 2 -1.</_>
        <_>
          24 31 2 2 3.</_></rects>
      <tilted>0</tilted></_>
    <_>
      <rects>
        <_>
          23 19 3 11 -1.</_>
        <_>
          24 19 1 11 3.</_></rects>
      <tilted>0</tilted></_>
    <_>
      <rects>
        <_>
          23 19 6 8 -1.</_>
        <_>
          25 19 2 8 3.</_></rects>
      <tilted>0</tilted></_>
    <_>
      <rects>
        <_>
          23 28 2 6 -1.</_>
        <_>
          23 30 2 2 3.</_></rects>
      <tilted>0</tilted></_>
    <_>
      <rects>
        <_>
          23 32 6 1 -1.</_>
        <_>
          26 32 3 1 2.</_></rects>
      <tilted>0</tilted></_>
    <_>
      <rects>
        <_>
          24 16 4 1 -1.</_>
        <_>
          26 16 2 1 2.</_></rects>
      <tilted>0</tilted></_>
    <_>
      <rects>
        <_>
          24 20 3 9 -1.</_>
        <_>
          25 20 1 9 3.</_></rects>
      <tilted>0</tilted></_>
    <_>
      <rects>
        <_>
          24 31 3 3 -1.</_>
        <_>
          24 32 3 1 3.</_></rects>
      <tilted>0</tilted></_>
    <_>
      <rects>
        <_>
          24 34 9 1 -1.</_>
        <_>
          27 34 3 1 3.</_></rects>
      <tilted>0</tilted></_>
    <_>
      <rects>
        <_>
          24 34 20 12 -1.</_>
        <_>
          24 34 10 6 2.</_>
        <_>
          34 40 10 6 2.</_></rects>
      <tilted>0</tilted></_>
    <_>
      <rects>
        <_>
          25 8 3 30 -1.</_>
        <_>
          25 23 3 15 2.</_></rects>
      <tilted>0</tilted></_>
    <_>
      <rects>
        <_>
          25 21 3 5 -1.</_>
        <_>
          26 21 1 5 3.</_></rects>
      <tilted>0</tilted></_>
    <_>
      <rects>
        <_>
          26 12 3 24 -1.</_>
        <_>
          26 20 3 8 3.</_></rects>
      <tilted>0</tilted></_>
    <_>
      <rects>
        <_>
          26 20 3 8 -1.</_>
        <_>
          27 20 1 8 3.</_></rects>
      <tilted>0</tilted></_>
    <_>
      <rects>
        <_>
          26 21 8 6 -1.</_>
        <_>
          30 21 4 6 2.</_></rects>
      <tilted>0</tilted></_>
    <_>
      <rects>
        <_>
          27 22 3 9 -1.</_>
        <_>
          28 22 1 9 3.</_></rects>
      <tilted>0</tilted></_>
    <_>
      <rects>
        <_>
          28 20 3 10 -1.</_>
        <_>
          29 20 1 10 3.</_></rects>
      <tilted>0</tilted></_>
    <_>
      <rects>
        <_>
          30 6 16 10 -1.</_>
        <_>
          30 6 8 5 2.</_>
        <_>
          38 11 8 5 2.</_></rects>
      <tilted>0</tilted></_>
    <_>
      <rects>
        <_>
          30 9 12 20 -1.</_>
        <_>
          30 9 6 10 2.</_>
        <_>
          36 19 6 10 2.</_></rects>
      <tilted>0</tilted></_>
    <_>
      <rects>
        <_>
          32 19 13 2 -1.</_>
        <_>
          32 20 13 1 2.</_></rects>
      <tilted>0</tilted></_>
    <_>
      <rects>
        <_>
          33 32 2 12 -1.</_>
        <_>
          34 32 1 12 2.</_></rects>
      <tilted>0</tilted></_>
    <_>
      <rects>
        <_>
          34 13 14 25 -1.</_>
        <_>
          41 13 7 25 2.</_></rects>
      <tilted>0</tilted></_>
    <_>
      <rects>
        <_>
          34 31 6 8 -1.</_>
        <_>
          37 31 3 8 2.</_></rects>
      <tilted>0</tilted></_>
    <_>
      <rects>
        <_>
          35 8 2 6 -1.</_>
        <_>
          35 8 1 3 2.</_>
        <_>
          36 11 1 3 2.</_></rects>
      <tilted>0</tilted></_>
    <_>
      <rects>
        <_>
          35 9 8 12 -1.</_>
        <_>
          35 9 4 6 2.</_>
        <_>
          39 15 4 6 2.</_></rects>
      <tilted>0</tilted></_>
    <_>
      <rects>
        <_>
          36 15 12 16 -1.</_>
        <_>
          40 15 4 16 3.</_></rects>
      <tilted>0</tilted></_>
    <_>
      <rects>
        <_>
          36 25 10 14 -1.</_>
        <_>
          36 25 5 7 2.</_>
        <_>
          41 32 5 7 2.</_></rects>
      <tilted>0</tilted></_>
    <_>
      <rects>
        <_>
          37 17 6 4 -1.</_>
        <_>
          40 17 3 4 2.</_></rects>
      <tilted>0</tilted></_>
    <_>
      <rects>
        <_>
          37 18 6 4 -1.</_>
        <_>
          39 18 2 4 3.</_></rects>
      <tilted>0</tilted></_>
    <_>
      <rects>
        <_>
          37 22 6 10 -1.</_>
        <_>
          37 22 3 5 2.</_>
        <_>
          40 27 3 5 2.</_></rects>
      <tilted>0</tilted></_>
    <_>
      <rects>
        <_>
          37 25 4 8 -1.</_>
        <_>
          37 25 2 4 2.</_>
        <_>
          39 29 2 4 2.</_></rects>
      <tilted>0</tilted></_>
    <_>
      <rects>
        <_>
          38 25 2 14 -1.</_>
        <_>
          39 25 1 14 2.</_></rects>
      <tilted>0</tilted></_>
    <_>
      <rects>
        <_>
          39 22 6 3 -1.</_>
        <_>
          41 22 2 3 3.</_></rects>
      <tilted>0</tilted></_>
    <_>
      <rects>
        <_>
          39 39 2 2 -1.</_>
        <_>
          39 39 1 1 2.</_>
        <_>
          40 40 1 1 2.</_></rects>
      <tilted>0</tilted></_></features></cascade>
</opencv_storage>
