<?xml version="1.0"?>
<opencv_storage>
<cascade>
  <stageType>BOOST</stageType>
  <featureType>LBP</featureType>
  <height>48</height>
  <width>48</width>
  <stageParams>
    <boostType>GAB</boostType>
    <minHitRate>9.9500000476837158e-01</minHitRate>
    <maxFalseAlarm>5.0000000000000000e-01</maxFalseAlarm>
    <weightTrimRate>9.4999999999999996e-01</weightTrimRate>
    <maxDepth>1</maxDepth>
    <maxWeakCount>100</maxWeakCount></stageParams>
  <featureParams>
    <maxCatCount>256</maxCatCount>
    <featSize>1</featSize></featureParams>
  <stageNum>15</stageNum>
  <stages>
    <!-- stage 0 -->
    <_>
      <maxWeakCount>2</maxWeakCount>
      <stageThreshold>-3.7219634652137756e-01</stageThreshold>
      <weakClassifiers>
        <_>
          <internalNodes>
            0 -1 28 -235671041 -715927169 1880218099 1970783231
            -192677381 -125398833 1427366911 1970534911</internalNodes>
          <leafValues>
            -9.4849365949630737e-01 4.9021628499031067e-01</leafValues></_>
        <_>
          <internalNodes>
            0 -1 42 -606094696 -1692856311 -1191112399 859396355
            -49546497 -5593031 -7602767 -4194369</internalNodes>
          <leafValues>
            -8.5380351543426514e-01 5.7629734277725220e-01</leafValues></_></weakClassifiers></_>
    <!-- stage 1 -->
    <_>
      <maxWeakCount>4</maxWeakCount>
      <stageThreshold>-6.6400533914566040e-01</stageThreshold>
      <weakClassifiers>
        <_>
          <internalNodes>
            0 -1 50 -2097153 -75499837 -169885185 -672146985 -3674369
            -1165255217 -688915457 2147482623</internalNodes>
          <leafValues>
            -8.5509920120239258e-01 4.6535733342170715e-01</leafValues></_>
        <_>
          <internalNodes>
            0 -1 0 -8450 -58720621 1074544892 -17119585 -77890029
            -74712421 1599931519 -12545</internalNodes>
          <leafValues>
            -8.2590615749359131e-01 5.9052556753158569e-01</leafValues></_>
        <_>
          <internalNodes>
            0 -1 14 -1174143102 -352096621 -2125336265 -11283101
            -1948533888 -1148459813 -1710886917 -70000685</internalNodes>
          <leafValues>
            -7.9534482955932617e-01 5.5379152297973633e-01</leafValues></_>
        <_>
          <internalNodes>
            0 -1 54 -517 -136325409 2065283069 1473765375 -71304449
            793485258 1472987131 1600115199</internalNodes>
          <leafValues>
            -8.5039395093917847e-01 4.9188834428787231e-01</leafValues></_></weakClassifiers></_>
    <!-- stage 2 -->
    <_>
      <maxWeakCount>4</maxWeakCount>
      <stageThreshold>-7.1895492076873779e-01</stageThreshold>
      <weakClassifiers>
        <_>
          <internalNodes>
            0 -1 58 -136315048 -537536812 -657401634 -237386536
            -203760246 -125132600 -905446774 -622855169</internalNodes>
          <leafValues>
            -8.0977088212966919e-01 5.1748669147491455e-01</leafValues></_>
        <_>
          <internalNodes>
            0 -1 9 -582419491 -573452118 1091339405 1598925199 -74847265
            -288006 1263127755 1594878431</internalNodes>
          <leafValues>
            -8.4447985887527466e-01 4.8172381520271301e-01</leafValues></_>
        <_>
          <internalNodes>
            0 -1 47 -206571073 -70007845 837512437 1574961023 -351544419
            1925963955 723246223 1461701631</internalNodes>
          <leafValues>
            -8.4882438182830811e-01 4.1485211253166199e-01</leafValues></_>
        <_>
          <internalNodes>
            0 -1 12 -972762894 1376143362 1174553171 -86245374 285647098
            -385711452 1476395247 -4241713</internalNodes>
          <leafValues>
            -7.7781593799591064e-01 5.2044367790222168e-01</leafValues></_></weakClassifiers></_>
    <!-- stage 3 -->
    <_>
      <maxWeakCount>5</maxWeakCount>
      <stageThreshold>-1.3464441299438477e+00</stageThreshold>
      <weakClassifiers>
        <_>
          <internalNodes>
            0 -1 29 -589636646 -548137314 -1670981281 -73678311 38337535
            -536892454 1518911231 -333125</internalNodes>
          <leafValues>
            -7.5159507989883423e-01 4.6513038873672485e-01</leafValues></_>
        <_>
          <internalNodes>
            0 -1 49 -2097165 -35671849 319221979 2131706783 -221773900
            827031947 1934278366 2070934507</internalNodes>
          <leafValues>
            -8.1603956222534180e-01 4.4765833020210266e-01</leafValues></_>
        <_>
          <internalNodes>
            0 -1 45 -178261000 -577777153 -1207926144 957419665
            -103298326 -426245969 -40972886 -1145049409</internalNodes>
          <leafValues>
            -7.3118197917938232e-01 5.0324493646621704e-01</leafValues></_>
        <_>
          <internalNodes>
            0 -1 13 -1325354616 -6055040 -1522213377 -146695713
            -2122074120 -7295479 -677119249 -213651079</internalNodes>
          <leafValues>
            -7.4830508232116699e-01 4.4709426164627075e-01</leafValues></_>
        <_>
          <internalNodes>
            0 -1 36 -782763813 -1684434798 136909311 420843771
            -892567141 -7176005 1763756789 453712121</internalNodes>
          <leafValues>
            -7.2377330064773560e-01 4.8395207524299622e-01</leafValues></_></weakClassifiers></_>
    <!-- stage 4 -->
    <_>
      <maxWeakCount>4</maxWeakCount>
      <stageThreshold>-1.6852742433547974e+00</stageThreshold>
      <weakClassifiers>
        <_>
          <internalNodes>
            0 -1 41 -547367026 -170805358 -2134314902 -52718821
            -55395634 -17157500 -1196758390 -89391366</internalNodes>
          <leafValues>
            -8.6933201551437378e-01 4.0174448490142822e-01</leafValues></_>
        <_>
          <internalNodes>
            0 -1 18 -1968517982 -640683949 -793478725 -706750157
            -1886465110 -1968472021 -634723613 -607401829</internalNodes>
          <leafValues>
            -7.7751863002777100e-01 4.6235364675521851e-01</leafValues></_>
        <_>
          <internalNodes>
            0 -1 2 -531315969 -4046602 112248191 -725577473 553660607
            -12310453 303078399 -28060674</internalNodes>
          <leafValues>
            -6.8079119920730591e-01 5.3209793567657471e-01</leafValues></_>
        <_>
          <internalNodes>
            0 -1 35 -773910392 -779636594 1360368092 -582007329
            -1718946837 -1198944102 -1341460757 -1329333297</internalNodes>
          <leafValues>
            -6.2870895862579346e-01 5.3367513418197632e-01</leafValues></_></weakClassifiers></_>
    <!-- stage 5 -->
    <_>
      <maxWeakCount>5</maxWeakCount>
      <stageThreshold>-1.1883310079574585e+00</stageThreshold>
      <weakClassifiers>
        <_>
          <internalNodes>
            0 -1 25 -1 -144887303 1875007612 -144182263 680585468
            1506564596 -1613194531 -67175489</internalNodes>
          <leafValues>
            -7.1321070194244385e-01 4.3905472755432129e-01</leafValues></_>
        <_>
          <internalNodes>
            0 -1 39 -538781729 -581054243 1593956831 1440205983
            -24380493 -88111434 1527496427 534714879</internalNodes>
          <leafValues>
            -7.8584057092666626e-01 4.0969890356063843e-01</leafValues></_>
        <_>
          <internalNodes>
            0 -1 69 -204475438 -201333877 -138771480 -1080038505
            1903358080 1917944128 1914893214 -209984517</internalNodes>
          <leafValues>
            -6.3275223970413208e-01 5.0591534376144409e-01</leafValues></_>
        <_>
          <internalNodes>
            0 -1 6 -221336782 -1284268073 1303236603 -172786737
            -1075323416 -220074599 -809956417 -239473158</internalNodes>
          <leafValues>
            -6.4359050989151001e-01 4.8741984367370605e-01</leafValues></_>
        <_>
          <internalNodes>
            0 -1 21 -169883462 -967118959 18628753 -1012415857
            -1683454832 -339033695 -1618999138 -272678691</internalNodes>
          <leafValues>
            -6.8407917022705078e-01 4.4839546084403992e-01</leafValues></_></weakClassifiers></_>
    <!-- stage 6 -->
    <_>
      <maxWeakCount>5</maxWeakCount>
      <stageThreshold>-1.0747158527374268e+00</stageThreshold>
      <weakClassifiers>
        <_>
          <internalNodes>
            0 -1 68 -149467041 -610810145 -354181669 -171196193
            -145237537 -867450669 -406587169 -70594081</internalNodes>
          <leafValues>
            -6.5644651651382446e-01 4.6016484498977661e-01</leafValues></_>
        <_>
          <internalNodes>
            0 -1 56 -1348495361 -548406358 806617043 1474218711
            -688935473 1363397475 1464455646 1460663275</internalNodes>
          <leafValues>
            -8.1546843051910400e-01 3.5549512505531311e-01</leafValues></_>
        <_>
          <internalNodes>
            0 -1 7 -270074902 -388179201 1271985567 -553721633
            -345965894 -15469799 1431436283 -167784193</internalNodes>
          <leafValues>
            -6.3521844148635864e-01 5.0894546508789062e-01</leafValues></_>
        <_>
          <internalNodes>
            0 -1 52 -69476389 -805830659 1974582065 968489267 -268764230
            -1157955777 -4457798 -1073742853</internalNodes>
          <leafValues>
            -5.1886254549026489e-01 5.8195489645004272e-01</leafValues></_>
        <_>
          <internalNodes>
            0 -1 38 -1502630254 -1725985007 1026505009 454688019
            -460858866 -1743880022 -930510147 -39060995</internalNodes>
          <leafValues>
            -6.9277846813201904e-01 4.5046260952949524e-01</leafValues></_></weakClassifiers></_>
    <!-- stage 7 -->
    <_>
      <maxWeakCount>5</maxWeakCount>
      <stageThreshold>-1.3739950656890869e+00</stageThreshold>
      <weakClassifiers>
        <_>
          <internalNodes>
            0 -1 20 -206832966 -537989118 1369784881 1610545463
            -2004630529 1241899215 -980699521 -67128961</internalNodes>
          <leafValues>
            -6.9344335794448853e-01 3.5179728269577026e-01</leafValues></_>
        <_>
          <internalNodes>
            0 -1 66 -67678014 -70133417 -700978482 -210240929 -73690944
            2001417220 1885723342 -125837541</internalNodes>
          <leafValues>
            -6.7288941144943237e-01 4.0753552317619324e-01</leafValues></_>
        <_>
          <internalNodes>
            0 -1 53 -673195021 -10497637 1366010303 -539535157 -75240452
            421175436 2072771327 1396651995</internalNodes>
          <leafValues>
            -8.2278257608413696e-01 3.2024472951889038e-01</leafValues></_>
        <_>
          <internalNodes>
            0 -1 11 -246287126 2077350242 -662667012 -40514155
            1343281147 -2105415533 1239026943 -4240897</internalNodes>
          <leafValues>
            -7.1196913719177246e-01 4.1117423772811890e-01</leafValues></_>
        <_>
          <internalNodes>
            0 -1 63 -2166092 -145288944 929052728 -548056783 -2061131080
            1787298052 -1641880670 -10486916</internalNodes>
          <leafValues>
            -6.7647892236709595e-01 4.2535397410392761e-01</leafValues></_></weakClassifiers></_>
    <!-- stage 8 -->
    <_>
      <maxWeakCount>5</maxWeakCount>
      <stageThreshold>-1.1462851762771606e+00</stageThreshold>
      <weakClassifiers>
        <_>
          <internalNodes>
            0 -1 26 -1953769565 -686828045 -223378949 -573839737
            153083899 -85937717 -70259733 -4204077</internalNodes>
          <leafValues>
            -6.5347331762313843e-01 4.0551179647445679e-01</leafValues></_>
        <_>
          <internalNodes>
            0 -1 8 2122341887 -10495119 1594422655 -134319749 -10846209
            -36028290 1315986687 -328706</internalNodes>
          <leafValues>
            -5.5523186922073364e-01 4.9755561351776123e-01</leafValues></_>
        <_>
          <internalNodes>
            0 -1 67 -16785476 1694629888 -1626918856 -207916533
            -28584976 365941120 1145819323 -11536929</internalNodes>
          <leafValues>
            -5.5028831958770752e-01 4.9880889058113098e-01</leafValues></_>
        <_>
          <internalNodes>
            0 -1 57 -1211105537 -545275408 -682369889 2146944091
            -541994242 2030566674 1595005935 1600066047</internalNodes>
          <leafValues>
            -8.4570306539535522e-01 3.2331466674804688e-01</leafValues></_>
        <_>
          <internalNodes>
            0 -1 19 -626269470 -611482494 295387709 -620830415
            -2085965318 1258343626 -1011952773 -759441037</internalNodes>
          <leafValues>
            -6.5336120128631592e-01 4.4128906726837158e-01</leafValues></_></weakClassifiers></_>
    <!-- stage 9 -->
    <_>
      <maxWeakCount>6</maxWeakCount>
      <stageThreshold>-8.7052780389785767e-01</stageThreshold>
      <weakClassifiers>
        <_>
          <internalNodes>
            0 -1 59 -101329443 -69709345 -1180698230 -237127522
            -570695478 -353704706 -543162982 -8197</internalNodes>
          <leafValues>
            -6.3097071647644043e-01 4.5441594719886780e-01</leafValues></_>
        <_>
          <internalNodes>
            0 -1 30 -544545608 -540045056 -1767288335 -704655083
            -2009094661 -359939599 -1481385473 -1140859823</internalNodes>
          <leafValues>
            -5.4451286792755127e-01 4.7828555107116699e-01</leafValues></_>
        <_>
          <internalNodes>
            0 -1 43 -7342149 -74208495 -214830185 1567954403 -158602754
            291195786 1606154239 456101855</internalNodes>
          <leafValues>
            -8.3405417203903198e-01 3.1460377573966980e-01</leafValues></_>
        <_>
          <internalNodes>
            0 -1 40 301519768 -679435628 -1861895684 -175671 -1266252552
            -1145814576 959092986 -1635085700</internalNodes>
          <leafValues>
            -6.4186263084411621e-01 4.1774463653564453e-01</leafValues></_>
        <_>
          <internalNodes>
            0 -1 32 -288363862 2052952597 -784206965 -100796166
            -656671286 455022651 -593503441 1061158651</internalNodes>
          <leafValues>
            -7.9333871603012085e-01 2.9330402612686157e-01</leafValues></_>
        <_>
          <internalNodes>
            0 -1 4 -1508932623 -1455052953 -1737238305 -1245462056
            -1426343723 -840183159 -1421624873 -294669807</internalNodes>
          <leafValues>
            -5.7052522897720337e-01 4.6477013826370239e-01</leafValues></_></weakClassifiers></_>
    <!-- stage 10 -->
    <_>
      <maxWeakCount>5</maxWeakCount>
      <stageThreshold>-9.1956657171249390e-01</stageThreshold>
      <weakClassifiers>
        <_>
          <internalNodes>
            0 -1 60 -136323843 -673753633 2107298352 1595504667
            -287385358 -188954408 -1348535365 -7348225</internalNodes>
          <leafValues>
            -6.1502712965011597e-01 4.1466856002807617e-01</leafValues></_>
        <_>
          <internalNodes>
            0 -1 23 -243011111 -71066837 -693949811 -705176625
            -104354632 -1081681270 -454820981 -168313601</internalNodes>
          <leafValues>
            -5.2970963716506958e-01 4.9027034640312195e-01</leafValues></_>
        <_>
          <internalNodes>
            0 -1 65 -13659772 -545836969 806638330 2010002387 -70665024
            -747171263 -1196824353 -184582149</internalNodes>
          <leafValues>
            -5.7569795846939087e-01 4.3601435422897339e-01</leafValues></_>
        <_>
          <internalNodes>
            0 -1 3 -630129409 -19488432 1824971195 -588590642 -247434243
            -38529871 1297084927 -79772946</internalNodes>
          <leafValues>
            -5.9223610162734985e-01 4.4177994132041931e-01</leafValues></_>
        <_>
          <internalNodes>
            0 -1 37 -1942175809 -79985764 1091627313 -134229375
            -1496587785 -608534326 -1173946701 939521791</internalNodes>
          <leafValues>
            -6.3858807086944580e-01 4.4277849793434143e-01</leafValues></_></weakClassifiers></_>
    <!-- stage 11 -->
    <_>
      <maxWeakCount>5</maxWeakCount>
      <stageThreshold>-9.8696786165237427e-01</stageThreshold>
      <weakClassifiers>
        <_>
          <internalNodes>
            0 -1 70 -144714802 -138564273 926650895 -1017128113
            -250613050 -789684224 1934357199 -211026993</internalNodes>
          <leafValues>
            -6.1999207735061646e-01 3.8066262006759644e-01</leafValues></_>
        <_>
          <internalNodes>
            0 -1 34 294977998 -174993066 -920395993 -707923326
            -546890849 -259150894 -678716481 -542119249</internalNodes>
          <leafValues>
            -5.8627736568450928e-01 4.3601393699645996e-01</leafValues></_>
        <_>
          <internalNodes>
            0 -1 16 -237046812 -1011971369 1119087905 -234886463
            -909119051 1299939903 -1148724772 -739276081</internalNodes>
          <leafValues>
            -5.6890499591827393e-01 4.5509266853332520e-01</leafValues></_>
        <_>
          <internalNodes>
            0 -1 17 -74793230 1512608644 -587014469 -585141573
            -1280398790 -2013208528 -1953379073 -608223094</internalNodes>
          <leafValues>
            -4.9706226587295532e-01 4.9136090278625488e-01</leafValues></_>
        <_>
          <internalNodes>
            0 -1 51 -751109123 -146374497 541825335 1393456723
            -1128801554 227607568 1638321151 1669331935</internalNodes>
          <leafValues>
            -7.2544562816619873e-01 3.9880141615867615e-01</leafValues></_></weakClassifiers></_>
    <!-- stage 12 -->
    <_>
      <maxWeakCount>6</maxWeakCount>
      <stageThreshold>-1.0715497732162476e+00</stageThreshold>
      <weakClassifiers>
        <_>
          <internalNodes>
            0 -1 62 -1140858915 248249309 -652314863 2132279089
            -491787585 -1346139510 -72619019 -267587</internalNodes>
          <leafValues>
            -6.7354261875152588e-01 2.8361582756042480e-01</leafValues></_>
        <_>
          <internalNodes>
            0 -1 31 -251668993 -168457778 -1316771434 -209208327
            -255937794 -50354883 -189059925 884997567</internalNodes>
          <leafValues>
            -8.4604334831237793e-01 2.5617370009422302e-01</leafValues></_>
        <_>
          <internalNodes>
            0 -1 46 -1929128466 1516779747 -1061495590 -264531838
            -830240930 -1366687712 1034321662 -68427782</internalNodes>
          <leafValues>
            -6.3788616657257080e-01 3.3792009949684143e-01</leafValues></_>
        <_>
          <internalNodes>
            0 -1 72 -8389426 -962868633 44209870 845088847 -757597626
            -1288993454 1915089663 1919679095</internalNodes>
          <leafValues>
            -6.5320575237274170e-01 3.6199185252189636e-01</leafValues></_>
        <_>
          <internalNodes>
            0 -1 1 -152510209 -540557206 -1401503489 -805319172
            1062270207 -1345341441 -1 -1879060993</internalNodes>
          <leafValues>
            -4.5497947931289673e-01 5.2657419443130493e-01</leafValues></_>
        <_>
          <internalNodes>
            0 -1 44 -608387077 -489369590 269720059 1561268439
            -1184428822 964763865 994695911 453970095</internalNodes>
          <leafValues>
            -8.4682154655456543e-01 2.9397067427635193e-01</leafValues></_></weakClassifiers></_>
    <!-- stage 13 -->
    <_>
      <maxWeakCount>7</maxWeakCount>
      <stageThreshold>-1.3621855974197388e+00</stageThreshold>
      <weakClassifiers>
        <_>
          <internalNodes>
            0 -1 15 -1626630406 -552636286 454635730 2109673973
            -905144097 -620658614 1193009919 -67153409</internalNodes>
          <leafValues>
            -6.4143764972686768e-01 3.1620794534683228e-01</leafValues></_>
        <_>
          <internalNodes>
            0 -1 64 -4203695 2042599933 -1725301253 -1929999911 -1050608
            -858009476 -1109655621 -1732640813</internalNodes>
          <leafValues>
            -5.7814985513687134e-01 3.8940501213073730e-01</leafValues></_>
        <_>
          <internalNodes>
            0 -1 22 -69992706 -1790253314 -1062479875 1428021727
            -1156920068 -1507929176 -1433861925 -3421494</internalNodes>
          <leafValues>
            -4.8874098062515259e-01 4.8158174753189087e-01</leafValues></_>
        <_>
          <internalNodes>
            0 -1 71 -170691894 -1414947757 539304170 1861199053
            886537284 -351271901 -1260930306 2030042975</internalNodes>
          <leafValues>
            -6.9917184114456177e-01 3.2461979985237122e-01</leafValues></_>
        <_>
          <internalNodes>
            0 -1 55 -896540770 -545222275 -736087050 -1288064651
            -903214198 -922506984 1001093714 -1080366342</internalNodes>
          <leafValues>
            -5.6793266534805298e-01 4.0447503328323364e-01</leafValues></_>
        <_>
          <internalNodes>
            0 -1 5 -205327640 -175187412 -66025073 -68943065 -2145344330
            -1183827854 -1878902145 -26140033</internalNodes>
          <leafValues>
            -6.0550099611282349e-01 3.9314141869544983e-01</leafValues></_>
        <_>
          <internalNodes>
            0 -1 48 -2069890049 -63514683 486569461 534283600 -620630277
            -6387566 722582219 459241659</internalNodes>
          <leafValues>
            -7.7400845289230347e-01 2.7664661407470703e-01</leafValues></_></weakClassifiers></_>
    <!-- stage 14 -->
    <_>
      <maxWeakCount>5</maxWeakCount>
      <stageThreshold>-9.7854214906692505e-01</stageThreshold>
      <weakClassifiers>
        <_>
          <internalNodes>
            0 -1 33 -111364 -644677416 -604844841 -149208652 -391451682
            -357333621 -1549098341 -1145409862</internalNodes>
          <leafValues>
            -6.7181295156478882e-01 3.0178880691528320e-01</leafValues></_>
        <_>
          <internalNodes>
            0 -1 61 -67174738 1937441280 20294328 -42515183 -1030823230
            -1407153447 -1899321638 -67379217</internalNodes>
          <leafValues>
            -6.0955363512039185e-01 3.7266048789024353e-01</leafValues></_>
        <_>
          <internalNodes>
            0 -1 27 -1282679638 -204241446 219413971 1972833427
            -91496790 -1279221542 856550075 -206106467</internalNodes>
          <leafValues>
            -5.5040317773818970e-01 4.1458061337471008e-01</leafValues></_>
        <_>
          <internalNodes>
            0 -1 24 -1834226446 -606608849 216766245 -923009417
            -1165238294 1858826723 1538242679 -542389902</internalNodes>
          <leafValues>
            -5.9772992134094238e-01 3.9653277397155762e-01</leafValues></_>
        <_>
          <internalNodes>
            0 -1 10 -143148298 2078668222 242798239 -821064683
            -1171195754 -1990135373 1044440315 -611492609</internalNodes>
          <leafValues>
            -4.8762798309326172e-01 4.9199077486991882e-01</leafValues></_></weakClassifiers></_></stages>
  <features>
    <_>
      <rect>
        0 16 9 8</rect></_>
    <_>
      <rect>
        0 20 12 5</rect></_>
    <_>
      <rect>
        0 29 10 3</rect></_>
    <_>
      <rect>
        1 28 10 4</rect></_>
    <_>
      <rect>
        2 4 6 7</rect></_>
    <_>
      <rect>
        2 15 10 4</rect></_>
    <_>
      <rect>
        3 3 15 8</rect></_>
    <_>
      <rect>
        5 12 5 7</rect></_>
    <_>
      <rect>
        5 26 8 6</rect></_>
    <_>
      <rect>
        6 9 12 10</rect></_>
    <_>
      <rect>
        6 15 9 8</rect></_>
    <_>
      <rect>
        6 16 7 7</rect></_>
    <_>
      <rect>
        6 22 6 5</rect></_>
    <_>
      <rect>
        8 6 8 7</rect></_>
    <_>
      <rect>
        9 8 5 6</rect></_>
    <_>
      <rect>
        9 12 5 2</rect></_>
    <_>
      <rect>
        9 18 3 4</rect></_>
    <_>
      <rect>
        9 24 3 4</rect></_>
    <_>
      <rect>
        10 9 3 6</rect></_>
    <_>
      <rect>
        10 14 3 4</rect></_>
    <_>
      <rect>
        10 15 3 3</rect></_>
    <_>
      <rect>
        10 19 4 6</rect></_>
    <_>
      <rect>
        10 22 3 4</rect></_>
    <_>
      <rect>
        11 7 7 7</rect></_>
    <_>
      <rect>
        11 13 3 4</rect></_>
    <_>
      <rect>
        11 15 6 11</rect></_>
    <_>
      <rect>
        12 1 3 8</rect></_>
    <_>
      <rect>
        12 10 5 3</rect></_>
    <_>
      <rect>
        12 12 8 6</rect></_>
    <_>
      <rect>
        12 23 7 6</rect></_>
    <_>
      <rect>
        13 12 2 3</rect></_>
    <_>
      <rect>
        13 13 8 6</rect></_>
    <_>
      <rect>
        14 19 9 5</rect></_>
    <_>
      <rect>
        14 29 2 3</rect></_>
    <_>
      <rect>
        16 7 7 5</rect></_>
    <_>
      <rect>
        17 10 7 3</rect></_>
    <_>
      <rect>
        17 25 4 1</rect></_>
    <_>
      <rect>
        18 21 4 4</rect></_>
    <_>
      <rect>
        18 23 8 5</rect></_>
    <_>
      <rect>
        19 21 3 1</rect></_>
    <_>
      <rect>
        19 30 5 3</rect></_>
    <_>
      <rect>
        20 13 7 4</rect></_>
    <_>
      <rect>
        20 22 8 5</rect></_>
    <_>
      <rect>
        20 23 1 1</rect></_>
    <_>
      <rect>
        20 24 2 1</rect></_>
    <_>
      <rect>
        21 15 8 7</rect></_>
    <_>
      <rect>
        21 16 6 1</rect></_>
    <_>
      <rect>
        21 21 1 2</rect></_>
    <_>
      <rect>
        21 23 3 1</rect></_>
    <_>
      <rect>
        22 18 1 2</rect></_>
    <_>
      <rect>
        22 22 1 1</rect></_>
    <_>
      <rect>
        23 17 1 2</rect></_>
    <_>
      <rect>
        23 17 8 7</rect></_>
    <_>
      <rect>
        23 20 1 1</rect></_>
    <_>
      <rect>
        23 22 1 1</rect></_>
    <_>
      <rect>
        24 12 5 3</rect></_>
    <_>
      <rect>
        24 21 1 3</rect></_>
    <_>
      <rect>
        24 22 1 1</rect></_>
    <_>
      <rect>
        25 12 6 5</rect></_>
    <_>
      <rect>
        25 17 7 4</rect></_>
    <_>
      <rect>
        26 18 6 5</rect></_>
    <_>
      <rect>
        26 23 4 5</rect></_>
    <_>
      <rect>
        26 23 7 6</rect></_>
    <_>
      <rect>
        26 26 4 4</rect></_>
    <_>
      <rect>
        27 11 7 7</rect></_>
    <_>
      <rect>
        29 16 3 2</rect></_>
    <_>
      <rect>
        30 15 3 3</rect></_>
    <_>
      <rect>
        30 22 3 4</rect></_>
    <_>
      <rect>
        31 2 3 8</rect></_>
    <_>
      <rect>
        32 14 3 6</rect></_>
    <_>
      <rect>
        33 12 3 5</rect></_>
    <_>
      <rect>
        33 19 2 2</rect></_>
    <_>
      <rect>
        35 17 2 3</rect></_></features></cascade>
</opencv_storage>
